0.5471625197749982;
-0.14675079698069318;
-0.4572458985341679;
0.8954619018173261;
-0.4096318949122705;
-0.2057248935456575;
-1.2578050222772543;
-0.8543304925322437;
-0.2932197969717501;
-0.07769732798716375;
0.24723483613078945;
-0.4370214083877106;
0.27107414050913503;
-0.17323917466701652;
-0.11161796483127022;
-0.0793533534938136;
0.2923398782631103;
-0.3636601632592503;
0.518695455383493;
-0.9330774926406519;
0.8150990752364867;
0.5147778868201585;
-0.39173846413044977;
0.6281977478027132;
0.24231760695507504;
0.8543830216920674;
0.06938970482015965;
-0.43827213019810074;
0.15516258028970048;
0.23801049426029827;
0.4837435732047514;
0.5533583225800925;
-0.7952756757546887;
-0.5598894494220935;
-0.24430998620719493;
0.660393297682884;
-0.42727195914366944;
-0.783783944690182;
0.4245216786372023;
0.14002576010988294;
-0.2441809599945326;
-1.1146262280570878;
-0.315359321978602;
0.6487913061874376;
0.3254580736850463;
-0.8123844672747781;
-0.9034371587870025;
0.4902375290508814;
-0.662066931457175;
-0.27093732767153467;
-0.6316759265415934;
-0.7765566981806578;
0.28257646502226397;
0.14973991795129607;
-0.9099558988405919;
0.09885755852621729;
1.0421608882477849;
0.12835290892360518;
0.8413276509221999;
-0.2835171103867765;
0.6384197497249614;
0.6630309766580068;
0.4683223501539758;
-0.5408495848493334;
-0.8413213476107646;
0.006368617296693111;
0.6822661624562711;
-0.44464279873296547;
0.1534927163057799;
-0.37029661192154323;
-0.0725931854156184;
-0.6674360735584901;
0.09253192994884389;
0.1039563455226834;
0.5777659128555535;
-0.7364001539998146;
-0.9251044796435393;
-0.6769585904506097;
0.38162492492081457;
0.9811713586658979;
0.20875474834485092;
-0.7262082911404392;
-0.11975259342993276;
-1.161511238736036;
-0.6826257731450172;
0.43222713808895696;
-0.6593303565727298;
0.6337101571368916;
-0.9710919671692501;
-0.23018657068873705;
0.16674009915865629;
-0.8706954033457242;
0.9373334846845203;
0.1370343102421489;
-0.023742401915387627;
-0.35332009944533893;
0.36814531947228973;
1.050695892015752;
-0.7854337231814623;
0.48070464910585486;
-0.3595601254846403;
-0.46926597688835925;
-1.06751377663081;
0.5989946288014287;
-0.8096727922081097;
-0.4800871016054695;
-0.16596636143006926;
0.3106323659058675;
0.6918329975257276;
-0.1284521043568712;
-0.5639779778336209;
-0.14764893975996163;
-0.039357410423021745;
-0.4560267312786606;
-0.7056711096803214;
0.18804793268106523;
-0.8762172070314317;
0.6655558152009245;
0.8778985370099704;
0.5484623624036566;
0.6545043981163065;
-0.2969331242430815;
1.0351660348393368;
-0.2951288901728158;
-0.8333941615226705;
0.7382500795385704;
0.7852165978167338;
-1.0073449597627173;
0.5774868154504886;
0.5956428534092654;
0.8066317671252458;
0.22870803729874584;
-0.12278418343913705;
0.8416246230379207;
0.9766417533757705;
0.4690958592534898;
0.6573345759823718;
-0.08266449532128291;
-0.19065759289155157;
-0.2320916271315266;
-0.9196235422403594;
-0.29451630361950404;
0.23071429194998372;
-0.7537995585955062;
-0.382975637722661;
0.5160566584891101;
0.9704638888493198;
-0.25655069843958805;
0.6389428062635758;
-0.18957749028230692;
0.22230738754856422;
0.2013129430261102;
0.31161716669324885;
-0.4285067288785645;
0.9382426351587269;
-0.1904621349899876;
-1.000324208278566;
-0.8017858352996703;
0.07841039219634129;
0.5799864604256325;
-0.5841891566388222;
0.2892360224656226;
0.18917016878015683;
-0.3701225146717816;
0.8369216390184432;
0.34709635691995255;
-0.15437675307152052;
-0.01670186216657764;
0.7936910366926371;
0.12745112212606277;
-0.46846786206483665;
0.8611663820091651;
0.5023397755312798;
0.4550277304944102;
-0.13678952293504335;
0.03956835369961428;
0.5704381047203164;
0.4211079089791184;
-0.5239441876521017;
0.021070304129139635;
0.24304126322348016;
0.29693630926858416;
-0.4512862068835637;
0.9567422880834423;
0.5432575130377326;
0.6390838798475663;
-0.3221554902303318;
-0.42107985832624495;
-0.6552582788513627;
0.7614894605999105;
0.8622977195869697;
0.3440688704363176;
0.1820796345650522;
-0.785468242551342;
0.35723253461420235;
0.0041491795681543155;
0.6025762712518542;
-0.6131159757507927;
-1.1578699269673232;
-0.378018133704529;
0.5009097172224246;
-0.3094998936243233;
