0.5217739629424905;
-0.3417814708400164;
-0.4100386362340225;
0.8431488535713703;
-0.10810984412217162;
-0.23320736034400188;
-0.9819487485669209;
-1.0367529234490789;
-0.23619573343934436;
-0.33198352907663026;
-0.010031764379033612;
-0.2988822512083806;
0.082737334849185;
-0.08899308591370864;
0.028693289279801637;
-0.14087537569849679;
0.37357637706146796;
-0.6024583801566564;
0.23950866194123255;
-0.982478968530911;
0.9826843457627258;
0.5555497178151912;
-0.39436829406554935;
0.5121677558992285;
0.5557807187477646;
0.8513476393770477;
0.28134334130781313;
-0.17493215131469944;
0.1752521886679101;
-0.06052447376554009;
-0.11727074419247975;
0.5054156236299397;
-0.7188597083392314;
-0.5284365213017198;
0.19651704637223297;
0.9062754811610197;
-0.25679369338579605;
-0.49626450228008495;
0.6533999198540023;
-0.05067837401120965;
0.11981819681263335;
-0.8182480733197782;
-0.4408658288093329;
0.864008655585729;
0.6342348381714111;
-0.6788555075620916;
-0.9513665171919692;
0.6259383534592616;
-0.5456045357694321;
-0.2538468451251908;
-0.5032161418895432;
-0.5848379778411272;
0.4547557942424883;
0.3199985346225868;
-0.5914930467059386;
-0.035777349110370824;
0.6905094786459576;
-0.15515907018706482;
0.9375129114749549;
-0.49659008430144413;
0.6554860007054182;
0.5644915146417796;
0.17974110470778867;
-0.7023040343499006;
-0.8083278975331839;
0.5373687951913857;
0.6678342154182347;
-0.24668473230485918;
0.1805859815219316;
-0.493586821989077;
-0.11980533789667307;
-0.7114581606169792;
0.5794158378882966;
0.3177481172537125;
0.8963694758148533;
-0.9196679013239134;
-1.0455683434391947;
-0.4705798881681723;
0.8217723423765964;
0.7863467565103898;
0.14753306814443304;
-0.4043914964216564;
-0.14243415679367402;
-0.8007751226881608;
-0.4176101254913711;
0.272707245839718;
-0.41990107472164523;
0.5371019973617046;
-0.6552177338419473;
-0.046362192670340606;
0.13517512404596183;
-1.0484725226632983;
0.850694414741459;
0.019284315110093146;
0.17363174094501704;
-0.46873073561067347;
0.2760795344762089;
0.8917478302471652;
-0.1037118014504463;
1.0508236151498855;
0.08433146961412619;
-0.5626799148535365;
-0.9867334249263117;
0.8820777633368813;
-0.46976109715892883;
-0.4185606712027208;
-0.4327203695327356;
0.5365008420380898;
0.8249250339507589;
-0.018420595059481053;
-0.5949277128353727;
-0.06361244602875286;
0.36166691708243354;
-0.30536893365688544;
-0.6265139218940416;
0.4119830597774034;
-0.5863735896029284;
0.4076847419041944;
0.7669490431388873;
0.5478714836104744;
0.8339429312082978;
-0.10334102831510221;
0.8237843853188576;
-0.48455914363811536;
-0.8629398511618274;
0.7204502933849511;
0.8152539949229437;
-0.8803839178672701;
0.4908833127379366;
0.32784445384898764;
0.5553426514318109;
-0.0022730338650984107;
-0.13264484614830785;
0.90177397019421;
0.7218943410529997;
0.5645933551521003;
0.6223044340898096;
-0.5347113510437709;
0.165878857566401;
-0.18181277952908004;
-0.7235141080759968;
-0.42465290493554625;
0.6575998051870693;
-0.17880911292939528;
-0.19913251063886303;
0.424346197733503;
0.7891691667526965;
-0.17988266647803103;
0.5278474268126508;
-0.18252547672978733;
-0.34266731150176116;
0.370856313708119;
0.4101950810974815;
-0.21617452727829567;
0.7878515766155162;
-0.29753515841966666;
-0.923165476026766;
-0.8695928827051851;
0.12236058251604039;
0.2087542467737262;
-0.5127843100386003;
0.376284864774788;
-0.037745745989493276;
-0.06829553395109447;
0.8876085711963368;
0.18751709861985885;
-0.38354086741918825;
-0.056053507338208235;
0.4987853898888887;
0.0062403432761025685;
-0.43498825880988823;
0.8790141056037734;
0.539447723296863;
0.7333933385679501;
0.3827126162978531;
0.094082448076312;
0.7794578499025088;
0.3767228851937622;
-0.3265817153395512;
-0.3106988085677781;
0.10134036012269847;
0.646530494178809;
-0.4223408259307573;
0.8360075954547853;
0.5361504874666846;
0.5153246806763306;
-0.8033347036444906;
-0.19970823784542055;
-0.9447370910494417;
0.8138728585612351;
0.7412664581821825;
0.25758412249376705;
-0.15214385258159432;
-0.9337106120106613;
0.42163873717119393;
0.0595370446579031;
0.5645578891818597;
-0.737010622670525;
-0.9878566933774273;
0.028824197641304925;
0.7906836468510229;
-0.5060043741030007;
