0.570854728034249;
-0.10306729641830155;
-0.457367360151756;
0.9151532445447573;
-0.43402094731055946;
-0.20161200848895475;
-1.2782048192942455;
-0.8678344882403334;
-0.28742905750708864;
-0.04068062482612986;
0.2505380937276701;
-0.4375405554141908;
0.2720341413234458;
-0.17309072934766764;
-0.09647796495451795;
-0.028811154015467515;
0.28215092100073547;
-0.42832685537713366;
0.5626392980587813;
-0.9271499254449896;
0.8161686844438076;
0.5026364133650808;
-0.3928222663308132;
0.6683095753224246;
0.19420670257796718;
0.8538445809259768;
0.08364866358098422;
-0.5058676331530597;
0.14689999010671667;
0.2762971315221743;
0.5206244215200395;
0.5649335075116612;
-0.8097280064217226;
-0.5376992077851128;
-0.2503833993346274;
0.6334183831281213;
-0.43734565166791417;
-0.8075924231151302;
0.4436549616378378;
0.19545283773938546;
-0.2932752943966705;
-1.1419152114524218;
-0.3189497358726886;
0.6587202011636966;
0.27792337346692636;
-0.807671933534236;
-0.9521214049392672;
0.49635651287698124;
-0.600945478752588;
-0.2723237137950644;
-0.6310139962040399;
-0.7673112985409071;
0.2844415673361322;
0.1576322709025107;
-0.9143478825000939;
0.09531448782274808;
0.9981684956290949;
0.1445308329962266;
0.840308356474763;
-0.30083938987339215;
0.6356461272734785;
0.6926859790939365;
0.5230716649047011;
-0.5750792556390627;
-0.8422866985016112;
-0.005858589894444894;
0.6682479967881978;
-0.4512315757658131;
0.15492982827759427;
-0.3647031092214934;
-0.06814269732110069;
-0.6754707591707423;
0.08315928351612507;
0.10159305004610487;
0.5371157751364937;
-0.759188732644773;
-0.9377427236180377;
-0.6847339700064942;
0.3380989188420754;
0.987390764489173;
0.21781856614302936;
-0.7201255993418351;
-0.120763090877245;
-1.1660909094222074;
-0.719326166349647;
0.45766145702829675;
-0.6094520863146661;
0.6328440349999799;
-0.9886579571337312;
-0.24334229551921208;
0.14277628601184683;
-0.8835334206955069;
0.9482302265063018;
0.13413638049860666;
-0.029066267794461195;
-0.3543552336244304;
0.3614766838692453;
1.06880877564562;
-0.8027807495942388;
0.49495759791896576;
-0.4054894052203996;
-0.4700847609689742;
-1.1103788585470387;
0.5753379837700053;
-0.8340724936267723;
-0.49221077648333106;
-0.11343309791366325;
0.3116954515850499;
0.675690810556113;
-0.1386542546274978;
-0.5638303834575584;
-0.14782535026269025;
-0.08682062247656619;
-0.4453433487116659;
-0.7114818329996575;
0.15985633785812772;
-0.9460723707030738;
0.6971725049901202;
0.8544320740219429;
0.5403835058543257;
0.6900273296175157;
-0.35503384336378746;
1.105219807188596;
-0.2883373779614753;
-0.9002894074848187;
0.7396599354969248;
0.7872382571057741;
-0.9977318575930034;
0.5870716613728512;
0.609736017420989;
0.7894118991408546;
0.23824168224633047;
-0.11902178574700709;
0.8310751519533833;
0.9188795203650196;
0.47871490505752384;
0.6585999120870851;
-0.04587458196459388;
-0.2562901388687854;
-0.2336698280650349;
-0.9221345492023665;
-0.29873272316177446;
0.2340593290497842;
-0.744073085195623;
-0.3921918266676168;
0.5248600279349118;
1.005383545493833;
-0.25595337271185187;
0.62638271580738;
-0.19133368420327582;
0.17930659503520216;
0.2193629441902164;
0.31034283756196324;
-0.4983721410459367;
0.9551988622159862;
-0.1908275892269031;
-1.003201691880481;
-0.8614461350246119;
0.07393332034468501;
0.5861489718671012;
-0.5888325438609117;
0.2959999541640357;
0.1659577759453604;
-0.4632800738766505;
0.8335897808952601;
0.34269629001202045;
-0.11993111704322844;
-0.011989903743907907;
0.847990557255282;
0.1128531003561999;
-0.4713900250996697;
0.8465239289953157;
0.5020958390190604;
0.46260860155205646;
-0.14989669324274066;
0.032408706771263715;
0.556457315235547;
0.39850141859854965;
-0.528180060145713;
-0.007412649340983249;
0.20062768179502058;
0.24670497896018104;
-0.45158947931086285;
0.9702107321310791;
0.53972938046732;
0.6572114777766657;
-0.3062623357016109;
-0.4264379326839804;
-0.6245451818971536;
0.7541646711820468;
0.9201868598403972;
0.37262673887974745;
0.18251375888767962;
-0.7696957234667111;
0.3569717484584083;
-0.0010957668368355652;
0.6008772182929178;
-0.6096059095143695;
-1.1627202351320065;
-0.40283664773257627;
0.4728679699949312;
-0.31306403548996425;
