-0.8363686088782166;-0.5603404403206437;0.05083982461739213;-0.361249452258798;0.825137117673952;-0.07208541342021584;0.7656597154167344;-0.712488512939259;0.09072707325825757;-0.8889370516929458;-1.127628864864909;0.32817903274207116;-0.30798212692226395;0.3275758830343049;0.5116361886160422;-0.56003060428691;0.29550787598513195;-0.5611705510974747;-0.8669902095656914;-0.18884890247133063;0.4078207941211981;0.22359197913043627;0.03619374794623672;-0.7978843070580258;1.118887542551226;-6.958676594508265E-4;0.34823146847116454;0.8011645033861636;0.23583798650825036;-1.0036496723739639;-1.082428719766575;-0.13596900878586962;0.7675485941627278;0.2991722995806637;0.9843996870542467;0.6966569681932678;0.2914613408818465;0.7329961792660088;1.0862033416744732;-0.7757698981713764;1.1081007681340316;0.8405270890593433;-0.2227910358352843;0.8172842958790956;1.0208730422766528;0.13349468676667176;-0.6882666160410088;0.2655050832486681;0.8146403194868936;-0.025893456768350625;0.3402325449013786;0.38164583117958734;0.40377236286035684;0.27396188338006716;0.7051637986585617;-0.4603684112785943;-0.7054257247909096;-0.674993678735734;0.23439216927295115;-0.8791424018867774;0.0221003648644258;-0.5675290714778147;-1.1069726121622425;-0.5408939203101814;0.025369763397780635;0.9820521148627528;-0.26520734688965364;0.594215537710505;-0.10743626182228572;-0.31429246231779173;-0.12020207224401183;-0.055116176143994104;0.8523522943448929;0.48070180529163403;0.6580051491811194;-0.5473971569354121;-0.36280752750698597;0.5199659965690436;0.7728465490603237;-0.5628184955752744;-0.19650135521942555;1.0502676395380437;-0.10241798536101496;0.9286292572832586;0.793576780289905;-0.6757970623093824;0.995842340301836;-0.2161554614115308;1.1497104714771096;0.48831863115689217;-0.31089482147131065;-0.4034586630690898;-0.33164589075080664;-0.40364274038426506;0.5288883168097959;-0.8188759290531031;-0.38170523393257244;-0.4342475872161753;1.281170601765441;0.941404961141932;0.9721991958919372;-0.4116728394563215;0.8990503503299603;0.48632026473833534;0.7422527559831007;0.2311302455627036;-0.5989635165845165;0.3664538156886773;0.285976354169254;0.5077006352654508;-0.1685134575376189;0.08057226803943664;0.8806911818306004;0.6341619533220648;0.10375938465149302;1.0449554022949714;1.131506122541226;-0.6558898230058382;-0.37654419662297245;-0.08678828314529452;0.5418664114555171;0.43851663316260187;-0.7870868057397462;-0.39280222752991606;0.9189427720309017;-0.14678497562616205;0.07722951770566039;0.42429857220763173;-0.4484162742931937;-0.7620318158764279;-0.559126996748578;-0.516851818765239;-0.11637503945812151;0.13107028033345813;-0.7334760892245881;0.14625015514778417;-0.19982660604585523;-0.8929088671011747;1.2906260304658312;0.055263536836217195;0.45245902521189546;-0.6750418306269429;0.9111136875035842;1.1310541995542827;0.5295393157956177;-0.31639569224585634;-0.4175439767735248;0.45318745943815253;-0.3476731267641749;-0.0496445682894479;-1.0478758906056007;0.35473588992759897;0.14881532250285168;1.2838955639568832;-0.7264720371629947;-0.41026191732364203;0.25072819724580536;0.9884285558022708;-0.04598772738215964;-0.9066884537580912;0.7235351679661589;0.20064748628397783;-1.0773072122470404;0.9519276070842178;0.010495249214970477;-0.5381294864019401;-0.8789406069354777;-0.1386848268655376;-0.8732611817032113;-0.3524775811294378;-0.02105625362710157;-0.30622683148242363;-0.041848766830038;1.1656196834061094;1.082394517295455;0.7438701595206616;1.0334611933225644;-0.23548704465099926;0.5778091513623671;-1.0214429426024392;-0.8083391451729772;0.9239466566625795;0.04009207827650251;-0.8994081394099515;0.05189812113831308;-0.6047193191779179;-0.9360435494625274;0.25129999254099067;-0.9039403166280663;0.2315145168077983;-1.120082986220897;-0.808730433957069;-0.9382993436268199;-0.59561369380822;0.07694269185395905;0.09239324698156495;-0.06134037748687349;-0.45251068336662836;0.6405604449027976;0.6980081491230364;0.7721972160598594;-0.36671189235854124;
