-0.8581471028339457;-0.13081604694055096;-0.2140258514343898;0.9805494855673789;0.3802055852717759;0.6434670205784845;-0.2706921107070446;0.037339369234298446;0.04828587950735894;-0.8799849899062318;0.42355473107947783;0.8867967327572535;-0.1057234886158796;-0.674180708655926;-0.5047459106762151;0.3793868104370633;-0.633187737636135;0.9447344751870609;-0.2514035321693737;-0.973602818828615;-0.6541452622693165;0.24614463437565692;-0.804896968377406;-0.418967463221927;-0.962637537360969;0.09933311718097089;0.26625112264450884;-0.4657468058539531;-0.2731288437935266;0.7741688983518175;0.7934357340370312;0.42939249777527116;0.2695135397566366;0.0799002009447957;0.6354804375592573;-0.9677651622251183;-1.0169207411482368;-0.595784839538804;-0.4164769896196249;0.28935508926542514;-0.7708367937841822;0.7645125637968729;-0.046366631534427154;-0.5168802645443814;0.38699766064215446;0.8454391216106895;-0.7435780764345288;-0.2079024215835294;0.08595815385637691;0.5908124666696117;0.6788505958835478;-0.615735096273242;0.22463973413313476;-0.17754867000560082;0.7382321550168411;0.7539830653121112;-1.0567234261160316;-0.02794496997366237;-0.5159079180241605;-0.8725906720907011;0.1309925350298697;0.3992770681950916;-0.7482272667006963;-0.3725618472012704;0.16191188344660742;0.8910308231042456;0.9232284826937952;0.7022225109451763;-0.9758170805152091;-0.7871255634696769;0.4857189229957836;-0.8179687640952703;0.005522715706653962;-0.08252126685442965;1.0142231252176361;-0.06560635496715225;0.10275865358474759;-0.9929762506242152;-0.6137494019648359;-0.9136153272995364;0.29115633764746446;0.10955768285107226;0.8823330027288803;0.1929732230192636;0.8839476751433379;0.4221290633296014;-0.2988126222637199;0.18439967467320814;0.2671971159977594;0.9338223326015561;-0.89707073921651;0.8362960045208154;0.47218614055730884;0.16904345215153288;-0.42599642545083555;-0.6434489743599704;0.3584774043547345;-0.7872892351035462;0.4040123778709926;-0.9584122252269442;0.7604730000243032;-0.5395173996374747;-0.4334150235960345;0.19287194293573462;0.3824754597658752;-0.5642021291544339;0.4881508520325407;0.006698251760943769;-0.8506417970605603;0.043418597555553586;0.16508220311654778;0.9568226592316466;0.47499360744710867;0.9779879573161508;-0.5648308781376624;0.4652597189257677;0.9001332532879186;0.29149636846843463;-0.37951709875739825;-0.4778649679166497;-0.43912188046018724;-0.4190071637697773;-0.27148105869116074;0.47826287239079174;0.7400140379356029;-0.3798916597232157;0.05754973794823428;-0.11449359202929207;-0.26609894048394483;-0.567541439951464;0.8022808200235542;0.23712377929008854;0.6820748670130165;0.01751277229755234;-0.37192707089399524;0.7354001410080319;0.6270241105366615;-0.41434541797007646;-0.44108834657731405;-0.16304557131118702;0.8323862885556077;-0.11573629922366077;0.9896802230436171;-0.2715247363765871;-0.45112279805257793;0.4634308535788607;-0.7457281169460933;-0.0740556176281089;0.9640187567834793;-0.17048053467791108;0.6300229928198157;0.5640891472999193;-0.5221092741426556;-0.12241140350979689;-0.3978926399375281;-0.763731404776615;-0.49155273150110945;-0.6579085655329857;-0.9013528048747906;-0.47527442756789484;0.3412445767827772;-0.2910817120104953;-0.18383281142078192;-0.3842836151848021;-0.40543348542214813;-0.5651915811239119;0.32590619362601475;-0.9454148841680318;-0.6222503002870307;-0.12345176126220567;-0.056741118915776996;0.30950366473332125;-0.29202071046424083;0.49830019189769037;0.7678142275831843;-0.8944964209263802;-0.6907120683612799;-0.4600227484968104;-0.9085994391199341;0.24709538355603644;0.7976614832418469;0.20597528926318825;-0.43484040734160795;0.7783989340990449;-0.2602073244857661;-0.6287409909668518;-0.7472071361575905;-0.503413803934459;0.25378131740448584;0.1700364337091668;-0.013116964459944983;0.5445130181061253;-0.8518379152882585;0.2913227046766447;0.9877540343507091;0.9964011748550735;-0.049069037506254576;-0.09309060989493652;-0.8141249804061477;-0.4644178793574816;0.07294108981938238;0.809900146923808;
-0.8817066238779713;-0.0656515064412193;0.22700418881297835;0.8268499682571238;0.8044738954483007;-0.4604332770604854;0.6455890553662638;-0.7777124713065313;0.9288939819105821;0.0849671322813337;0.6224335141312187;-0.7380075828699684;0.2850300900239426;0.9522187306442607;-0.7372425169201782;0.17537731943961488;0.09514865545495069;0.5173832054126033;0.3443535645860174;0.19784750084753147;-0.30740909931043187;0.2655122339368467;0.9803831528940973;0.1921223633331633;0.30316165765638686;-0.4936279345413635;-0.011834046361650983;-0.5940925755517362;0.2571768278774797;-0.6901621730176964;0.9058196533428626;-0.8259297140038202;-0.003238276931951694;0.07463701321003054;-0.37745728022457437;0.8444049641212014;0.6950749919605761;0.08446212777147644;0.1567520842870473;-0.3388824440224512;0.5377746394899153;-0.04495697373264413;0.07123043308355487;0.7831078931608053;-0.7876340509667732;0.10531532815349855;-0.1265264548420308;0.16785468435662795;0.45055647732768694;-0.4068034425380642;-0.06297964701062905;-0.12573152204662308;0.21200356465708742;-0.4776702617028056;-0.48348293643049256;0.007078222157774995;-0.41356921753535714;0.7806551045986524;0.0021043615083789205;0.7864093737403216;0.15081048033907862;-0.479931334593617;0.3961187198573096;0.4413026520727382;0.8561690950525969;0.9849431135947819;0.5569940292230715;-0.8990817892510866;-0.3965777571389655;0.9472511312470678;0.8341630560027266;-0.21170301378281797;0.4214481394828738;0.511992188665069;0.012831903178805183;0.8428306305946995;0.1661235204455833;0.8572896622918438;0.8160804628545735;0.6416027412463686;0.7549235647322774;0.870966406789203;-0.46764664583142335;-0.43728128827350715;0.7751346105032678;0.32100617522661606;0.33649315390999984;0.22306680744359786;-0.9936185323424925;-0.4352856251899352;-0.44732544163516735;0.15745100327527148;-0.07960633049038426;-0.7458873843021318;-0.7878976945643691;0.4457175755675651;-0.9432680174218137;0.8890939706912382;-0.3162071848560745;-0.27998181876066164;0.18662225665837795;-0.8618292618858172;0.5423682117837755;0.640664541146819;0.9183539420300516;-0.932397115000009;0.20547547107309685;-0.8185568217256826;0.49424397162483563;0.38042627554958913;-0.05241104641756578;0.2636547233450239;0.5611532753132441;-0.48727581076817167;-0.13132031725473703;-0.8121359133081321;-0.22036575846369064;-0.3138477643439308;-0.8817351816374046;-0.24840963509073533;-0.015937130752648573;-0.14662053369448885;0.13000998324236254;-0.25104905873017463;-0.7370748133261388;-0.562069077836203;0.7281827523555701;0.07082285329369742;0.6342530555539337;0.3216005681934346;-0.1603842744619066;0.12463060402925473;-0.4620247876532879;-0.40306053333737185;0.539511493657108;-0.013945572189782696;0.9291376859054135;0.4565431296679591;0.6696367035401167;-0.5793181742685454;-0.46682450701350453;0.9091952047439588;0.04829465461152683;-0.4151201861305645;0.8452606674963824;0.6415368276331647;0.16945374030837612;0.4335208211895651;-0.33634155538253446;-0.20424819970254537;0.8583692093228256;-0.7235042368279111;0.8733993472773283;0.6593698910679036;-0.2919546069795097;-0.453571602084932;0.7452485832222042;0.7311741310023169;0.0014712437446436116;1.0010547556263705;0.34782155353729166;-0.24457140339442765;-0.6630364022588032;0.48616677814949855;0.7584267565546575;0.05740846181431622;-0.7243752388990025;0.05021984166747504;-0.5539081848051947;-0.24341669339544228;0.7530337158927917;-0.13516737265108128;0.918082896435231;0.6040961034585859;-0.6074219043429037;-0.49041461881493237;0.5749980610839946;0.36068689549320426;0.8370645086263206;-0.049593129097310513;-0.9099148290409811;0.711573362511443;0.07281302065623298;0.17329670829146218;-0.7017085868802304;0.06535832515724556;0.5099243936728641;-0.8569295785811438;0.6976330549899661;-0.12596262145291148;0.13820456634603023;0.9089673843924829;0.865563090441529;-0.358412572982945;0.40892396918112517;0.15834959868384058;0.1584683938346454;0.7599012688863986;0.9741689109349548;-0.6687186298817297;0.07705544712880802;0.19858387617816822;
0.6155514931374299;-0.5933184206697013;-0.0461287965527466;0.7595101313428958;-0.699601043030266;-0.8958481812849722;-0.9540845372329765;-0.09649754198819316;0.9759008320917958;-0.6781179322125489;0.7070893104781906;0.4133174447904907;-0.8428913219510679;-0.23300529672153522;-0.7996055306038237;0.6516118478961932;-0.12881596294411346;-0.5822188985888866;-0.9118331554323253;0.6141783928507968;0.5783588423897901;0.7402758189262076;-0.8479831680394976;0.9564183591957643;-0.6743627604799814;0.3251081598320673;0.4495144188756559;0.4077553633104033;0.22761035739810978;-0.486096360423598;0.253848610392121;0.4263009666074577;-0.008988968722396802;-0.3516502593698711;0.8855653479097041;0.6043793222872664;0.17355572799241306;-0.07128951111452154;0.6078360784029372;-0.9713974823305915;-0.29987981193575186;0.1975385005747818;0.9313130362321679;-0.3081899944469777;0.8105781313322986;0.8253763568052247;0.06890875744366118;0.28391020112814336;-0.7029492561946974;-0.7605358722861898;0.2584259423994406;0.9561228007213332;-0.16598750639887236;0.4962126786758131;-0.5900566110424598;0.24783756282505964;-0.8078941156082725;-0.34657443347463707;0.787370730118367;-0.12650312389612015;-0.29409151499505404;-0.3628027601269757;0.7985510808470491;-0.27426865886089413;-0.9043786185465041;-0.9865800670281626;0.09810839446787012;-0.26703472803677725;0.23240504935405443;-0.3829795149346489;-0.8247827391336163;0.7598532435630061;-0.7163352947183449;-0.36072848848045513;0.5527908524069609;0.20327440416914333;-0.3352673047105062;-0.5673244274061415;-0.4701630826055839;0.8622089108133395;0.9128797836458402;0.5307543480659288;-0.29018006215298925;-0.46366524603297543;-0.983326011289671;-0.42535512923349217;-0.6885734611572817;0.7763013834359563;0.3963634688113274;-0.6493485310786805;-0.7336472822596178;-0.2826041662430254;-0.903175790676028;0.9713954428089625;-0.8714720294814237;0.6128542425745802;0.09164160971136673;0.7848436522558634;-0.6757316376930154;-0.2360561769535474;-0.7480909967437883;0.049814392629288065;-0.7369332988908572;0.5065478961806719;-0.17423569342207457;0.022672790478116683;-0.7340170329056704;-0.12935188271161316;0.5424035658812886;-0.35058393021034584;-0.5674520052678278;-0.1255015750807726;-0.4428806974861247;-0.504801336125655;-0.12308420857848125;0.9355013652649953;-0.04487808985066312;0.7015268552221894;-0.980058462890364;-0.19215251568689237;-0.03191717942597394;-0.8900567846388225;0.9468855021995619;0.7533918754405194;0.5307402913103689;0.26044971372975484;0.3178965843253133;-0.8237579149319918;-0.5690055038696409;0.24891932622010834;-0.3932234467213662;0.42602690890197;-0.016614351734353182;0.6722129643061266;-0.0019733517773446;-0.5851231135346134;-0.4563156626200978;-0.8910727404457539;-0.5253473979151033;-0.006398082598044666;-0.7314922357489311;0.8722411709056948;-0.6596619189635767;-0.527457322051614;0.5820078359022701;0.07459177306754779;0.18587288070548863;-0.12716680566211186;-0.06335564412204099;-0.21853255689039322;0.7795148888206943;0.9776878201872383;0.7187537116050979;-0.6458522585605433;-0.6961271726404347;-0.5655965357416014;-0.752004960636292;-0.79411539356733;-0.25931053728319964;0.6227206857767819;-0.11901107522470307;0.2521494394355549;0.44099613097708873;0.01676598073677963;0.44190041760713;-0.9812453351826043;0.16468679103945627;0.9983298790377262;-0.4966018666947641;-0.3533389428981736;-0.7812200905088199;0.16771300273770218;0.22286628741191203;-0.4578089476108505;0.36093762384509925;-0.9925691000219935;-0.19220059389473074;-0.7898856217322667;-0.6196077996297878;0.23506062490848473;0.9281757885056654;-0.49961305343503437;-0.20333545688420748;-0.9410445226359397;-0.8553879048130335;0.9774462081887683;0.9338455295001757;-0.6096380937617552;0.6723424410729244;0.6053212845175422;0.3237463038301524;-0.7738652511211096;-0.20439933623755513;0.6379850395468283;-0.6333411380535172;-0.6573189199777614;0.4174894629957131;0.27733526476361153;0.2185453572783373;-0.509665781810612;-0.3860646446561594;-0.2751682566864122;
0.4273329012305062;0.022712579046082076;-0.9207913475893572;0.30950911691481586;0.2654013162201656;0.4250895232846656;-0.13043409564199204;0.7963646244018616;-0.055388284099985946;-0.8749433911173575;0.5026565455921341;0.7159866280699113;-0.09179388610793086;0.4851209562877729;-0.15903394326079656;0.11892581967569645;-0.3898069635447405;0.1664167486156281;0.4731078429693203;-0.09675046632380505;0.5524491188501538;-0.12029712251187681;-0.8781662806098145;-0.5931717992375326;-0.9069926149664734;0.23234497313028749;-0.8382723867892349;0.9458114286217152;0.11489497053842695;-0.006485777004644678;0.34398284224064296;-0.9636161189876863;-1.0430603157027079;0.905106709752218;-0.06580739394283451;0.2522028016572718;-0.10879642749398355;0.691343329589584;0.864542774982894;-0.7210340701811234;-0.6712292966066655;-0.9206437318753722;-0.5795116642228669;-0.8098169562890772;-0.7515867912230094;-0.8325614223928959;-0.6080592394522769;0.7575571385027283;-0.7960544373334184;-0.5472725488622127;0.7087235008153012;-0.0435089299331322;-1.0368990158540057;-0.13529437977609515;-0.5834513640412734;-0.38259574029119364;0.7479067195812367;-0.11213224091962586;-0.7289133999493486;-0.9488622902398014;-0.4925864440034706;0.33765928516287946;0.5863821452045077;0.8495721247343796;0.6978598526428952;0.975235679965069;-0.680902990600023;0.9895784143909853;0.16047293012535904;-0.4008755048768737;0.01667131071293514;0.7903906899503843;0.44648738391562975;0.1411369742444197;0.45842315656410854;0.026962960437271807;0.6283647313174185;0.11620819517272349;0.7027103666026402;0.5170344965487391;0.10309770790052497;-0.14134078215923426;-0.38625520819910875;0.7514217779743038;-0.05291127090242524;-0.17807760569997824;0.33325206647659444;-0.963313723314247;0.5077834734800961;0.4435651846283318;0.3650684995139737;-0.27108300086385373;0.14674140265734448;-0.11492408671322348;0.1437981094639104;0.3864030901109154;-0.9764377404036644;0.34259544095822925;0.04577538738577947;0.9399978723933351;-0.5225690171304178;-0.11185493962264445;-0.2527236564537483;-0.5471339200565096;-0.17884626549257024;0.504137182900725;-0.5013678796898037;0.493288952103031;0.3589906113878158;0.06677151145599022;-0.9735784202902505;0.545691590487751;-0.9036635478890596;0.9492174515695511;0.6215623289663486;-0.9529875819656987;0.19274476959780454;-0.4076000640661287;0.3974332270310371;-0.8570727210886652;0.6500534447684467;0.9133081595810817;-0.664825977314712;0.14252441312149888;0.868437795931831;-0.3558549930490585;-0.7153185526322898;0.19031707251956934;-0.773723974865136;0.15607986296663862;-0.7908161857732754;0.13096626178902043;0.4784256005693455;0.8234986064179122;-0.07599017848051388;0.24572524265596873;-0.2702171897976894;0.846846469900992;0.44189364030023787;0.438065996305903;-1.0002020526194455;-0.9755512447066346;0.6276039108595338;0.7423085390074708;0.4751328378664485;-0.01034506784907579;0.9353852742320705;0.3284661821536464;0.3461639096030664;-0.40098128936637173;-0.4879548298278933;-0.9909363365660101;-0.8855312294632501;0.45118390296350014;0.36902456883878887;0.19984647786786014;0.6489194253281069;-0.545514929057155;0.2773218180716437;0.6412106717825496;0.27335227263398504;-0.10518794103731627;-0.3450622107611228;-0.9178646211372004;0.31049866705810586;-1.0030433657305537;0.709695451424351;0.28920960273852997;0.7293086267107859;-0.737925593031031;-0.739486077653683;-0.8909860755260786;-0.2523202880379145;0.6214531440089023;-0.17667001123924495;-0.8169672376650307;-0.16898959073029954;-0.41813137835052194;-0.9888391682675294;0.9818004189338183;-0.055582388397827254;3.019907598020733E-4;0.47594843360882727;0.526679707156988;0.9285813147387136;0.4040678761407325;-0.12977623490999876;0.1367241967717865;0.6594746848967783;-0.6829755775560806;0.506433801379101;0.5069603338283222;-0.9745393946110117;-0.9792841471523911;-0.9569347368165257;-0.4322047582151015;0.04029207189856243;-0.4503813803047759;-0.6365014677235172;-0.16546903183003348;-0.13166911153750097;0.7101610418306716;
0.42819503404095727;0.9852251048819988;-0.48127370365858013;0.2613282909848561;-0.3366452455839551;0.9743961388347048;0.2201958109908222;0.20069400564769505;0.9601134714182528;-0.8193678540918476;0.3735234272706329;0.8908592925680203;1.0021542403867354;-0.9009268694150823;0.037622690456952324;-0.35027864578978746;-0.3682981442890371;-0.8683675648531833;-0.5980997421165266;-0.8131145033902739;-0.25911721675753463;-0.41311837942460766;0.6418467974429797;0.19880621851399854;-0.7044345908884819;0.6515781791983506;0.44468301984940556;0.8283196462185409;0.6324798323214118;-0.42127038439915765;-0.10353671723503041;-0.0987725515412077;0.8452769867639475;-0.34147043841930386;-0.2956810375637307;0.9127067994954354;0.6262607416159436;-0.9606337503830896;0.9530277577371034;0.12468949096967662;-0.7813658621491623;-0.9649751781456924;0.6615639100230897;-0.9084056035927555;-0.1631094979814454;0.8996587510747724;-0.17373746217808084;-0.007625111239797027;0.21491204765703853;-0.9222475904511623;0.7669185467065778;0.4737114714643724;-0.3024386821448514;0.6486328699689878;0.37726263045751696;0.32988346594593954;0.2838371235461228;0.4274314810152846;-0.7297414224956589;-0.8641733718093729;0.13172854417546614;0.6856190690562046;-0.37143447739011326;-0.027810196662343807;-0.062366953834323315;-0.5150926079970967;-0.029710081029373434;-0.03778277939856793;0.7716217949821329;-0.2656081640161916;-0.7274137035973028;-0.45509717123996307;0.9504016181558947;-0.45335922162090175;-0.7591919445923401;-0.2834368871704124;-0.4332461155566778;0.5723195977013746;-0.43532079868639356;0.05050924137891603;0.8334934766797286;-0.1743283628851279;0.08727087562538602;0.8655560789212617;0.5783158959200988;0.34943376377547314;-0.43104749811699455;0.22923162614936268;0.26163150716263717;0.39291937352803785;-0.6991254405871328;0.17614956321391714;0.4286507061574402;0.42642987892904294;-0.35931995183289756;0.07439905484994312;-0.4938316307072299;0.4941052903608636;0.7153629219029158;-0.6511529363513553;-0.4262416589093369;-0.3172141181667805;0.8690978174284557;-0.8995533750336159;-0.723868458149033;-0.05829589014859711;0.7897874939299326;0.0867608240543514;0.8247670533545501;0.7876413192179089;0.6293977965324756;-0.1545748207914328;-0.6374318649098115;-0.7875283484236805;0.13939264671282958;-0.7308382380501597;-0.784152490451065;-0.07218665057417684;0.03162117494534611;-0.6780245499968899;0.7235318575828078;0.993394196974431;-0.1383624842020836;0.3991245830752414;0.38887884647269855;0.05569652995939926;0.3322049170711303;0.6214578982174048;0.08470482691622111;-0.17619257967682408;-0.3934664368652974;0.8939040731651945;-0.626921087272075;0.7386231129779769;0.41563967851892764;0.9383284139282666;-0.2690186085200941;-0.6487503546656554;-0.3475639179004148;0.6797607303205206;0.15695675517546748;0.20960802950313823;-0.0388750580205037;-0.6798812647972146;-0.8158885545883012;-0.4330153922407066;-0.7171103666202346;-0.06623280509462218;-0.046474621586477936;-0.09590706145081505;0.7143321831960374;-0.20517020003722616;0.4836189578163244;0.057434375975155064;0.7662106049673896;0.5435721363961301;0.46504431439958444;0.36481817703597486;-0.15504970313311847;0.13038790342139409;0.9073034850759935;0.8874371363612998;0.8024846253373171;-0.5046656231846409;-0.958679067147917;-0.11815635613461928;0.6024043734090772;0.006470600920619081;-0.07043455655467548;-0.12837830154801408;0.8612111017205001;-1.0192853591915834;0.5719347648228377;0.22204129432467548;-0.4636070772577986;-0.8739789298936721;0.13695633195081214;0.35476002156343195;-0.1853495642035246;0.29069365610821557;0.3428075063097016;-0.9395203203844528;0.698016186970923;0.3537837234943515;-0.11319536231991911;-0.9715357985929379;0.7566574843889456;-0.7484497060257139;0.4491097376412434;0.4550203992776069;0.34138432356901127;-0.4376845689016896;-0.8605565408137437;0.1761028201500802;0.7583834466462437;-0.8833957418657731;0.5124372199462097;-0.49959890378130506;-0.3874233967809224;-0.02028494331298981;0.25115038367012726;-0.024457962079982232;
-0.1856229568516913;0.324194777650406;-0.12675969784930774;0.008003708122174739;-0.02746286493730237;-0.07236877983257803;0.7720468342969162;-0.35274954632552075;0.812524893216503;-0.8456425231012283;-0.9153904014725931;0.39677508379764437;0.9238762987784881;-0.4022159055884761;-0.14029448531871225;0.4036550323075098;-0.8010229445475452;-0.04818605951276955;0.9479465717920543;-0.5151381879528519;-0.11218769588984012;-0.8189374558202926;0.016277927982595385;-0.4535646896433587;0.587391401951871;0.6860287870677363;-0.2459901965463234;0.9282507739151967;0.3254395391798299;0.6179283995145287;-0.5817813398479783;-0.8955305618551239;0.5643542419890465;-0.5852545779256706;0.5122158650884308;0.7779614879442132;0.507740740413582;-0.3841838264607962;0.38346369651319034;-0.2977372991390283;-0.0593331460778542;-0.7537736344649385;-0.7041202706412087;0.07185039811000234;-0.21440638476380164;0.6078086358370235;0.6009658804621251;-0.3117199358303901;-0.8328073508154777;0.33505458200364946;0.7808395327947751;-0.7354584435632125;-0.30250696294460677;0.16142521701205098;0.0955907820457378;-0.3855695869055381;-0.6758013541294792;0.7188393176273737;-0.6290988156279291;0.8335878442279467;0.8553892279599823;0.12757622305198218;0.5630776422562196;0.09011528704917247;-0.05222072291314718;0.7489155007178375;-0.004380872901533572;-0.9553982500061249;0.5204975456049751;0.05613641260925696;-0.2849370838342568;0.33605267960113344;0.23319670316868768;0.19644251114504366;0.04767470586460895;0.17889982968175586;0.24331543253607452;-0.04251900020553738;1.0027347121617616;0.7961520679642299;-0.8982353655587225;0.7399422019098785;0.3455293454509592;0.5358736272217035;-0.6412747992525647;0.6680244303508108;-0.18559657990908793;0.8219847966803951;-0.046080773636409146;-0.30354895850759234;-0.6009909358637152;0.8591845557871819;-0.8738188515875981;-0.7267805669863127;-0.4859282787031801;-0.340443142533524;-0.0699980001584206;-0.9854527107309893;0.4724382428858764;-0.8831536575695292;-0.1448901331598328;-0.7341054708873515;-0.4524975328664465;-0.20725671302409865;-0.6153938628425244;0.26486371297915995;0.32257342286398466;-0.4191250769353885;0.3914896623538988;-0.32489221034064764;0.22849024392801773;-0.4918015824849362;0.49952150943950857;-0.5280013757126888;0.6172158851804268;-0.14479578184090747;0.5972433350990459;-0.5002138956482621;-0.5099670816698992;-0.7710969518710529;-0.9056056524406376;-0.8514544023447315;0.5014090737895718;0.10035714868678029;0.3720565582877643;0.012848409696358172;-0.8282520102039352;0.8170798533825527;0.7250725600160437;0.4806140213431664;-0.6043933444922661;0.11144483484297613;-0.7648677808810358;-0.6580810762647565;-0.937359967616855;0.5646102184758073;0.40278991300565703;-0.5848940456196404;-0.1001594791530678;0.32408716152317774;-0.9516286603383198;0.6156395088570921;0.8317731672974978;-0.6146537077339506;0.9292975835476536;0.5956279872666338;0.38152080210855527;-0.41095667548829007;-0.22802157250334285;-0.04047186328799182;0.8611365842177361;-0.6248251656055611;0.7504979931023698;0.9931876967196542;0.9943081539081352;0.9045488048857182;0.7833282536779;0.037209371584090864;-0.1537698520280237;-0.3135733597994511;-0.18902384633497915;-0.2004210257033589;-0.20090202516415417;0.09511639115414006;0.5449490990827094;0.6065712019505269;0.08154348838150623;-0.6367706217431388;0.326757416471321;0.8222354119253504;-0.13149543347252687;0.264543060245291;0.3446380844154204;0.5604890977684042;-0.5166609189066448;0.606720202903909;0.3025721260348387;0.5026367126452288;0.14602833735736476;-0.045956405565231784;-0.697067952515499;-0.12123171029003856;0.7943662975283068;-0.8727324436364743;0.9597210811204284;-0.014412029430034258;0.6981140404801114;0.46598582181909376;-0.605696428636268;-0.747593035698587;0.8138485329987147;0.5050876298132029;-0.3043312236301461;-0.0715865866827732;0.8034461076569076;0.3993125824862173;-0.1419604470768736;0.07220955880869193;0.7475255616918336;-0.8412243624091771;0.22432515093254318;-0.3539537289666559;
-0.17893585540956247;-0.044188466141650055;-0.47786748253867484;-0.08927864485412564;-0.47147142448694795;0.2323769222629866;-0.09671803695503312;0.3816026097533589;-0.4700043185326605;-0.42654982220632137;0.23287175536287208;0.08562964798266606;-0.8265610048337954;0.31551453052556133;0.16950156566364183;0.46248281800283975;-0.2307685877520019;0.08709574662277136;0.8044737144589036;-0.9592950601980609;0.06186955506757187;0.11087031766584059;0.33120963363644296;0.552804666804831;0.41860496006554493;0.03540302660933662;0.24682467908106034;-0.7128733868876342;-0.9830391513531388;-0.5958664061140707;0.7620670696654462;-0.9322862845944538;0.41465027054931947;0.5552393725305034;-0.9232973503969205;-0.5557707914309793;0.41788882683868706;0.6643758221166509;0.017718717051298214;0.9873835952243502;-0.7261409878360939;-0.8298300456530268;0.6810702861438994;0.7111233807202966;-0.005634004882501241;0.1174534003197923;-0.6825656294173053;-0.7540782340522653;-0.5941850546060863;0.7004289152153113;0.25063996906523267;-0.9065288743835911;-0.35099762706913507;0.710494230031201;0.6123268179328154;0.073439686907386;-0.8158608881186895;0.07109866014212193;0.7729357004761147;0.3382380157935919;-0.6400755229284512;-0.7510548320521276;-0.9774837181862998;0.9589457328555063;0.41981971288829717;0.676832932326689;-0.3872248023540287;-0.0563143333850893;0.2767558633926313;-0.7706378769204061;0.49784028845851264;0.24802841263363135;-0.2947631607103894;-0.8062033108737766;0.3459837540580366;0.4845307169026326;-0.780861832626607;0.46206551921217254;0.856493029074647;-0.12768517768659943;0.609159558292294;-0.8002628703288764;0.6892934967880556;0.6735604458457942;0.16117979761358064;0.682859838861843;0.5108743155811641;-0.9100002992860897;-0.5120389351496822;0.41606160995681735;0.8775047234322715;0.3433101802234256;-0.9713969299044729;-0.31053105803919595;0.7885785440221235;-0.44740111482605843;-0.1600678413190954;-0.07342959110511532;-0.1396699092846992;-0.4290290186165513;-0.06955212860088254;0.33558964645023237;0.8113778474915255;0.9560791682951806;-0.4934182244836129;-0.7673392259309497;-0.31851182560225405;0.37285062245291684;0.6477057897395746;0.8146241701247455;-0.8060751858718835;-0.4954238406041641;-0.02113116157199089;0.2841962279604938;0.2573950676409413;-0.8626579007235441;-0.7364066980479028;-0.5480262085829436;0.4854959444613882;-0.47543868646390175;0.335973595252124;0.7926989594575;-0.16400854660180897;-0.544037950006431;0.798859392473214;0.5240704640173941;-0.10026098335900425;0.27234245936413465;-0.14355823487179312;0.5326998435689155;0.2948719870624653;0.16064765038789874;-0.6495767631142593;-0.3089565814040313;0.7284982715464197;0.6607401908839892;-0.1346450797368496;0.6180144573126711;-0.9618484121152978;0.38644509184345266;0.8993429982409814;-0.4116343197220823;-0.9157995802763641;0.3207299744276084;-0.5005934333079554;0.5573778229799069;0.4170541007785399;-0.5258094909695853;-0.19864208813969153;0.12658701511621626;-0.2511580331015267;-0.5022156495828268;-0.8975264164829279;0.12096074678043672;-0.7016249269152184;0.06042860310758726;-0.8771183557590296;-0.3725002681678341;0.9306782377116277;0.6651532427673371;0.016546925314585906;-0.9763880858729684;-0.7457840188908462;0.5778704078962466;0.025237656232807673;-0.7240099613979554;-0.1475024086185952;-0.25415456994663127;-0.4733459459025935;0.4338788629526448;-0.33750132406753514;-0.9559289575407313;-0.18964191274534886;-0.8870338310478249;-0.08658014688933172;-0.1884874712859632;0.0778847775820619;0.007041172101018145;-0.7436437796511569;0.51896420792437;0.9769799959796794;0.6212268551308044;-0.25696905403179626;0.033944812106800455;-0.13244153058202235;0.8156476360729035;-0.4535788913664816;0.002631631540327226;-0.07513755284040613;-0.18632597991883232;-0.29452930333375527;0.3980672872558766;-0.8033321901750186;-0.9063803899359325;-0.7178774406763502;-0.7415864910410046;-0.4555759958953134;-0.09676628891645983;1.6171174919590677E-4;-0.10342519671766584;-0.7165062787710452;-0.4353991699197401;
-0.34770469353751465;-0.0018320777794475533;-0.8398835538595475;0.004733545297606948;-0.7389736316473259;-0.07176944787188855;-0.3954185279930007;0.883523221827948;-0.5518241030013791;-0.9733118649024249;-0.39914586113168227;-0.815087805050379;-0.5657029810264638;0.39991882703309106;-0.8970230093015423;-0.49240812064588463;-0.5569434024784559;-0.3430469522107706;0.5158918895755293;-0.27649172529827026;0.7785412746054318;0.5952506449850189;-0.01794944475689116;0.11061141443636038;-0.42347306052709965;0.7448245449101342;-0.5387626689867363;-0.29993500311295956;-0.6138512844958951;0.6987802517896741;-0.6856674079298634;0.605601540407439;0.2713352880584474;-0.4407914492635642;-0.14579546561371684;0.8064787002573934;0.10808137192950797;-0.9147076177125164;0.1469178384183971;-0.7942337332635201;-0.8030405733154691;0.38011002265583044;0.20950838040626266;0.2150429203028165;0.37648862523470367;-0.6022055474468266;0.5693995864540193;0.5199062518008292;-0.48208543607489773;0.46995111805624556;0.89619875300157;0.34823359407206883;0.40657544723536804;0.07330306297388083;0.30785459008695937;0.4625802091326912;0.5065331870248838;0.979046561784865;0.34990922411907266;0.7733713643754592;-0.39091993267551467;0.4231956561277586;-0.17187620805971987;0.8387065190864625;-0.4648853182289022;-0.6045845025929828;-0.2587804198422921;-0.8149153463969249;-0.18715989655093407;-0.2460157571176045;0.5047298343736333;-0.8030169637887478;-0.19289805836613153;0.2576737653222627;0.33298900559916383;0.49351919022006724;0.7907994912302297;0.22621059105567326;0.5886316686171104;0.6621348744064228;0.4546632424925478;-0.16281181577610174;0.9083238673513434;0.49221321464492257;-0.7152944282039988;-0.6047994940853049;0.40347912358118815;-0.010180012103436834;-0.3513342405931317;-0.14802618103797535;0.22391907625070365;-0.4446794995180206;0.22818840977346405;0.6916310232124105;0.7446123459227342;0.7717334197724284;0.4966259650436673;0.2256714220404622;-0.6432029430305196;0.3395023053960487;0.16992673192276625;-0.5042501097211306;-0.953737522952968;-0.9255288482176305;-0.9463441453632048;-0.6374064247531627;0.7809194112384922;0.7118688651750036;0.8480606342073572;0.9128990966821949;0.799274270564736;-0.5954025168392494;0.9285057838913882;0.3550004937885773;0.9818218177050456;0.9193414528244843;-0.9493408874097857;0.6849690891837762;-0.22650323595583535;0.9746427924439944;-0.6162931813300621;0.772679638306273;-0.666001964812034;0.7642154703562256;-0.8746866976546936;0.2702347956799458;-0.8483610173129278;-0.8194066302277444;0.4085021135880315;0.4376915943239585;-0.5933048673057705;0.6417397643867838;-0.705192168741093;-0.5334738298043481;-0.6209032696295186;0.18719775223027385;-0.9187896725893814;-0.04429266399566581;0.7878984520753913;0.26459084288689527;0.7431338993676497;-0.7672309959413626;-0.3454895916278063;0.18973551823534027;-0.7712660014106814;-0.10956547731881147;-0.3031257195076889;-0.012389397751825942;0.841268092768706;0.44794160671451116;-0.742888255494446;0.28801343792306283;0.2264451572995175;0.06451573217118943;0.26594841009572934;0.9541385659291342;0.8380747339659325;0.2373445600044949;-0.6689070055223612;-0.8093295250210166;-0.21602158649924683;0.906366060286857;0.0680447246761502;0.8609125880860878;0.27477608546525967;-0.6302861983250129;-0.6995457447636894;-0.7877825904917333;0.3177421735774349;0.5093487239052649;0.8404936524487239;0.5986279886848036;0.05637645577323704;0.6718642845616173;0.31780944621414436;-0.31813335920070884;0.3366565836669137;0.6860661105703821;0.8667409311850873;0.446148068739969;0.22616155353651046;-0.8796742944458994;0.16699515804525503;0.6504070551129354;-0.7551553343607373;-0.25048250834320224;0.3369228974475926;-0.0658207457197434;0.6740069343751589;-0.7306943083690621;-0.6909451175281778;-0.6752923580954437;-0.9296704365496316;-0.501400990931485;0.20885963384502518;-0.3383907037216113;0.224211167656035;-0.31316860327376567;-0.8665438304839754;-0.8383955523282701;0.6600217155637355;-0.43239861695154636;
0.2840978953636973;0.05214339352183338;-0.5841190552162807;0.9847881417927564;-0.25943253697719443;0.9254276203033005;0.9690528013700637;0.07787051103245923;0.6993236083693165;0.6772429333882821;-0.339351142631942;-0.1937172605648913;-0.21418766774214795;0.2621932441513736;-0.6267660383228759;0.06793176028074445;0.8903326075822723;0.05333949859961563;-0.21421001598959566;0.4488662791796847;-0.6886882058404761;-0.37850222975635506;0.7031282946624348;-0.7766503192741134;0.04696079695681628;-0.254704487082852;-0.5449628706221626;0.9355627211399962;-0.6361289183368937;-0.4942803400993356;-0.03259027106287272;0.1155909845727242;-0.10094716271415557;-0.38821783551876865;0.5223736160904913;0.8422829164839291;0.7557294846727056;0.5364961477846749;-0.7234952142953281;-0.5347984937033219;-0.9718523690845415;-0.9020561611359348;-0.7190702758607503;-0.6492910358845141;-0.7446255781737982;0.7430986903557244;-0.7341428521318577;0.6296956811841167;-0.21492283015549546;0.36001491838513183;-0.055364169349759795;-0.5067466240972804;0.4148250946669556;0.15739913559622437;-0.8161020475265889;0.8239933401393306;0.8118396650969931;-0.08048908113468853;-0.7661040412728088;-0.15277598500894632;-0.5263897641745648;0.6237011075264784;-0.8668051067317704;0.7373838493633513;-0.26956696825817517;0.7264656306798833;-0.7087114625510166;-0.7847446613381401;-0.5559549032687474;-0.40886642650877675;-0.6568083864264589;0.5754601349217713;0.5997592366218948;0.014376324583586361;-0.9012391548974675;0.6665305054301321;-0.8639422130795666;-0.8999002763463346;-0.9642463672703624;0.508275637259789;-0.5551899140839526;-0.5937016568232502;0.1651463839715703;-0.501187718402672;0.49536989484321764;0.49949204429429817;-0.6138683564224438;0.020047257115192143;-0.8474647621794346;0.12604684724543883;0.27787426538516113;-0.15371132476238078;0.37057148270620904;0.3553102268404109;0.5969168221419902;-0.6270332208911552;-0.8130941154443598;-0.719340400147759;-0.9430269701186496;-0.4067130506315861;0.13215376327786685;-0.5628230505145009;-1.0004297783803873;0.33025755923829064;-0.7600475063841994;-0.7204058718542332;0.44892175248566063;0.755374187727226;0.7859029324053538;-0.4816916397565828;-0.15768130497363123;0.22706386369530826;0.9862085321422025;0.06753236067369026;0.4885815615452709;0.5265768076562111;-0.5753195103187572;-0.8849295986316692;-0.3475027495445144;0.694422458399323;0.6952500289209477;0.8687594721844779;-0.8716777946200559;-0.7731473382929074;-0.6022797363293929;0.12280753667977475;0.4664802163175638;0.22842969989771983;0.629339000474785;0.6937536152617307;-0.2062449929320614;-0.7203046384571458;-0.002203429052122842;-0.5137352172985885;-0.45873663906220163;-0.11886324281513172;-0.3023931802483708;-0.6140714734029982;0.30863276057663297;0.7838142351818372;-0.962166467057056;0.4789983639035709;-0.7478090102095486;0.060301455490831116;0.47194764311996523;-0.7315906683240074;-0.29953333345120636;-0.17093145508936933;-0.45101087839766374;-0.09601558978689088;-0.8624587578365842;0.23454312470455504;0.9829988267210709;0.22690580412426614;0.6122175742591281;-0.550259167119977;0.6375771135964158;0.6670367419378496;0.5990559440393269;-0.5797338084306319;-0.3758001880041343;0.3374176215594378;-0.4135598018931118;0.3957348052713181;-0.12906011140462348;-0.6525172097439721;0.6996992201697184;0.5429360672830122;0.5131485762886183;-0.9089993584750488;-0.6116993689064373;0.09687978515292676;-0.7213436603271728;-0.17567238503457638;0.30305115037728725;-0.5938125553021978;-0.9531801923721598;-0.8489534514107709;0.9749721169123082;0.7244271284967949;-0.9350454675889239;-0.7660753899503984;-0.5516677451179817;-0.16239498149771625;0.4428705543453557;-0.7666210011171081;-0.8419734570562432;0.3553588561095069;-0.28443402676093665;-0.1985246129219486;0.705712065244712;0.4692748091828868;0.9043153606331769;-0.355357039023693;0.6194644571317286;0.1744268477821604;-0.5845512644585289;-0.9399528559031389;-0.9510496498765426;0.5764347307268557;0.7943357917366922;-0.4029492293077875;
-1.0974731444157755;0.5463227965922349;0.4193029295422681;-0.9075163618591388;0.6340317475929632;0.02357438112326518;-0.21191935979748933;0.5442711344748713;-0.24495835772109242;-0.2288194189663443;0.5983039791492375;0.5122969296279871;-0.6728106084305346;-0.31618415624953605;-0.9348625416063441;0.38788452214499153;0.4783241275788114;0.5092111020181432;-0.12189282463886175;0.8858901508100128;-0.5207654012095335;0.19598993933835068;0.3452315174854476;-0.00913271309211036;-1.1583163657306306;-0.29753104991163;0.17111374344341937;0.6620838977847208;-1.0356256987654606;0.0017482561528621445;-0.3768522869332146;-0.2706320818230949;-1.1303777144080942;-0.7283659133303666;0.38793053583555775;-0.7653399265400399;0.49494977784166266;0.10673291391554644;0.6735892700587556;-0.4295748062689295;0.15965921210036016;-0.28563157665784245;0.9516809491251818;0.5189458905764988;0.024513480551045696;-0.26676116011779766;0.36637861036329983;-0.018822002852828715;-1.0475176487311806;-0.06000646426597452;-0.09763949657266087;-0.6816391958545751;0.5513786723786658;0.06213845775656057;-0.27911170665878976;-0.9397792123752623;0.6165359485739986;-0.2683249222198131;-0.24193919166900615;0.08729244508079173;-0.32888379859864697;0.44125079536342887;0.3790747612918973;-0.33663724234757925;-0.5107040555527885;0.5527182772031767;-0.22131852586837064;-0.7687645694439952;-0.7191569066895088;-0.15445088182847355;0.7647590368948529;0.7520511399662118;0.7703823802267545;0.6930769964059709;0.9110507802020379;0.16936131866498014;0.6437654184953395;0.5421856725157179;0.7803605929920436;-0.754105085787725;-0.02895422485209844;-0.8275824031582246;-0.4246321515506455;-0.5100009207889469;0.3268620120385581;-0.682578681690065;-0.6202722979651311;0.1845810464808549;0.8470453039437174;0.2090033233635811;-0.22020155222003543;0.33813521416268577;-0.8625158251451484;-0.6375125485430521;0.3646806605271101;-0.008262894562125195;0.46961918909083433;0.8691771539920168;-0.4282850620633844;0.8212619377588929;-0.3026392287173299;-0.6564058328492887;0.4034843992309959;-0.1333069707238733;-0.8221701145672619;-0.09827830682302785;0.7841068738463911;-0.6745325547964792;0.8362658542923752;0.5490532516020612;0.7553288336609162;-0.8585796650425577;-0.2383959443047592;-0.13363739408175304;-0.39374598418317286;0.7928798688856922;0.7335983514156926;-1.0155019072512281;-0.847049925637044;0.9864973952632565;0.10175381826839298;-0.40724498009412696;-0.049478986003333024;0.43556583406193444;0.01113247869142803;0.97088505688593;0.9029503035074248;-0.9716196149776747;-0.10562347936297711;-0.5784125349019014;0.3056785935159627;0.7741835955794857;-0.17355132999546266;-0.732478699925449;-0.14676281206344108;0.8893948024580406;0.16014151390616305;0.5537956961669601;-0.35356591257444425;-0.294176225628266;-0.11049177356767201;-0.49008894038095435;0.14075083423271265;-0.25170245606135055;-0.37805907777848813;0.033878173024092656;-0.3047838335759009;0.17914151908547202;0.3059344894569479;-0.7454380005554169;-0.9693220995495504;-0.5560850472683603;0.7310540703243357;-0.03439107160235078;-0.20454878270929264;-0.6785228634135546;0.3390070424704992;-0.9218957768001521;-0.1853886165108182;-0.2092069632181374;-0.5112604536133679;-0.16383325775279536;0.7007373730131033;0.621577379933863;-0.5243755795382525;0.8942430887803311;-0.44526349886754807;-0.3929702061992742;-0.5813280623892293;0.5231422742919668;0.40243491132799875;-0.4381823571572801;-0.9142762313509435;-0.39523563097929176;0.2525982033695333;-0.8698040497972434;-0.03934117133009598;-0.4264910480135303;0.27923209037308616;-0.8964143928691873;-0.7189130500486605;0.3184924503414945;0.196810749895789;0.38979599784028046;0.18559017588713633;-0.7934148225690317;-0.5475842750912908;0.8507950339703035;0.22810374592125515;0.5572753601805258;-0.5467528367872546;0.7542801877270601;-0.9162441318166987;-0.34457820595537486;-0.412970505527768;0.19670238973934934;-0.9804695939656591;-0.18780688197754755;0.7027914946843529;-0.5953722302755887;0.28912021588212095;-0.036961051479070424;
0.6007044213520373;-0.7141851254202463;-0.8059263672662036;-0.6991080582392714;-0.8538589453363229;0.009820232449910659;0.00725121318568589;-0.3442784262927719;-0.04025106025231862;-0.20957757148208586;0.8678896813889834;-0.47612775542104574;-0.5762771616722494;-0.10556627162328412;0.08534787436392488;-0.7646436581778145;-0.1084148424110152;0.6883016122002016;0.27317746724139336;0.08526355663760167;0.07536268708220381;0.2872201733463095;0.7592024123071504;-0.5872464093764354;0.36747325969555894;0.7572695763071565;0.9824541364075351;0.848766231657419;0.1279880710719326;-0.5966056141153263;-0.7113979669340793;-0.20878903455254966;6.556723860127396E-4;-0.3247448172637816;0.19516948276899182;-0.9351615491618338;-1.1589262277741088;0.651064887888235;-0.2749931531007009;0.2073027192374939;-0.3004245438568462;0.405348482479684;0.38343515933414823;-0.14749075414514903;-0.5360206466181664;0.22439053384333885;0.15473338517508928;-0.17995341781022614;-0.9769871530042388;0.18814457911457627;-0.4278570425471099;-0.7945902730804566;0.22736912307499846;-0.5202895823146796;-0.9169453388988605;-0.3539020075117752;0.42077123073340134;-0.7447111842255136;0.5335723467100632;0.966837932471398;0.01200929924304347;0.27641713126674605;-0.8035055281822837;0.9057244839063293;0.24023437567116745;0.4469976396449776;-0.04336886072102312;0.2720513398456949;-0.5380341361828778;0.12443707748337658;0.46637840846845796;0.27301429744216654;-0.35504747572135453;-0.5060749662463482;0.8327644164497167;0.7696425547869996;-0.7225564963713121;-0.849263264164088;0.07642834563021343;-0.7617834535061232;-0.5678546856187288;0.8605775512279;0.41522645947261005;0.21282888843197956;-0.15954323542148996;-0.35649791596828184;0.4876326934575141;-0.08383864214358026;0.6689182032605842;-0.5741384583293392;-0.04243172960287688;0.6882804820932911;-0.9076258607137704;-0.9143189433253557;0.7007176696046629;0.6013356599642262;0.03621162456510891;0.13234377285730453;-0.705421746035918;-0.2613370947486737;0.7562514192627763;0.44855656997856114;-0.6075757540435891;-0.1228484808452264;-0.365704241987925;0.6090359341306457;0.6087710434239829;0.3130788025420316;0.24114082691744704;-0.37952500363551467;0.6730704519061917;0.581611201159822;0.4881288610130214;0.4380044535593132;-0.6543312957112145;0.8930817176139774;-0.9089342917625671;-0.5528077527952928;0.7248868684266211;0.9867290734320244;0.8484660724827437;0.08344437901805607;-0.7823265509718111;0.011483112390072252;0.09578449845738297;-0.1916873213013314;0.3004916291425556;0.4704091690733045;-0.15389244573360727;0.874062884843768;0.3684582825791278;-0.6423674957858679;0.05775097592774561;0.8884375580683028;-0.6463450751141451;0.3095644649422856;0.4441851481555806;0.24925328044349554;0.7858707349555251;0.057590151627654344;0.34591708574337193;0.7794686771191971;0.15274198521042728;-0.12458632916866853;-0.3540999386255556;0.05985760014015499;0.6513477921642287;0.44019712080180357;-0.6201846363793638;-0.406507597495423;-0.7128304071954105;0.3792926949021528;0.5299694463666905;0.7649864090093579;-0.06491699202406653;0.4140223734536538;-0.5011796641649248;0.18031874019625474;0.19424304670374073;-0.4760960146320743;0.5834863135697095;0.33982477162503183;-1.0455655438222002;0.402860881359562;0.7991371588004222;0.7647796959167743;0.008218277949119765;-0.925808611536834;0.030965180888937845;-0.5315131190318569;-0.6953463995815561;1.011991507713542;0.6443551209777386;0.7769398430803836;-0.43698301079176066;0.9743972109714643;-0.05911331136095574;0.22433582343528144;-0.5647230298917113;0.995591178195088;-0.10212575659245737;-0.37782389657495064;0.7727319504648451;0.9091879108456326;0.9422958567200541;-0.6826394261138926;0.7930816160937713;0.8954726998162721;-0.8573193462156099;-0.8410965569069039;0.36519988696106315;-0.10177578483440597;-0.3497942932496112;0.08454983745526824;0.44295717815760155;-0.45383795867412235;-0.17375248269299637;0.5238032384807961;0.9982123612894488;0.43844345493157777;-0.3219559111939161;0.09970497840855061;
0.8606254065184797;0.6632351891406763;-0.7631276224968959;0.5707332777915455;0.7133068683291871;-0.09149505603363713;0.9645342291850412;0.6565504140018206;0.6705269686396755;0.3139262943537899;0.6320309349025774;-0.7179764696062512;0.8339203809066594;0.5473821275984245;-0.22738058686215257;-0.22396117472193033;0.36175783600868816;0.5290496334177041;-0.38209380625586475;0.03399473138995246;-0.7933931275088686;0.1740927777287405;-0.2206856890246044;-0.3146441541103173;-0.22635709863769493;0.06938840645597144;-0.653075176629807;-0.7909965316616543;0.20687253421077711;-0.058659973931695655;0.10971033916803243;-0.6130309334573886;-0.8968275947177533;-0.8176718683371029;0.37434227522680474;0.6043987461204954;-0.6484309178758264;-0.8548084925732907;0.4036132903626954;0.5213385711752223;-0.6547714319209489;-0.13752903484077983;-0.6770425250864163;-0.7936808435374525;-0.7737586822178846;-0.4520404697213608;0.5252939618128701;-0.4582069741730502;-0.45366794758260665;0.4260740115921302;-0.6357052852948601;-0.13880687987828705;0.16811597468272751;0.05843153387509812;-0.5628113339097899;0.7736295899747067;-0.8321465432981723;-0.02477581939485563;0.39039996204821537;-0.2938305327852519;0.06368574021332164;-0.6310884310526385;-0.37913551186063976;0.4980144772468974;0.6708883099020015;0.24340848024756687;0.9219414619983097;0.0880482492664278;0.2031740034253193;0.08959371940985357;0.5953155134459898;-0.6586703755217903;0.8137855171084751;0.6182992795554221;0.6455750476538451;0.5013473406132625;0.7128378857407749;0.5515498997825645;0.9525424676436999;-0.23958643570132634;-0.07443836170729805;-0.5905402167520976;0.8388691265022871;0.635697107638481;-0.017855581973050937;-0.2334146139667315;0.5003644349695933;-0.013958979369403497;0.07116032222236393;0.38917979803867514;0.8670324126800416;-0.8748911472986961;-0.8262446422344774;0.25866443301732317;0.3558105834130301;0.5036724194592541;0.8517413659881629;0.10585481344537619;0.17758040667634512;-0.45585488672269214;0.3116161345125786;0.004888831928922309;0.6866652297737551;0.18478612736620956;-0.4767232049621296;-0.034541814773527656;-0.578945494591255;0.8741890021080803;0.7094066811882764;-0.08162920338260828;0.9549467550602792;-0.23773514013418123;-0.005051509976237225;0.6609533348970068;0.680666302945293;0.5791705908704586;-0.7007583706325635;-0.7767479792913365;-0.9888546734829647;-0.41756250450667237;0.49385694106610634;0.8754809112722073;-0.6395493015165176;0.23950875328726778;0.8934429736658221;0.36040813752264494;-0.012915363332487441;0.7442038232262941;0.166926785067297;-0.8934602559702858;-0.9724785561033282;-0.3608858676557122;-0.2738288492464217;-0.3065684604364249;0.8951063382939254;-0.7804178385019148;-0.03147320786050325;-0.04012155747929475;0.22726348470742588;0.9246885677610146;0.29838010630690914;0.7669404542751428;0.5957022368481353;0.9974664714232773;0.8330719297194977;0.491397194095723;-0.23450741638168954;-0.8597364389822318;-0.6111383765179564;0.45873159814804537;-0.27131143080496345;-0.1782436534902656;0.3193610977426328;-0.5835201082206792;-0.7439066627643405;-0.30025132282586137;0.19544095078377627;-0.3116791091787978;0.5314943782668039;0.788847282476067;-0.2119858737312378;-0.5793021945527421;0.5128915341339644;0.0926669620052496;-0.7412160792787859;-0.2724988853561444;0.8945784073467734;0.669362671406863;-0.03647571246055427;0.6147485764797445;-0.6292263489824218;0.65072601335528;0.33411056363264574;0.7812724706475005;-0.6687652727083533;0.4029038016303437;-0.05244501044129933;0.5845142021154097;-1.025952619469976;0.8118913423653611;-0.1869417568769649;0.24436738211415385;0.1343629076350122;0.5038069130838343;0.07694898879921364;-0.6631922699477195;-0.8114760576120693;-0.8327586117509475;0.5717383655039829;0.2758494045804914;0.5422511740309369;0.5391661208341915;-0.8553608754708257;-0.030884109842112335;-0.16235317008556502;0.17271412060427274;-0.4642545242048084;0.5637909506080028;0.2294149515900046;-0.3180860849042857;-0.5981270351082612;-0.6658836124017815;
0.24301130355497674;-0.582436117656649;0.09355367943499537;-0.19603047882304106;0.015521078587939236;-0.08527352472124902;0.07516612403973677;-0.4110065541182037;-0.35325547397920853;0.5506253101491506;0.15303028683562414;-0.08142495902184904;0.4192442962337414;-0.8861047153544401;-0.3389192478075307;0.5409531893278442;0.045499661722318556;-0.2185727059428332;0.16900537685793537;-0.2231368239636693;-0.06880131838419179;0.42228291640498655;0.5245243486443081;-0.8666300661369125;0.5082223922073615;0.15305824983634816;0.37006718106822317;0.6596138495857541;0.8189487508795815;-0.7468749340771276;-0.12138858569776051;0.5223579231147167;1.003568647848535;0.0037761371509314463;-0.5665415932280892;-0.7630916161471607;-0.8828185783111091;0.3351398992955774;0.16965268495630323;0.4624239516008685;-0.005389403972442131;-0.1346874697784713;-0.6194447450827791;0.26128373490404017;-0.13662821526150323;-0.5218594556057793;0.6535966997308718;0.20668700191579217;0.7182206304124941;-0.8743958331022663;0.4307736249292602;0.5449225615860592;0.06076688328750397;0.03117327481964923;0.7497887983509665;-0.5098001373255082;1.7808517372148473E-4;0.44905904650888756;0.6609029675766562;0.8092966936654085;0.4722066570194707;-0.2415484475047013;-0.8039296384928976;-0.5809635787151092;-0.5232034639755689;0.6404008107913786;-0.007701307516795528;0.9961558596289618;0.8017589142906187;-0.5582624279406778;-0.30804619727149113;0.7054897739247694;-0.9118090277235426;0.6664551510345312;0.6384575468387331;0.10456357995218692;0.8912430167822873;0.2935062328696987;0.40540043250251906;-0.9699878580155353;0.38674287385158146;0.22579740351172986;0.7516995503155128;-0.3658523879559359;-0.41642802751140373;-0.8127627530778018;-0.610668483553459;-0.22368738106871036;-0.273197339188608;-0.13278163459540146;-0.75372583264614;-0.04935302730032016;0.55629974906743;-0.5826281023985223;-0.7506584714630153;0.4358882242170693;-0.6449348380650611;0.7414325989594563;0.4946441882478343;0.1254632626075088;0.1792958761081702;0.9345411305333049;-0.4275028631078866;-0.039040704385175165;-0.024110707588600542;0.6602627401160215;-0.5653457833114744;-0.7868792107275153;0.7375125818048053;0.25252017637200436;0.8992792060581927;0.1107157143894728;0.3542319259190542;-0.5802711173079451;-0.10736823163512663;0.05922972414920536;-1.011517659520692;-0.36039894109403814;-0.8179507159608622;-0.2836909273625519;0.1424953575882651;-0.8212413711273439;0.9516186129171416;-0.2699266283930945;0.7966763683550411;0.18402475943533148;-0.5352702116047436;-0.6298868335207032;0.7106891022209785;0.5240980261396353;-0.11490025337886074;-0.10318908255769706;0.04945527917685406;0.46544418108758034;0.822614737305711;-0.5295454284159918;0.8332738426175901;-0.20134548544235129;-0.8865592863004429;0.7217668245632357;0.10362693013553036;0.7788017713772922;0.7141144991982034;0.5887591852781662;0.002749470481876009;0.655963314296635;0.24862313961235477;0.7340944701811588;-0.3725851326419083;-0.130839679956055;-0.11182555191920199;0.7825910142231324;-0.6085556901725627;-0.9153220191040183;-0.8038551977056414;0.35967804631291883;-0.3607093088552764;-0.35344556735232163;-0.36710587223601565;-0.7066825097436401;-0.025689776340908247;-0.1512635205846764;-0.00418673088348222;0.8101718543241957;0.4980274802747775;0.1556095457943873;0.614581569636398;0.8436423208570341;-0.6481351651979029;0.9050887519752348;-0.2908554653569253;-0.684504115609578;-0.5416010983586307;-0.5191326148900812;-0.708972908681235;0.3744432330967803;0.5214289579539265;0.4479255964593011;0.18451234263742236;0.7786988127347824;-0.1865177089105856;-0.7002548768720656;0.8323444440501311;-0.24621371007483447;-0.9140927701337185;0.30222234144885557;-0.3112672092603739;0.21990560859968822;0.08163283002086685;-0.37241347276377;0.851182596012076;-0.2963156269751384;0.10213052262980704;0.49376653556478367;1.0395192388208796;-0.0638178082848794;0.3445744902783068;0.013857714984708948;-0.7471577342516023;-0.4307780670843219;0.9622270039821905;0.5746695998294064;
0.3432064292959711;-0.2337230984796873;-0.43936359927819546;0.3874768637080969;0.2518378838678247;0.6064910500836093;0.6665569268194493;-0.6719144683128664;0.1001232578280824;-0.1642504816994571;0.988873960192336;0.46210285754508573;-0.3689710266564489;-0.09204145251060106;0.2950631038289666;0.7913107441141889;-0.1306078241622744;-0.5563591699468439;0.30135721015994665;0.1690519319529461;0.9506811864194443;-0.7913417505813974;0.3744827844408966;-0.995127073774598;-0.6537296728632045;-0.5312886153665871;-0.6669743085874814;0.6640001559508796;0.7796569892630699;-0.5741431737876275;-0.087664271905556;0.5058380539449667;-0.7150739761431821;0.5499235446691569;0.07679055261096013;-0.826154198364892;-0.1692166966623641;0.7655631186287727;-0.06512507374023395;0.6995361329051955;-0.5914369305064711;0.6428166136498761;-0.04408389730696869;0.6078451339968183;0.6204939923642209;-0.20864934252682;0.6542106951523353;-0.10358030896935741;-0.6017873748849004;0.4451825482713862;0.8630243072438897;0.21492052438453085;-0.1518715341643509;-0.2523769921639183;-0.11114517442705035;0.5944137943061318;-0.865080284615773;0.7006296141260104;-0.3811017192681219;0.8313258204301225;-0.5592811253397988;0.9813287318448568;-0.5891873711429002;-0.02286708236961567;-0.06299499507175582;-0.13370040363942728;0.39180224109023465;0.3484682564865956;0.516880705780767;-0.9928564042454074;0.22878098995288643;0.15808309999504808;0.7020451482383486;0.06879814283056575;0.7054578951513625;0.7618427247034439;-0.023922430248572994;-0.9272375623440937;0.8528657701043765;-0.4198333684567103;0.5702434181351234;0.8995304921299012;-0.5691240736715752;-0.9670870261596196;1.0079184984649205;0.10526399797350813;-0.9146315797621604;0.812638845921744;-0.5300158056023913;-0.37614739673544045;-0.045096342881130985;-0.7868303536197333;0.48933659797431095;-0.6324118366181187;-0.8964547151153333;0.3368141676475731;0.9021513841286637;0.4630676939121615;-0.42257028483637277;0.39371608488818843;0.3758799567616546;0.6399039028719262;0.2340703389174734;0.8777681948202941;0.9004098807536475;-0.282043154528892;0.2541970746489123;-0.5665530034595957;-0.6295474694128631;0.5139779383979733;-0.8991454820349507;-0.12024456641792566;0.9960450847604106;0.505313154356844;0.17319878221247748;-0.3778760838971173;0.4611655452051364;0.9118269376744066;-0.24851251321744514;-0.5724662556701943;-0.5447146020847157;-0.8443860854811662;0.4859728483222869;-0.5788506557298054;0.8096080803897766;0.75536935373512;0.43642499046988736;-0.6030140993552616;-0.3437465053201453;0.5402682607647192;-0.3462925180340669;-0.4159207865710501;0.7480284058874163;0.4403769387738365;0.6045425014051591;0.4374179748429578;-0.92265686526543;0.07127702043904176;0.024539510108474213;-0.44990887561896914;-0.03777854526120819;-0.9269533625625828;0.2619943049362493;-0.16784212649816474;-0.05929092542124448;0.676980011925906;-0.7428493441702829;0.5968134539371234;-0.40399203860745203;0.05710610569119218;-0.7550879693784228;-0.48116483549253874;0.748182725496607;0.1999748957560094;0.09568684309807764;-0.6130207440960174;0.8504811073306167;-0.5787709324736933;0.39326376458091616;0.010237602211241988;-0.5500758676089256;-0.7526891459805584;-0.0013128372747967046;-0.27887910024451057;0.3906081441078181;-0.3746655812264278;-0.48688241989546654;0.3198830876159604;0.516068938030262;0.41789621152307915;-0.06323560887247236;-0.2351185624326647;0.8698269554380963;0.5789491216689242;-0.8257170914109554;-0.9423867987957348;0.2558227160417241;-0.008589576049070225;0.2549230812568302;-0.9735502377294005;-0.23475790214955183;0.8471897011446218;-0.2724485427578542;0.10875038130799625;-0.782126829127133;0.739589652584034;0.8239712219082288;-0.16373489183238027;-0.13886094122260761;0.953818339464736;-0.2955547468884872;-0.8541132212925062;-0.7335454225239078;-0.9059915585293548;0.1748793652500307;-0.7809582141427558;0.12338060678854545;0.09339139578922576;-0.3676531109864703;0.05349902561452128;0.9196535110547002;0.8289504550823451;
-0.3510890202647518;-0.8162748091127854;-0.8559698744096702;0.11175317759136504;0.5341089999516376;-0.9223837891182853;-0.08682091233582145;-0.6702065994121393;-0.3611789451198575;0.32908012100246503;0.8812289702471636;-0.8033867438526682;0.30366040780561904;0.6349653837576943;-0.2644824162971471;0.25090521514095565;0.9225260509586807;-0.5692213078323806;-0.2816537130264669;-0.5381045974003319;-0.1467881059352243;0.6015535754153999;0.9562740979696982;-0.10809692435246508;-0.3183026901905797;-0.46726199378337674;-0.05376673326505993;0.4468413730241217;0.6118727021142724;0.8575663839601999;-0.3775436979665124;0.9514239702530822;-0.4849384425022688;0.36160928101658596;-0.6023141190202002;0.7057589885542476;-0.13562717624081555;0.13431950675686918;-0.7423040338199427;0.9359245529993077;-0.8555421605556794;-0.9462397374834867;0.9854422538177092;0.8990717634568924;0.6233179758232683;-0.13602269702653758;0.705016268931419;-0.6723322342089382;0.2469680795984377;-0.8440340224689092;-0.7316791860422539;-0.8434473541926227;0.0038724177393494857;-0.15231177449080194;-0.1986420265798422;0.8637073174660196;0.4074939351847974;0.33365545075746783;-0.7761475671394529;0.35683196976083026;-0.05431190405560235;0.9020738784699874;0.1593693091835984;-0.8625158518099816;-0.545327495135206;0.6217691664254064;-0.6157093080208366;0.1325687101335606;-0.5029792829579361;0.3085094683016512;0.4556977130426809;0.7359576491498475;0.320536073142532;-0.8004136221495733;-0.2703601217765414;-0.11056102449800267;0.26816765707264884;0.8928671544016066;-0.4931019508991539;-0.9905524141289133;-0.03287442967882455;0.06285050216777512;-0.14650838496317312;0.4689081896097427;0.6364880109090073;-0.9897034131395408;0.6872670866544656;0.4813083700982099;-0.7919552324235195;0.6690776377338147;-0.09174163307490725;0.7678152151279429;-0.26778655948319063;0.9291731056645576;-0.46138757756502785;-0.3719347751984437;-0.278436787688764;-0.2828014555408795;-0.37820755935746686;-0.5897956191350028;0.3541268257159763;-0.12493026195180994;-0.9886413515176941;-0.9571311281861462;-0.374858536412053;0.7624761452338786;-0.34380764234620337;-0.3772537132190178;-0.10216811343419381;0.9699162046089843;-0.6184177303361702;-0.90979675273663;-0.06269516779300319;0.3492761437703443;-0.46220067112764524;-0.5596249059361347;0.47135826558785754;-0.18794610784889806;-0.378528476659727;-0.49610298554694;0.27833253123493595;-0.6490621312546928;0.35650034514685675;0.953300406430844;-0.3955470274212569;0.171274185668341;0.11172941381520038;0.5539929744626955;0.8636699996656633;0.9791327092302816;-0.33305365378158763;0.9072195987506737;-0.2826368113149093;0.13802720172176794;-0.7149835777215328;0.6907616062699384;-0.38879614795815115;-0.771254318365874;0.38987695035743924;0.779692267653048;0.242585945041921;-0.2603616243773542;-0.24765174241238694;0.043269550867619834;-0.4039496898947438;0.8601643853515518;-0.21502317300787627;0.9800036706755485;0.4096408212481994;-0.03038768079993498;-0.2902616298472579;-0.44084476509877324;0.9471854117820838;-0.8160693826759322;-0.1917438767187087;0.964874767563971;-0.018299522120426206;-0.9460934123942372;0.3866987307547185;-0.8167974652707884;-0.7147643246684852;-0.14084174366149524;-0.44531471921594157;-0.4344459930177106;0.7985108968841287;0.4631182681404788;0.45705997826483785;0.012856694165792838;-0.34037664775808296;-0.9414877760205722;-1.065642208398719;-0.6852095965273272;-0.8545210673606852;-0.1629969553237379;0.554045606436127;0.881928012018358;0.43545743312749563;0.8473486231576601;-0.01929570269991139;0.043684960970166165;0.5833908954149043;-0.7647876792871415;-0.740049741374416;0.45862886856829505;-0.758021799527038;-0.8754419551137139;-0.26191006292055763;-0.20996570177374058;-0.028032598356282135;-0.25932372362570927;0.38189803000400013;-0.213711017415854;0.09565037949895228;-0.6339232375998616;-0.26033511246142343;0.4733722823481461;0.27846369734867826;-0.10996073937021601;-0.42088519356031884;0.6961712770278882;-0.8148501962952425;0.09911415373893032;
0.8048373209918203;0.6627269759468578;0.20489517713247252;0.07946314950478751;-0.12502875689707435;-0.6163834825161476;0.9930256525129111;0.9901586418440893;-0.7648190074256644;0.8793988729265789;-0.015887828921189895;-0.38808488886619497;0.3940602283216028;0.7147321247188511;-0.10505877595449542;-0.1596981748210427;0.6106063572588045;-0.9197386758522215;0.8658309232688224;0.2448099917850947;0.10797734582125591;0.9212736807366352;0.20256861844443225;-0.3379556362783791;-0.8915276834670793;-0.9378323315501519;-0.44413892949112294;-0.27229830954777395;-0.3866818096000572;0.26711561886186674;0.32153514753505685;-0.9735741232635177;0.37889488875069255;0.4483123514550497;0.4058594916830884;-0.2814444502595874;0.11119069643829425;-0.06435545368807703;-0.7504466749816614;0.5771925189209969;0.3440240645414649;0.20082252819852991;-0.18457912945814717;-0.39989714001616106;0.26684874538357317;0.3372345382981916;-0.28633019486160133;0.47381732681752137;0.45488022766874;0.3779694922696684;-0.7363971348079648;-0.9238704668313903;0.2176763299762757;-0.9411992852139384;-0.7461470228740203;0.4258973912802502;-0.8897465240582402;0.5211174981962537;0.19929734462749812;-0.19432954661881938;-0.7419079735526343;0.2390390319025056;0.8608651965907799;-0.7082949396499911;-0.8890937204783677;0.5276580032662765;0.2603481934275941;0.954195083948828;0.8843253341338438;-0.8927582553490938;-0.8692771815770984;-0.39962423481995657;0.1823355369642269;0.8633254603658505;-0.3482311073352264;-0.9315179505563871;0.2580132592630306;-0.5854066316825993;0.2649138569462476;0.5312886512912038;-0.31537310214453;0.5445119416259422;-0.5743626413752129;-0.5613276894771904;-0.7022759624232916;-0.6380470340358882;0.2557675708895329;0.3741504199838439;-0.5539996520178734;0.9762739220757642;0.049793846691918255;-0.4688564188279815;-0.06375353231420229;-0.5861568078529611;0.525936125697572;-0.5328607531660756;-1.1493688176565096;0.546119619154299;0.09846076441614868;-0.15485484632361704;-0.49364729836999;-0.30026200102474127;-0.30789220427065317;-0.9014749928083695;0.5770613053185072;0.2783210158417228;0.264477747890392;0.6280191138905968;-0.6627097543611322;-0.08998584434591962;0.5584465431443641;0.8573914798341185;-0.5795123965482459;0.1545712539222762;0.15495759920540042;-0.5272306112291574;-0.6849897815706384;-0.7650650418477362;0.3338452581362794;-0.27713881358047643;0.6916428465110388;0.6513350177838326;-0.9301039749502044;0.4788392869543755;-0.959901454204695;-0.12184950033090883;-0.42893453433701734;-0.6585366537834444;-0.4780941174514133;-0.378005647503529;0.1742191894336279;-0.07621797779310195;0.8591550560523831;-0.8127211862013591;0.4781663911546427;-0.1903590411298222;0.8651389409862051;0.1491139118663621;-0.6819641056201412;-0.3679754446032244;-0.5141814745700222;0.3257764204162338;-0.7620041536427706;-0.8155499983906074;0.6100309904871284;-0.9649514406330011;-0.10466361842097781;0.2618262745393605;0.5687906853246842;0.336326238934334;-0.5332867192167321;0.8389628590458351;-0.8232241009812918;-0.3225874648857876;0.9153004484005436;-0.9039511191634574;-0.011357300514584352;-0.7191439887364649;0.07870227985764211;-0.30532664429359113;-0.7923751138409999;0.04801905857010505;0.191274622069052;0.421339028924881;0.9501112766136885;0.34762721994719736;-0.11788968750506765;0.5829510911518537;-0.06946884411379343;0.7694859023288747;-0.1755503922674939;0.20147803276786663;-0.9468659876662399;-0.5835836081533922;-0.7809517100136203;-0.39028426481569933;-0.7385794129241666;0.5246773487288131;0.8009661050591204;-0.24692536156903883;0.8281209099835638;0.4735843609067517;0.16322588461579088;-0.3761654372920363;-0.47039022387784324;0.5197075204470276;-0.7356893598322063;-0.5209837216216162;-0.2326574178548486;-0.4946451837368891;-0.6518349360593398;-0.5330029394950557;0.2412343508015551;-0.8040191766645337;-0.9498836180469881;0.11546218235281266;0.5248663041005848;0.2502695819220747;0.7157414347777608;0.20329812106211884;0.1105350853158274;-0.5587692969198892;
-0.5361950704667424;0.7093178399829799;-0.01948563967385719;-0.4608437509003075;0.6698885675563497;-0.922055985624118;0.7735343172525235;0.5611590156879614;-0.6119075911964915;0.20395207618793154;-0.7768868482405573;0.6391908682215037;0.10850389134415436;-0.47750009730024323;0.40688309235118036;-0.050871234781100665;0.5056492742192179;-0.2072507515959902;-0.31615979269571337;-0.4154535596668135;-0.3254408204141158;0.2801947603597474;-1.0052194469551818;0.8516292390357462;0.47280796638323996;-0.3530579520295218;0.35578342428131565;-0.4214549147694916;-0.8938301320795466;0.22295152268302473;-0.8751299822029521;0.08701595148445081;-0.6750476507413254;-0.19505320052531017;0.5036338589659508;-0.6449691115842704;0.5221865136067807;-0.15714979069265553;0.07050599767897707;0.27097963533516306;0.5797449631310518;0.692545733887175;-0.4362491724140877;-0.6314944898046924;-0.10251923902975045;0.9421004515925814;-0.8736558637309236;-0.40815618819629895;-0.6046294665806192;0.017801149037925686;0.2420432976044685;0.2773533907736176;-0.34434815835171767;0.3692283592519997;0.5720350590830137;-0.46682495061696283;-0.06112919927011921;-0.3433998131920037;-0.45716249221778554;0.9707616614913946;0.31649289024026456;0.6111044741478556;-0.3868139495792276;0.6229568279337988;0.8829218731014531;0.009447754391176448;-0.8907746753524798;0.44510920992846953;0.40974133213331504;-0.6371330405279765;0.6413169407462942;0.2060013446792274;0.8876538670557742;-0.32247272552166817;-0.8749109506204469;0.6935416648567022;0.9515152354275885;0.04322161724796431;0.355995908218631;0.09706273061341934;-0.5005891792778259;0.6945959447654101;-0.11577128637403128;0.8550691908454472;-0.16779889767843464;-0.0901028307396673;-0.7346680970004119;-0.6821080483954834;0.7164594701273556;0.7117803724851307;0.8527179942652763;0.5387626061106688;0.6847176849583828;-0.5971551866675353;-0.8230190064970743;0.7924801900258862;-0.30875046994544647;0.36464122143781724;-0.01352184586816983;-0.7985356504789172;-1.008622360119164;-0.23241976428559663;-0.5106056270358657;0.05454746151661559;-0.9282438081255645;-0.6461210957807179;-0.25711011612696605;-0.7408742529173141;-0.8551473668992385;0.7892455695761692;-0.4535848308597042;-0.15440648392766734;0.0016188584179328612;0.16881467538000633;-0.9165437992398152;-0.778391306844736;0.0683670719853227;-0.2263050394423036;0.03157397132597069;0.7725644063442884;-0.4113216936516517;-0.5456054533702874;0.31484255539882394;0.8176466109700153;-0.6530471689244821;-0.4661055038836016;-0.20505091174592957;-0.3215942277722576;0.15938131020050328;0.33092880845831946;-0.4498867779277902;-0.41325105254474825;0.6426404600495381;0.43986221450977037;0.05526550973865014;0.5745167588144579;-0.9889851594825367;0.43016376654964306;0.8177576298452868;-0.7709319865701649;0.5264593075953728;-0.8522190334533445;0.04279710309055459;0.24053170046481015;-0.12936174055163158;-0.9237979288570298;-0.3568968773566861;0.6151933674405465;-1.0006877884360528;0.44933569727004247;0.9630075594467993;0.5537125927863327;0.05792203123169641;-0.9298599964374781;-0.45260958888401714;-0.9462994399096792;-0.05418758597912848;0.22646119693056307;0.6776103601732616;0.2838041288511493;-0.17051924113782005;0.9400312037826346;0.7329780769676444;0.3946351160333879;0.9300059097673784;-0.4271601253294644;-0.6085987549502128;0.4372873891829586;0.44619107307926825;-0.8747935710172754;0.7241059552254637;-0.7303557694821271;-0.2091062779865847;-0.8973662776838629;-0.40798256578677805;-0.6867602303935892;0.6779219559589728;-0.4810997308450336;0.022625482155962346;-0.319760404231027;-0.2721230768192855;0.6714552933396702;-0.38466203310774455;-0.4837531013888096;0.2986906462118164;0.805268417456415;0.1203729409518332;-0.7269762555801605;0.6981242884009966;-0.08512894483821665;-0.773775304961784;-0.327255994374558;-0.9098882584126458;-0.46894044116058214;-0.04762823882464243;-0.8059477286914506;0.5648939007775353;-0.8483575159124073;-0.2594289624148927;-0.13669465099166284;-0.2594138352562248;-0.13850277876505343;
-0.9384039322813034;-0.6180058162681333;0.3542145755071753;0.9868369975996688;-0.2733199621818704;0.9054718834350464;-0.5735128859309235;-0.512322913380591;0.0010387171966760725;0.8343492297426854;0.46939103717528874;-0.9205138495231177;-0.8135951867982432;0.7983622678513859;0.030470456509017918;0.4750466797857212;0.8687457124090451;-0.929971967919414;-0.8359543291623552;-0.8620022713074685;0.30296028523139834;0.7299839315526665;0.11554296160270605;-0.5424152708498866;-0.29675475561138;-0.6544523356442634;0.560989548461791;0.4595497125391979;-0.007313733191026115;0.4027610358853326;-0.04541445071874853;0.4218634672804164;0.21362467378994746;0.9529196223948503;0.4260120696037038;-0.19890930275391408;-0.5943556869837671;0.7915624616326441;0.6217804928610071;-0.056334309375261585;0.6870492029191292;0.49312792977449127;0.15176835282787265;0.6767938438515897;0.019515457495229153;-0.45370698773333284;-0.8013439220394621;0.6423726370724082;0.4845333564543775;-0.7157649687500006;-0.1915677776049536;0.19376675274798225;-0.3724691144861916;-0.46767532272430423;-0.5885370768245805;0.4772120764691242;-1.018065278014756;-0.8009159752520925;-0.33612288050960654;0.17376343100480562;0.6253236030442421;0.500588948150882;-0.19747086362669722;-0.22104923351220104;0.7412263299991244;-0.9024978225919611;-0.46656794990124467;-0.10082379199604391;0.7003641169905943;0.4694739985365858;-0.11006891765830476;0.42358544162021905;-0.7966647713511885;-0.45088527756261537;-0.2354306569915783;0.9468452818009107;-0.6482575925430599;0.17177519210762304;-0.6234405000795886;-0.35281349284457963;0.7963161712129949;-0.727777665399659;0.817367950805865;-0.20547848111314512;-0.9969250266988635;-0.7935461951222593;-0.7390026793192309;0.17767817328741958;-0.23461734845647297;-0.7344094852759612;0.3255947672350026;0.70401226520119;-0.8688040340247098;-0.9873903782174877;0.5488151425802446;0.1902463739024607;-0.576316077488447;-0.14783196198748427;-0.7335844446921295;0.891201558561856;0.06560603963859511;-0.39941129850925255;0.32510834264796323;0.03051737205932819;0.5751649817790402;-0.5547982252232101;0.3829010743619613;-0.774521846913435;0.9130281173340075;-0.4461428507641229;-0.6683262605194524;0.3017915725394395;0.3870798337680133;0.8299272128790917;0.7815350169869031;0.9037031250756082;0.7600302591239437;0.9269668616905379;0.26007849543421696;0.12848744979938845;0.2635146539391328;0.815667946275326;-0.3665693591482986;0.2990988115077084;-0.88782661760419;0.2690640493117244;-0.2787241861437844;0.9787594988050635;-0.6143923799080907;-0.6342794672622516;-0.4108700825731794;0.3437620620523722;-0.7353202087543951;-0.5375809285055068;0.6091603549711627;0.4169033272559621;1.0015174591750136;0.3420130528003494;0.1482891979182441;0.4492829511602813;-0.7189273777189203;0.21647682136822205;0.4378402809930927;0.4299226050972334;-0.5621803399021041;-0.9275013603104788;-0.15796364801040066;0.6059684179412155;0.5538653178953667;0.1431262197126038;0.21813521064268504;-0.6960095169806939;0.10077887507449224;0.5196294629678566;1.069792112461932;0.958418906403417;0.3496157654256456;-0.5875455759509489;0.5194374530248156;-0.9238770180378479;0.09122123836997527;0.5943233122884476;0.6365189294005414;0.8960965549685892;-0.3112409929253884;-0.615990822118596;-0.08044194276703102;-0.6859461939426985;0.2535757559401575;0.5894409742008224;0.20290242460897845;-0.8946241897214224;-0.3747243870687586;0.7330160664139087;-0.6452791248279113;-0.8724358114305514;0.7059402839616092;-0.92882145192173;0.16913901521112312;-0.18463850383383168;0.42988336228917245;0.8914984444783299;-0.5810060387269607;0.5443105134915459;-0.40762820716961556;0.03662438956301892;-0.039907409351536346;-0.8815468386186449;0.5031562959941966;0.4059879530796655;-0.027628739117425086;0.13346346311721027;0.6689201688588644;0.28259616329807324;0.11737706195056652;0.7708977885372703;-0.6725542439728744;-0.38315592786839325;-0.16846010888355933;-0.6804937958743632;-0.4098423284508257;0.18703917118704064;
0.2230302990045254;0.34910007548262006;0.9111770415189393;-0.13137180880027743;0.8187828537582504;-0.22748212777376797;0.1957285432392546;0.5351768343978016;0.15068731354031076;0.4554509691647517;-0.06162167607976654;-0.7754091039661158;0.783003200116833;-0.01841009194614946;-0.9340312194400942;0.8880181228795146;-0.5138216252969796;0.10989694069998501;0.5133347152061667;-0.17711649545166738;0.7644607773632078;-0.6847691584528215;0.10174282125049178;0.6605898467111083;-0.05597512125680229;-0.769112995253572;0.8694722064276486;-0.41988335711804176;0.4593771802152427;0.7671096313864844;-0.9502373845187052;0.5379883400572869;0.5064615083440915;-0.02227323014554601;0.7231141082909593;0.9649386494205595;0.2539240500414353;0.5984568652960344;-0.1174625572587006;0.07846809462543039;-0.19586870501922587;-0.7596283791922913;0.21854034019430693;-0.11693904257989118;-0.8362649442863713;-0.43611196979548145;0.5984207407164974;0.5961334869373864;-0.970166542543375;-0.8853043339835559;0.1852660776886344;0.9037665677825881;0.3260705127533003;-0.7362171327813413;-0.5186949941194986;0.9749835056144651;-0.916929086571021;0.5343480142032314;0.8838937884086285;-0.608316270754579;-0.239825958933715;0.032708538496493036;0.9086673715811868;0.5120769912698856;0.7235851207716224;-0.6255503438153963;0.2750473387226075;0.8767172580788191;0.6379166289127601;0.7988181857546;-0.39252723615189233;0.8387364447441877;-0.5597344708977283;-0.40218939360066513;0.25393972169760504;-0.8134152416376988;-0.19064304576455862;-0.3378156308230408;-0.31057662589176394;0.9876765355966485;-0.47272832531551473;-0.12877183646830379;-0.6901515191292824;-0.9093364295753424;-0.39805836979055226;-0.6235897775054401;0.36564767112932195;0.598554352787579;0.9066137280270865;0.8041436248116413;-0.6408286429924797;-0.45382790047278787;-0.23825285247699907;-0.6058979939145612;0.9784046969898937;-0.5482971607964409;-0.8724298980966403;-0.45534955019636575;-0.6991546555030074;-0.8642879007313716;-0.937037772002348;-0.7556311420074189;-0.3752081020004068;-0.44757228482690375;0.5419130680300981;0.5931632571769627;0.46253502876757224;-0.06904520718705885;-0.8205502862366668;-0.9683818360252738;-0.9836397331706395;-0.7888663087386943;-0.663960551523888;-0.5244775895476828;0.6881235542770135;0.10908234018668199;-0.27247536699185826;0.8367356334171119;-0.5429775193741354;0.8380320553907608;-0.35081702321597713;-0.9549823777542693;0.7774650387506871;-0.8361650847311893;-0.11270888197380692;-0.8769524644026475;0.9534830898378436;0.19552852204302357;-0.4971673432923727;-0.883008946571676;-0.3635472357069837;-0.7128390676289053;-0.8910976124851093;-0.4907921632670225;0.8769199240942678;-0.4392225590454216;0.24459274018664762;0.8250733169849468;-0.38272457615863004;0.5567302539051695;-0.07097078344748793;-0.22545722083576766;0.7831225684471933;0.37998793091987376;0.3531136601380407;-0.4484408419385717;0.29352081977277494;-0.7996402286251741;0.4080428849327776;0.23758906482050768;0.22403786227548333;0.48002666564354857;-0.4522036482641099;0.570372289596765;0.19506365990653984;-0.4122714744556101;0.8497222699379504;0.04545712962887024;-0.16411605023691733;-0.045964962981733894;-0.8437554872498073;0.1293472449429148;0.5388589007592258;0.7005409640737021;-0.5984079717694208;0.6867628052513631;0.5651275614735833;0.05777106870594634;0.9137932283255829;-0.576623603809565;0.35413982686017687;0.1588401471451755;-0.12366080181679888;0.36943198586812287;-0.36458109406566713;0.3055881336669447;-0.9367796041769559;-0.2482308139812145;0.2112804237889943;0.3095169589360559;0.9418648720944103;0.4958850309779472;0.29360403957014697;-0.8077580041590102;0.7021333706729294;-0.1092877709887711;0.5590637618999629;0.7624886206826896;0.8144319735133456;-0.8952068832079035;-0.17352912006878699;-0.5856800708079785;-0.8903735310270937;-0.27972129093586445;-0.16307334484174313;-0.5736870671792258;-0.756773021733913;0.4729295287111896;0.43434014587272285;0.26974104875741667;0.5026903423743199;0.9004622379667803;
-0.37609792601701714;-0.47969288207737476;0.9234176169456785;0.9724950721297059;0.6911677632061911;0.37785367674519693;0.5104554322563182;0.14867734124746018;-0.2614319694012222;-0.3161784796643567;0.4229188473979102;-0.16200645340986664;0.12331497580030906;0.7510878557132848;0.9552661191076974;0.06133445740917935;-0.3636304283292041;0.9084723169287355;0.9032431435383765;0.4748814885426974;-0.9382505441441777;0.12627691600326296;-0.9339393136391851;0.266279154187952;0.5973212755849094;-0.5608780225118919;-0.9941980081877865;0.15477570226606602;-0.8775122588891577;0.07644941020520209;-0.9623073427136035;-0.1905648904433356;-0.31552598648463825;0.6080977126116692;-0.6092961897999616;0.9435401356102067;0.4255281089696374;0.3760506845117282;0.6980560823277905;-0.7454493188437527;0.22818014386718272;0.023945115819512856;0.08641008940922097;0.6176724739287752;0.23133183524173548;-0.48582589766035145;-0.7111858250543642;0.809060039017166;-0.07418408997256841;-0.7457569076491075;0.10573351076282968;-0.9589400646250619;-0.7537987712495964;0.5550233229638678;0.9369262109989029;-0.1544098078454199;0.7353326293706137;0.1525993122408383;-0.3457413623203012;0.38810853283544516;0.04057849054554454;-0.27915386768281913;-0.1835880113382534;-0.6766503560167795;-0.1774786206844681;-0.9502947370992664;-0.8383030735996114;-0.3993063165955545;-0.8492691296293844;-0.2122838633895972;-0.26367506081354647;-0.2799893559117421;0.022180883077793128;-0.955335593910708;0.472253246829831;-0.5617461974742013;0.17873057586961327;0.2978222659753389;0.7681422677699313;0.5347542394896261;0.6813982671716139;0.08449219543113505;0.8742463095043046;-0.08639514909845071;-0.1518377415480471;0.011226555158279071;-0.09720253000669822;-0.0924794530757135;0.20242205108360198;0.020641740637087347;-0.49960844873830146;-0.13735275320251833;-0.9840029413635741;-0.4202375784751124;-0.13777879305262916;0.4970325223737224;-0.9646450902169067;0.8679521158534358;0.02939836453199391;0.9230598755491536;-0.45315874209231904;0.8088183975402153;-0.1984435782431527;0.2671233077300986;0.6713039009196071;-0.6693755796463282;-0.002612922482585702;0.26684985408042927;0.38970584053797835;0.7823407357894481;-0.17783661389079486;-0.08680224241203942;0.09525168393299967;-0.3811830995198779;0.982027362198135;0.8141956066210537;-0.553667471370558;0.08426797475793481;0.43431855541127196;0.7620370640500159;-0.01111937951215978;-0.9297152054078665;-0.9967112969505925;-0.905698387221124;0.3857373172413912;-0.4156122117304958;-0.3716715406704963;-0.3982510354301239;-0.5583910397930155;0.9364748239036509;-0.980482448464278;0.8136391889860148;-0.3535789464607918;0.3222484887986311;-0.6170379216687925;-0.599219108553115;-0.3257056512779037;0.11497969883906083;-0.2198540130018115;-0.5817510418248047;-0.7839904740711224;-0.12097642072463885;-0.48811166428775465;-0.5503349305936293;-0.7113813212247307;0.3257147018677334;-0.5182711883907503;0.7293656001676954;-0.6160462146685783;0.4302607755953784;-0.47599823472939434;-0.8826388218154775;-0.05378374790603924;0.6435935549073052;0.9366949153068803;0.7738767242425633;0.42239293794522753;-0.24367225238236423;0.9987552479935032;-0.46754797398146136;0.9601486883527348;-0.4041191721021716;-0.2462582194276403;0.6396543876634533;0.7982938364622915;-0.9312151194125563;0.10464558518462802;-0.021516175459579574;0.009574586988131713;0.14548053196493327;0.5795729149286537;0.989296360705391;0.4561971892537708;0.8266877896176725;-0.9592196672735436;-0.0634415876888336;-0.6954230725579997;0.7282533624456837;-0.5698078022497162;-0.7216032215564642;0.5426432735817002;0.09048654603651089;0.15944366115518827;0.720646124192187;-0.7390804707758152;0.39404492715910683;-0.5956792191872347;0.8921566719159234;-0.34618841427139135;-0.9343496876789786;-0.16635821175454343;0.7853413918347767;0.11018573288646372;-0.6660582791805526;-0.6884876911446158;0.3665502401411178;0.9208187733640987;-0.9613319289721142;0.01597645399961403;0.5988240032708946;-0.36669158676058;0.7914154297818928;
-0.709637819690893;-0.9216046865106644;0.06363894679009352;0.04910318238520279;-0.10963733406905697;-0.783209202419534;0.38085885262266417;0.5249447352846002;0.38053732123201384;0.6595424144017626;0.14963855991543085;0.584460929645897;0.7501240238473476;-0.14531604558391356;0.500518780889913;0.522366291072797;-0.18305386860951087;0.24385591508583065;-0.0029155627539172446;-0.026495682867859742;-0.048415626557359225;-0.410253910467493;-0.9170409173525006;0.3386074485077911;-0.38466836567725965;-0.4394778851606623;-0.3938330471843314;0.7148151111712454;0.8355544679744367;0.11257975020727816;-0.7767291928920907;0.2799823720415391;0.6307429529221962;-0.7362592506825765;-0.6254494998819342;0.4415813183185528;0.09714371725252058;-0.249956106009989;0.317736289461772;-0.45122087857015947;-0.5877959489715658;0.39117839870698257;-0.743015941975523;-0.4893248575818772;0.015027448012230256;0.1114993436054402;-0.45044615483608325;0.46284567404045196;-0.5565479240471901;-0.785961800973123;0.3460849826568338;-0.1810418144579558;-0.7960900263067477;-0.10307729265164943;0.6719476878233074;0.9383055816198299;0.9639094618449675;0.01661016025720608;-0.5124654754845763;-0.8318401777781529;-0.21040850117871093;0.40740577994092747;0.5360374701670223;0.6693870774527305;-0.5009452681813804;0.8487350485147672;0.15161469075598843;-0.708723997765102;0.7502680115834008;-0.6872782848065604;0.4744135428065791;-0.7858416662081152;-1.0131077487265885;-0.22936167576218638;-0.2628163515575391;0.6508108201408664;-0.4396942661999693;0.14639943037912478;0.8455925884601581;-0.282030519005148;0.2752873975099836;0.5121363804874439;0.20756694120875802;0.6541767274230866;-0.11815540638072247;-0.43310864444519387;0.31516489164898537;-0.8406678480731749;-0.6280758385465757;-0.6344442246923508;-0.3855219110940945;-0.6757620375829617;0.6030059546763042;0.388928103799649;-0.8018983696425049;-0.05352997259266671;-0.4380864442229076;0.806975580767659;0.1293171822885138;-0.5353490813655041;-0.6766564138469543;-0.46832645996046035;-0.6774074653364329;0.14961528771855198;0.5813930259590432;0.49469914357040917;0.06862195579523787;-0.6674748991548148;-0.4859858258185743;0.6348239982284636;0.19129128096715878;0.5062263117285517;0.23933971236421023;-0.7161741561093017;0.6207126039654757;0.8014578337990077;0.21011446982425147;-0.4434785682018915;0.6086141142670963;0.8970194514048986;-0.2232998459750489;-0.6075755492720305;-0.2844555598475022;0.895219630149655;0.8136920749429725;-0.8187779312051545;0.2697945798056849;-0.8600080083405598;0.16248788560770017;0.4588449256195186;-0.618686576545974;0.6484043994539903;-0.09894242200461079;-0.3485540605533015;-0.37728485265558365;0.9932893492289121;0.9007209270824434;-0.4670991200848987;-0.07058628458437632;0.638986101534767;-0.9445988013592415;-0.6906557618743664;-0.40404246261463916;-0.8067299492362586;-0.4061573765412305;0.6021752424000129;-0.011549398933028057;0.5542416491474015;-0.3671803322644342;0.2525995718061149;0.6145688305235221;-0.34402972445938457;1.0194898899768627;1.0016064893107564;-0.5332352203313419;-0.8054640911849715;0.4415924077504455;-0.9425418349666325;0.17335562471309282;-0.16915779107572454;-0.5314988066450828;-0.7941900546249677;0.7838443581855558;-0.56463099278654;0.4464804352312183;-0.7887692241532831;-0.29747253797018036;0.05959189197248204;-0.4625836224071705;-0.04504976558023041;-0.9046320896771758;-0.8995969165172659;0.34276245489494717;-0.6179900605485534;0.48688181803219815;-0.18589595030366815;-0.5320619487733652;-0.4263583197781984;0.009078374884641652;0.7425262839847466;0.9042125911265562;-0.134234694107963;0.6742707460621055;-0.1258387600940085;0.27403300259665575;0.4453689907026343;-0.9293031875843751;0.4132355198796671;-0.4138838881620768;-0.09834674145670114;-0.012763858466830385;0.9367537289576856;0.5471228224663538;-0.3303417434385627;-0.8045314608068681;0.08430632188075239;-0.22347580063642858;-0.39767266955338165;-0.8530831132293787;0.9491261470073695;-0.3725981896218714;-0.2723856353038922;
0.4535601561826468;-0.005450076285172783;0.12710714800007805;-0.03675554813566951;-0.5468673011073646;-0.7010204847324313;-0.3118226270466853;-0.8431166064507097;0.8445011726512812;-0.13753992130601925;-0.7742545032888446;-0.5226670220428992;-0.24841786417987383;-0.8706727530034367;-0.028649008911933338;-0.9524808172675547;0.8324271315501326;0.15203892823652854;0.39934238889792906;0.40389250547676375;0.7876267034309714;0.03163635702105768;-0.8061263363857603;-0.731286337456217;0.23038197199595373;0.33546822829060846;-0.497110376530318;0.6801417933296304;0.34630135222659786;-0.49486779868562736;0.839299595958951;0.7264348197651814;0.8838642001682896;-0.893379144995395;-0.2975415851234686;-0.8339226103563694;0.16678354116067257;-0.26513083965392065;0.3847364581396665;-0.2647910278492178;0.37851337878317526;0.904346469078458;0.8080644884329997;-0.09361892129793024;-0.781850163923927;0.044895697960528634;-0.28880823541733036;-0.74348426477006;0.7375518858938156;-0.07819928647438909;-0.1380390572575623;0.6622597628185976;-0.9854116851225216;0.9847870857962299;0.1673388432631692;0.22173222545401874;-0.7212199561616266;-0.3433206622169499;-0.17552470695641748;-0.42110008224075046;0.72933675878385;0.19915116189613494;0.2226119852377889;-0.3936685654080717;-0.9189464271549144;-0.5199395161825805;0.04365545814400332;-0.5869660805537937;0.40267386039004666;-0.7809652772947009;0.6713628260517754;0.8521995485127686;0.8568439863310758;0.7836462585964841;0.48889643147607625;0.16401670675660482;0.35672276582388757;0.8705863125656836;0.5669245225201934;0.6999232984623078;0.2291363561638038;0.8849278468876524;-0.695002000061198;-0.970604252502142;-0.28821880424803265;-0.7976293689897084;0.3743693135871638;0.9887470866947939;0.7866618846336262;0.024750718061330734;-0.0437789998282243;-0.4849312448329042;-0.9341856251625991;-0.04123605949931573;0.22332179141797315;-0.36552068678520877;-0.7263066100630224;0.9738004390155526;0.5707837913387834;-0.3603449736527115;0.04910455126610304;-0.17027602891070373;-0.4716280365332295;0.9196288151981046;0.767110807001077;-0.42023692172923777;0.046118043936554554;0.21753501177844048;0.031657919054968384;-0.759654587320352;0.6067626909453663;0.7258072113725796;-0.9389282363849507;-0.5184451477066071;-0.5755880640857629;0.1944408886891822;0.3454399047998046;0.47834310000510744;0.2549554231263636;0.4390048136236699;-0.9359151649199644;0.12929942843904374;-0.46759822548771907;-0.6790721016534108;0.011073054399629377;-0.8636781573268307;0.2860747006377686;-0.5149626398558806;-0.4322102528589357;0.6112578753253983;-0.6184578788079487;0.5887450157464577;-0.014858948981405244;0.8757952767782178;-0.1318940500466032;-0.394680967613848;-0.49583816117290735;-0.19282146000481845;-0.34448860412359417;-0.798498039511578;-0.7112839906967078;0.29679503717929007;-0.14215578028933765;0.5769011086119736;-0.8043173893219961;0.6855035773849173;0.8751145492968112;0.3516005518128919;-0.6754188297964947;0.46580921959555166;0.7669342555806505;-0.15450691164024066;0.38363255241189814;0.9226886876874408;0.7942676177963551;-0.4906558518962419;0.6742692723136485;0.9843049642770877;0.6572595045921987;-0.5894757922378548;0.7337816148094798;-0.04132251044466557;-0.5262874184398596;-0.27512544480421647;-0.3425965126668905;-0.09771724381772903;0.19712843138752434;-0.9923084027892716;0.7844155779460523;0.013474824149316252;-0.5352528250737769;0.47188896318236945;-0.9211408520483969;-0.9174161877832266;-0.22070734572508152;-0.32426892168590865;-0.23632411873443399;-0.5760078945176712;-0.662227023862501;-0.8141724562582293;-0.7016345360013534;0.9539837775601998;-0.9538437774790449;-0.04981735509956572;-0.7634381963639023;0.08930946811280989;-0.09405273140087402;0.32383575759835426;-0.27649065572829556;0.13139079790791577;0.1934270791784751;0.24295194416759;-0.2682698834585475;-0.4545274684424148;-0.6403666946403023;-0.9831301226705453;0.6642382591181601;0.43887017550058;0.8574597075724653;-0.6392892895283707;0.12514200441991782;0.5494147676240316;
0.7396999314795265;-0.6979396824012754;-0.4923903987519309;0.3853301828623262;-0.35122674502547657;-0.5786212721165856;-0.542331120655029;-0.5532635820750722;0.7693123584048251;0.7956650945379348;0.050518187962470096;-0.5210734621024059;0.682651140052747;0.7988556308174463;-0.38114963575619876;0.5932627363549056;0.8565802552242878;0.03144213167446895;-0.9835490726413583;0.24514641556627328;0.6777949633509779;0.4554250153227912;-0.37686410400608267;0.7371389615353571;-0.9156625751726413;-0.6591298930475085;0.785412892583205;-0.8633235291305801;0.38239494202002894;0.8531252447418018;-0.3932096739467247;-0.8264600278720923;-0.5852095193991287;0.0690335601918221;-0.07930934292531305;-0.503699523994583;0.3315823316901872;0.13790110270399514;-0.5338666849985312;0.9067518522231356;0.21379157066113627;0.6479838856048546;-0.029739865199460463;-0.35934434380827324;-0.4620466986350153;0.8373270412521683;-0.14406840686036132;0.2366131577752346;-0.4651498263186693;0.0022440900799819627;-0.4023551562519905;0.287718962675225;-0.9988343525259016;0.8946986222924246;0.5819587163671056;-0.5635277546071219;-0.5254437115462685;-0.46942453236007636;0.3231616470385374;0.7676239999450151;-0.5328520729623406;0.9262137444522159;-0.6127165643983451;0.8761351855318364;-0.7771280968496285;0.15381875839760845;0.7818922965789387;-0.9522060382375547;0.78272572055064;0.5258889035385922;-0.4603393032177304;0.27159783706248014;-0.6169184587409826;-0.4357708572796822;0.7342596060503198;0.6468056235023554;0.6406501894445042;0.5677092919940294;-0.01794266237517984;-0.7797665480438105;-0.01719391542113094;-0.9149175164860701;0.46306735351512707;-0.13526571775746063;-0.3173764537367961;-0.005246387222684754;0.07777252864501233;0.657472809861037;-0.7870887572566267;0.25939610763487186;-0.7928309460343419;-0.2858703073631721;0.6864120153776057;0.8517193761142974;-0.7492808390694415;-0.49433500179395057;0.9276334007952141;0.8741418024817782;1.0018660460874669;0.10396026150554757;-0.6668329240176001;0.6870446969806067;0.06345653958169042;-0.41979701425332455;-0.047779743305799295;-0.9291859094691854;-0.17016363260308193;0.6279072878391744;-0.6860891692097497;0.5515410300011491;-0.8505415472249841;-0.7403015666205655;-0.43169370198535406;0.014154488714820432;0.5451234055632803;0.3525999233037526;-0.5741976934280901;0.39697208595348826;0.9554215907549505;0.5555239091545093;0.04104676840319176;-0.05061174790848464;-0.0020190846629594052;-0.6464491858288764;-0.5175362194961974;0.9056960373671591;0.06042019844060794;-0.6235822702250475;-0.3643928427903984;0.8752440449489197;-0.704001253497561;0.5057834033526448;0.04727741485373724;-0.8424608959524501;-0.9912914141253125;-0.7127243229472441;0.5150196194522517;-0.02686614538767105;-0.9603986736878161;-0.4415655438889457;0.441173103196038;0.4014645875616797;-0.6355959829715154;0.7980863154133923;-0.5664379320457379;-0.9262307017661637;0.5153306250808036;-0.7812717703898625;0.3080861492766304;-0.9885254011017945;-0.944844892655933;0.04248217298357055;-0.38051733900447793;0.4569159679021871;0.7429319287999904;0.13642964482189007;0.01961014861631213;0.07754582740558648;-0.027982698598707473;-0.4730966895641312;0.921136375242601;-0.9568203555812628;-0.5250510484893364;-0.5492427404538142;0.3662028779232992;0.8951790902288483;0.07402755195686223;-0.8369580919856837;0.5899145593524168;-0.40165862079133985;0.3001828957027508;0.027125499867355823;0.12029885130064905;-0.1651264479033908;0.21213780393403806;-0.06276829714424068;0.6313236352799484;-0.15158968441286308;-0.6578206198831834;0.12199693003372222;-0.1877793987315568;-0.53005746910467;-0.1782527888778535;-0.3002528499175059;-0.7519343822438969;0.23900088410450976;-0.34940457840518857;-0.8349678285648646;-0.7258064968232487;-0.4893969769640988;0.32708844174177576;-0.9517798415731418;-0.005611487511363089;0.846690028931463;0.8513453284404615;-0.02995732555790082;-0.4083981738974516;-0.010907627466249842;-0.017468623500220798;0.9177541758869686;0.018270763495036188;0.48916988181163107;
0.3147862530194662;-0.8654297530440295;0.05158425786573595;-0.0699717119820825;-0.031733152875155206;-0.49129718372767417;-0.7998754157244901;-0.4456821999525603;-0.7852848573364802;0.7328228316228393;-0.15192802376482306;0.3676576428576927;-0.5626394605115121;-0.6790264472345919;0.3380782271082057;0.7016488764696031;-0.021575231481717583;0.34212199653190933;0.473841806521234;-0.9258052908305192;-0.9102952887346409;0.6009772574763262;-0.20265136686756216;0.7304142215430381;0.22957613714312888;-0.6165135491884708;-0.23796318153166895;0.16483786262285915;-0.6629351535905934;0.6913506343927598;0.1013547896943322;-0.0035480961524000845;-0.3110470040069578;-0.9756911743707507;0.3475462217323771;0.1410472481896131;-0.8214146416606201;0.43066942382489504;0.25196564681017986;-0.0020772365599603815;-0.5442606452541926;-0.06709837286693758;-0.6032089795492326;-0.1937733570758188;-0.38146841427207084;-0.2612322875415809;0.2175870700469088;-0.38287244592258746;0.27250510102948894;-0.004955976597108102;0.5729264918720236;-0.1416464201116306;0.07494738599275981;-0.8129673715711568;-0.017709963683406205;0.07756374546209062;-0.8439912838739397;0.20897370563729029;0.29190215100772915;-0.5972038253512091;-0.821600736208798;0.36695085725277005;-0.7161292287810558;-0.20744528527772307;-0.726394199269428;0.3872388159167763;0.009145164056094892;-0.399848763697104;-0.6270037054071863;0.5538643558860343;0.39797149831526374;0.0829947616822893;-0.2173917219984485;0.09600869490625755;0.2957978258656426;0.9765449612989806;-0.8987890940203244;-0.5740276722695825;0.5585627490903284;0.8661860407101317;0.7803060556071163;0.0345977661224665;0.920292964846219;-0.7558924595218317;-0.11759551967465302;-0.9550773061755823;0.3393683947515813;-0.1270187164855745;-0.176502543456525;0.9122280981647203;-0.053550934496277756;0.37020179855796603;-0.8974063609130066;-0.5093835169014811;0.7856956166335526;0.7833634738279113;0.04109799369071252;-0.1487874069746102;0.9626792666004996;-0.2952558783660678;-0.9286229030867408;0.2539387738828368;0.7282303934862366;0.7246906898586164;-0.5959058729862818;0.702036022249243;0.7736352878945455;0.06683335612857873;-0.7472120934839913;0.36892790060412833;0.8870837190233113;0.5559013281496556;0.328329991393447;-0.0650732133330779;-0.24711289918069834;0.8302557592345967;0.3239919553583782;0.07701254957493373;-0.6650689449652492;0.22854340482549443;0.008601132965139565;-0.12111190172079044;-0.26451575077357364;0.9244557420078727;-0.28792775515215696;-0.29985668292909473;0.42422338139967597;0.3915833774346333;-0.8984673467884909;-0.010973635739869075;0.7879272006613642;0.613209202861083;-0.5455878220187776;0.1299802391554599;0.892371467239178;-0.6000036428265456;-0.33429981705162953;0.28483772405372815;0.02409303594637156;-0.48557615595768194;0.7616513537681466;0.7029717297321637;0.10646507485822147;0.5210537138600616;0.1740484692131078;0.2063353546826252;-0.14585021218183444;-0.06633908149618885;-0.28247221698242914;-0.6787029626079365;-0.9757398399545972;-0.1391731823539649;0.5165229093494645;-0.28657652889273094;0.32915989706659693;0.21008645070321122;-0.27607388891887863;0.014947436916855352;0.7231100721303151;-0.12985447888133542;0.22928264782647334;0.1355446546704422;-1.0145771752051151;-0.6661782391492291;0.43919496735256397;0.2102865019901393;0.4164117437756821;0.12191377457471039;0.9664801070541729;0.3977491604329138;1.0597259105591004;0.897390165771887;-0.3025802580796376;0.6654767931167491;0.32899922164985784;0.36492246916799514;0.732560378186257;0.9287547300158079;-0.7461130728089237;-0.32808854725906833;-0.9011844897242014;-0.6176968053220099;-0.5087268247610057;0.7811115854773257;-0.23618598037460115;0.039725434253867736;-0.7351222065145944;0.5579860356245676;-0.3948470910402;-0.24541989134595998;0.17168618699951332;0.3782508029824528;0.6055575718742123;-0.3985104206426399;0.213679096525968;-0.8937263065942831;-0.7147499413410383;-0.6273432987175034;-0.37630769528910374;0.7430000841887313;0.4957837369189733;-0.7254320588644891;
0.7340714948069267;-0.5142925225566973;0.06893204991432222;-0.6855399678761992;-0.856401853575639;-0.8962281482034316;0.39794987703169427;0.6233163390410527;0.43056083749869817;-0.2891789240529456;-0.6702783296223658;-0.2403855204154095;0.7879119872055684;-0.7247163833384216;0.16016444946555164;0.45166743261086023;0.6166723152939875;-0.40935628909037736;-0.9054498470178574;0.9798452368648722;0.6090487483156093;0.23724573510394237;0.6210890985185704;0.9827399700219389;0.508932506487809;0.9001745825255617;0.10421433129422751;-0.04390613547484514;-0.26878221600512336;0.341049930048567;0.7633147201238483;0.22831857821540186;-0.4694860005622554;0.8156744448985728;-0.20303918638515775;0.29961746733600336;0.5786413842686127;0.16195132924266983;0.5522829165812325;0.6795709222352025;-0.0018121400591957278;-0.1071961400444859;-0.4546985219460086;-0.31056399119469513;0.2709672174185724;0.1717006661216691;-0.9444752603128689;-0.6754807925044759;-0.16090443170046023;0.9642934454257001;0.07715141574167889;-0.4812727939442293;1.0010142136954139;0.2164554976707128;-0.9251467403264292;0.06152559648707308;0.8261388266501746;-0.2925528449204401;-0.6242441581146111;0.42239214009709586;0.34917109304788496;-0.42354146847054713;0.018686003962873506;0.030277708511915646;0.0620111294578596;-0.8071578712743394;-0.1987626311534901;0.8756328201399639;0.45154131114775614;-0.8343793109633671;0.21275683367337125;0.32492157634215607;0.8799934971017163;0.5437829605608447;-0.21831177727830195;-0.1301658187940308;0.20140907359468874;-0.14350371547374535;0.09647326280903674;0.4855408024261363;0.14797690474548794;0.7636032546104885;0.10804649028506191;-0.416476312834347;-0.46124616305573396;-0.6452883447536198;-0.8223249348864043;-0.4547126393932859;-0.14485530904192598;-0.6181241657862817;0.4778656511161204;0.956014046998767;0.15658970854029752;0.660360915735798;0.9558578536871353;-0.1084398499756878;1.0225991931040963;-0.20868954643840304;0.5870348618570735;-0.9247608373149576;0.7940227237914725;-0.9135120461498455;0.6497690120812813;-0.533454224308877;0.37047979937519077;0.5040003434234306;-0.17168238863317134;0.8273742904732603;-0.9544531490887156;0.5910444579560358;-0.5475739663840384;-0.3030914056069249;0.08092720988542086;-0.7406581571227909;-0.6882579255246443;0.46105011501002424;-0.21054477372674152;-0.10444437875458662;0.7885148472060347;0.9801373264916454;0.8791128109898131;0.24683816611913922;0.2946836425163402;0.3547097541722424;-0.4818289781758673;-0.1333445636303144;0.31009614556229737;-0.45560852611366853;0.22786915457800072;-0.4690025895023486;0.15767138780950565;0.120461169741758;-0.22584102405602335;0.6115180606656454;-0.039298229546206126;0.2233774772883081;0.4249107227088873;0.6941209397827456;0.8048341330592399;0.835131085089679;1.0204370305187411;-0.18803099859323627;0.22242006830297548;-0.544220414344034;-0.3856485030793541;-0.3901200434870656;-0.02403642425926457;-0.039504866452663955;0.4919867137134331;0.32730796371826715;0.036339265876459415;0.7550996136405673;0.492518617861025;-0.2881253155747937;-0.9988970465485223;-0.6379135252691487;-0.22464019220036258;0.006914208239711326;-0.9267082475738169;0.887464698056256;0.02974627010436329;0.2407629855243533;-0.1154097965876312;0.4047781747630093;0.5445823186386215;-0.40020164350014603;0.2811563384923917;-0.5297350058955544;0.11288093041134405;0.22053805777921173;0.825524816214152;-0.28696466160088446;0.8982285927675163;-0.703536817491448;-0.6436148862985178;0.3257303797027;0.5588173822995853;-0.7044282156260737;0.8707987602714613;0.8330709585827707;0.5986476709994097;-0.05815091106255298;0.4256399972516119;-0.40917385650339194;0.6207345720885142;-0.7581467248617879;-0.5843078730177781;0.7865022299900386;0.03217142299358011;0.6435032095483907;0.2396210743706843;0.7914555356495813;-0.15866201929529944;-0.3766866139837873;0.6530129640488316;-0.8053841762124929;-0.31766777046017025;0.10132695724294262;-0.07438671863717132;-0.7270402072003603;0.5499650430170758;-0.45182347908255316;
