-0.8231045846998578;-0.13081604694055096;-0.2140258514343898;0.9795558726609371;0.34944161285651265;0.6413800677262194;-0.2706921107070446;0.0379838591494499;0.03469831112872583;-0.8799740744366404;0.42355473107947783;0.9108795997470817;-0.08992069114217634;-0.6746427133772188;-0.5047459106762151;0.38501917479894776;-0.6495395610914317;0.9448113838681053;-0.2514035321693737;-0.9734707838588557;-0.6315484722271639;0.2462663601186381;-0.8118816441639568;-0.4186837906938234;-0.9456172331839415;0.09944613434744715;0.27156279949770007;-0.4654651309115253;-0.23754597164042213;0.7679353859380594;0.7935774845880054;0.4314595690151227;0.23833422306855032;0.079921031137729;0.6321563162062713;-0.9677642313952545;-1.0250273174468492;-0.5957377690378177;-0.4109460905351016;0.2894899814657658;-0.7522971854632435;0.7645125637968729;-0.042263244387649744;-0.5163505504642456;0.41435596723018314;0.8431198947038001;-0.764834323430873;-0.20694646578122727;0.08439252715290559;0.5908509364311902;0.6788505958835478;-0.6144136346550726;0.19196203438951956;-0.1775403188165704;0.770670904225818;0.754624676435446;-1.0656515290126736;-0.02794496997366237;-0.5115275234527754;-0.8717466353842951;0.11711229054049895;0.3932061466554307;-0.7532766696615331;-0.3706957212494265;0.1662884081551726;0.8910211957068265;0.9217948419608664;0.7032767488230359;-0.9783330533824525;-0.7879971660939246;0.4642926464438885;-0.8178270025767018;-0.0419812593657171;-0.08252126685442965;1.014315003389953;-0.06499343504804074;0.08794311653230515;-0.9932437709630179;-0.6112190614240491;-0.9135063358213655;0.289077473718764;0.10955768285107226;0.8890012194972854;0.1939562177349909;0.8664460078706899;0.4218236202776919;-0.2700881125943372;0.18439967467320814;0.24893771760983197;0.9338222546241702;-0.8936318493491544;0.837022536711022;0.4796876560174264;0.16907093076130902;-0.421869730000249;-0.6410532396522223;0.3626646294974703;-0.787015941493666;0.40409780544214474;-0.9580088513613418;0.7859470327121453;-0.5420831538987642;-0.41308153051917035;0.19287194293573462;0.3807160576395255;-0.5642021291544339;0.48940266298643975;0.007263581409375972;-0.8471240612775194;0.04402409365563942;0.18792964758928823;0.956829304492912;0.468688865838765;0.9772576235670604;-0.567333628818076;0.4654038817743875;0.9395333630793312;0.29149636846843463;-0.3799690721714864;-0.4778603945866791;-0.43349242365461466;-0.4190071637697773;-0.2897322526435409;0.4790133039400458;0.7357699389273371;-0.37988049334530505;0.06790345860170885;-0.1145045710332063;-0.26558199911003394;-0.5675287495902652;0.7987140924811562;0.23835801437147103;0.7507249518918552;0.01751277229755234;-0.379854927198856;0.7355079556850697;0.6161130851497431;-0.4073366414782892;-0.443582777328412;-0.16280365276878675;0.8248232482425094;-0.11571705944656743;0.9983613789425403;-0.2715247363765871;-0.4511229716435262;0.4634308535788607;-0.7225000002050493;-0.0740556176281089;0.9599038501511529;-0.17048183275907494;0.6082469344600846;0.5640814729967717;-0.5376860810866821;-0.12242163027107282;-0.4089510752553487;-0.763731404776615;-0.48880951000432293;-0.6615056706800678;-0.909229924450374;-0.4700519905042294;0.3412445767827772;-0.2909933880530558;-0.1649377379994575;-0.3842836151848021;-0.40543348542214813;-0.5650620745448726;0.3459149266772616;-0.9454148841680318;-0.6262060804777295;-0.12460386106474312;-0.02190009567917462;0.30950366473332125;-0.29082649800849714;0.49250074419628587;0.7582451198356751;-0.8944964209263802;-0.7062093581786661;-0.4599985229415293;-0.9310127456543346;0.24849303452410876;0.7976614832418469;0.20602454056695352;-0.426033350286549;0.7783989340990449;-0.2602073244857661;-0.6394285802116312;-0.6811334444382022;-0.503413803934459;0.25378131740448584;0.1556319506562275;-0.01161031645831907;0.5447920476270904;-0.8518379152882585;0.2928793726838539;0.9795470377606985;0.9959381278607505;-0.049069037506254576;-0.10073960463929735;-0.810369071918901;-0.4644178793574816;0.08975623638120933;0.8167772086212298;
-0.8446032219227182;-0.0656515064412193;0.22700418881297835;0.8268242818298234;0.8091253152788646;-0.46300885573345363;0.6455890553662638;-0.7772483432281337;0.9424268092813879;0.08497466835955142;0.6224335141312187;-0.7240728632321718;0.28531121394866393;0.9520726454874621;-0.7372425169201782;0.1790317634588117;0.07365707048987313;0.5174750834873004;0.3443535645860174;0.19830549120183358;-0.27951712174094084;0.26560196388174484;0.977405755575903;0.19230979171217613;0.34731053601547235;-0.49350997579584616;-0.0069932801568898155;-0.5929165721010708;0.3043664640896069;-0.6950934179058044;0.9058650527217629;-0.8243981964287275;-0.011014820300757108;0.07465913071130043;-0.3837807711817858;0.844396558499905;0.6839377701861449;0.08449693050970174;0.16189881002378714;-0.33869882057401623;0.5748884104153111;-0.04495697373264413;0.0749521460629639;0.7834512429460683;-0.7453777091921996;0.10421500164244493;-0.13522261136796232;0.16796110093844904;0.4677076176364303;-0.40676447801876847;-0.06297964701062905;-0.12474684780988257;0.21951641649446826;-0.4776628218515;-0.46201791379174223;0.0077150112890368204;-0.41880758770267956;0.7806551045986524;0.006194697418886622;0.787828027898556;0.15033103318345215;-0.48493288971899223;0.40122504066520226;0.4426375577378504;0.8649762984795852;0.98494047785735;0.5549987878713991;-0.8976920193951845;-0.3912795369872961;0.9470907646115968;0.8273341216564365;-0.21123026129306532;0.4211699707152668;0.511992188665069;0.012996884851966591;0.8428594144948086;0.16503448040267435;0.8574236297006199;0.816244731405048;0.6416595621503874;0.7557022282839987;0.870966406789203;-0.4511451917940226;-0.43675853865061476;0.7806524211131218;0.32046050840695983;0.3497307347298903;0.22306680744359786;-0.9934995853787257;-0.4352857635756605;-0.43522073950929707;0.15802698670622142;-0.07778358041860281;-0.7458704709962596;-0.7867922194055764;0.44811185063540976;-0.9441432565472737;0.8892424723029828;-0.3131111921141265;-0.2795240036099046;0.1975237277605024;-0.8637451355647554;0.5679977187603054;0.640664541146819;0.9185506667597156;-0.932397115000009;0.2108706455626175;-0.818201860357916;0.4975710649876016;0.38062512015524064;-0.034445305541952895;0.2636548064558905;0.5654141149858732;-0.48753029657237784;-0.13169605466697262;-0.8119848105573698;-0.2040059108773644;-0.3138477643439308;-0.8829089620666573;-0.24840548868940954;-0.016433803712780425;-0.14662053369448885;0.12267422983678959;-0.25060502124283773;-0.7388495407980007;-0.5620630222169715;0.7429661767450846;0.07081678827331965;0.6371103466037205;0.3216064530840212;-0.1599347279882651;0.12604868871555516;-0.4243715811239408;-0.40306053333737185;0.5342879773184169;-0.013793636130660907;0.9337458263955352;0.4608876701464309;0.6665281196040219;-0.5792067565301315;-0.4725788207568534;0.9092169754571324;0.057550644959279404;-0.4151201861305645;0.8452606520991978;0.6415368276331647;0.20920228014237677;0.4335208211895651;-0.3381463924149401;-0.2042407515068532;0.8590989617977131;-0.7235178209223871;0.8717587461290884;0.6593636383006795;-0.3072920216390283;-0.453571602084932;0.7379303291743191;0.7279543767700144;-0.0029809060229731617;1.0034151492782937;0.34782155353729166;-0.24445389778431897;-0.6212692553185492;0.48616677814949855;0.7584267565546575;0.05754488615029416;-0.6842760138025834;0.05021984166747504;-0.555959655093657;-0.24393936482529346;0.7923539827757689;-0.13516737265108128;0.9176740072245743;0.6007954163074496;-0.5828371053090888;-0.49041461881493237;0.5659160203907156;0.36070505025566696;0.8286867684978899;-0.04885346826345355;-0.9099148290409811;0.7117245154254298;0.11448376268470882;0.17329670829146218;-0.7017085868802304;0.06253967421988278;0.5556498845399686;-0.8569295785811438;0.6976330549899661;-0.1346801839821947;0.15534113115380982;0.9099790176968677;0.865563090441529;-0.35705751470068026;0.41780490839197254;0.15862793555599952;0.1584683938346454;0.7561272394776767;0.9760818984199777;-0.6687186298817297;0.10327236231325997;0.2160504615561088;
0.614287068760759;-0.5933184206697013;-0.0461287965527466;0.7595319983902389;-0.6997163960323264;-0.895790799568882;-0.9540845372329765;-0.09650846887384308;0.9761664860653859;-0.678117895800362;0.7070893104781906;0.4123610255170859;-0.8431466365495779;-0.23299453714650198;-0.7996055306038237;0.6514290812042309;-0.12792277465700652;-0.5822204646690001;-0.9118331554323253;0.6141793176142641;0.5771501769907956;0.740272494354116;-0.8476981393603995;0.9564106454510379;-0.6746814061089467;0.3251090485101508;0.4493423308809911;0.4077407741707041;0.22690127537841814;-0.4858919723256834;0.25384592314257304;0.426232907784256;-0.006736418294023964;-0.3516501308935281;0.8860987521523994;0.604379486474481;0.17293804059595683;-0.07129006946449704;0.607809934133361;-0.9714004862452748;-0.30016207107516085;0.1975385005747818;0.9310669835034995;-0.30820446792900874;0.8093155966027219;0.8254596727086704;0.06965270891933334;0.28389149410417386;-0.7044988352868179;-0.7605361366787335;0.2584259423994406;0.956081945222345;-0.16408688773866967;0.4962127370879489;-0.5911151656641743;0.24780219313352964;-0.807795570101123;-0.34657443347463707;0.7876362388323525;-0.12656772958384563;-0.2929755138896024;-0.3625970490054002;0.7996445012082202;-0.2743533925802695;-0.9031311501028726;-0.9865798796618643;0.09824268419862814;-0.2670718570849744;0.23365402055314133;-0.3829709103511485;-0.8240329173490337;0.7598674970464725;-0.7156254882004499;-0.36072848848045513;0.5527851724768249;0.2032668026279089;-0.33451784448672944;-0.5673174274411589;-0.4702162617468133;0.8622074440193572;0.91359757280524;0.5307543480659288;-0.2892868897378797;-0.4636672923588317;-0.98390751636349;-0.42533525421408847;-0.6898786655983817;0.7763013834359563;0.39648934903105726;-0.6493485255592271;-0.7342046061832125;-0.28263658597740676;-0.9034464687161929;0.9713949738371572;-0.8717038314501707;0.6127609917171256;0.09217508371825141;0.7848674252163114;-0.6761811776684739;-0.23607258216228977;-0.7495532092163446;0.04989630476225169;-0.735172532960926;0.5065478961806719;-0.1741443334338116;0.022672790478116683;-0.7324514149758643;-0.12934933125222942;0.542217287828985;-0.3507019194333799;-0.5682402916591062;-0.12550158640454326;-0.4424417847290312;-0.5047932880284681;-0.12305732516967237;0.9354956101134883;-0.045464518880546;0.7015268552221894;-0.9793533353788109;-0.19215275989409905;-0.032670603994971126;-0.8900567846388225;0.9494371605280864;0.7533807978653111;0.5307313594868255;0.2604497647712701;0.31747954039771914;-0.8237574621150152;-0.5690866405318189;0.24891896526306598;-0.39349055924225856;0.42596434582588405;-0.0186306031846821;0.6722129643061266;-4.236781702160118E-4;-0.5851284347598947;-0.4548798301533105;-0.891141761161823;-0.5242848811646084;-0.006397832224041013;-0.731196454354992;0.8722401296165321;-0.65881882737907;-0.527457322051614;0.5820078440016373;0.07459177306754779;0.18559086017119308;-0.12716680566211186;-0.0632970444765948;-0.21853230128015735;0.7806878618763174;0.9776894463762732;0.7189968327940818;-0.645851819704875;-0.6957185777098618;-0.5655965357416014;-0.7520142999122355;-0.7940177111729548;-0.2584343677508153;0.622574964486266;-0.11901107522470307;0.2521439094309358;0.441091326857731;0.01676598073677963;0.44190041760713;-0.9812487461198457;0.16463905976170015;0.9983298790377262;-0.4965111787066712;-0.3533342220649827;-0.7822855205545106;0.16771300273770218;0.22281975134864468;-0.4576324774193777;0.3610291882353883;-0.9925691000219935;-0.19147060272647495;-0.7898864601416509;-0.6180579978761732;0.23501554431456737;0.9281757885056654;-0.4996154385024283;-0.20344965171981869;-0.9410445226359397;-0.8553879048130335;0.9775516122642467;0.9330370729698935;-0.6096380937617552;0.6723424410729244;0.6057945327512558;0.3239737970374995;-0.7738968597363081;-0.20439933623755513;0.6379564746735208;-0.6333301614015521;-0.6573361218544416;0.4174894629957131;0.27763831718187504;0.21797486556922122;-0.509665781810612;-0.38637562615632814;-0.27497873680383156;
0.4419329581129667;0.022712579046082076;-0.9207913475893572;0.3095111923573966;0.2547466938273156;0.42358253730606465;-0.13043409564199204;0.7969430239858829;-0.060465181615853784;-0.8749386624647608;0.5026565455921341;0.7265457964215106;-0.08076276335855992;0.485063510587363;-0.15903394326079656;0.12213579044668113;-0.40066308685701424;0.166441180229228;0.4731078429693203;-0.09651497477494929;0.56499213227444;-0.12027477066320351;-0.8798731706967464;-0.5930861005002794;-0.8929184356190987;0.23238564820635205;-0.834533812510404;0.9467740420547642;0.13601478615885904;-0.009513609071534791;0.34403609065405266;-0.9629842693235151;-1.0665904241828252;0.9051110398880635;-0.07126595650288577;0.25220319064880725;-0.1074879311812234;0.6913513924278637;0.8672587379925766;-0.7208789986149879;-0.6616979880146877;-0.9206437318753722;-0.5762721371259901;-0.8096541793322026;-0.7218571776245845;-0.8336648566263795;-0.615067774108233;0.7579790353460403;-0.7875641587257151;-0.5472472417918661;0.7087235008153012;-0.043009564045066104;-1.0557320980775098;-0.13529108960951466;-0.5642618873843801;-0.3822035185217042;0.7356494000036032;-0.11213224091962586;-0.7258226234890293;-0.9479604364442282;-0.4961038435258997;0.3356138685584673;0.5866000899901135;0.8503047303496534;0.6953404571647838;0.975234375464952;-0.6830804889330504;0.990549144613096;0.15101200045621285;-0.40121696580148053;0.004986619456432465;0.7902832363263845;0.42470442428984323;0.1411369742444197;0.45852289335242014;0.027078276283710716;0.6218247949756887;0.1160570791320977;0.7030911741255671;0.5170572816917418;0.10154544842597309;-0.14134078215923426;-0.3815076736191859;0.7516963213023439;-0.05713046367050121;-0.17824727192885223;0.3435558706659809;-0.963313723314247;0.506326472145352;0.4435650815174877;0.37937311908829097;-0.2703777927642338;0.14425166017370472;-0.11491683606014502;0.1455575946180401;0.38771386351261905;-0.9830148033721933;0.3421894064398284;0.048905194367565775;0.940193511067969;-0.5083242366935903;-0.11306890021217872;-0.2406951575767387;-0.5471339200565096;-0.18059337907194067;0.504137182900725;-0.511386071302872;0.4934833560657499;0.36035877268474303;0.06800041071478524;-0.9594286737383816;0.5456939883504599;-0.9047617999214912;0.9488784821067517;0.618476056938594;-0.9528800574276352;0.21295258983358434;-0.4076000640661287;0.3856669579928219;-0.8570696548970489;0.6625842554194877;0.9133081595810817;-0.678278895426797;0.1427992106772492;0.867449011087073;-0.3558516460939907;-0.7015936764334585;0.1903074744751379;-0.7719153438766232;0.1560822694859739;-0.792556343353181;0.13157920343988566;0.5097865849444586;0.8234986064179122;-0.0813073661872294;0.24584006716040216;-0.27742068550326443;0.8489316240792603;0.42291721187981723;0.4381087532469076;-1.0071334128542224;-0.9755386763747678;0.6333205840084221;0.7423085390074708;0.4751328016043206;-0.01034506784907579;0.9594607584799848;0.3284661821536464;0.3442391947608474;-0.40098147111152344;-0.49001712740656367;-0.9909417298245957;-0.8918875970274642;0.45117253494482146;0.36312546770910187;0.19984647786786014;0.6478258974322868;-0.547507525052429;0.27098457301788187;0.6433229819955275;0.27335227263398504;-0.10511354699595654;-0.31941432301837464;-0.9178646211372004;0.31049866705810586;-1.0029571437882938;0.7284338965645167;0.28920960273852997;0.7280995504200276;-0.7384051723684484;-0.7097596551978962;-0.8909860755260786;-0.25210219749141316;0.618327273192586;-0.17295906490667048;-0.8169672376650307;-0.17252221941662285;-0.418119575315661;-1.0051141959477472;0.9823964581780421;-0.055582388397827254;3.4020814032641254E-4;0.49170121938625944;0.526679707156988;0.9285813147387136;0.3984858341041111;-0.08690026632792065;0.1367241967717865;0.6594746848967783;-0.6882350732050477;0.5112406896944404;0.5077690336573675;-0.9745393946110117;-0.9791025788830039;-0.9535816968519372;-0.43211609414780117;0.04029207189856243;-0.4569501497264882;-0.6285567438793274;-0.16546903183003348;-0.11531904095360677;0.7135023139742096;
0.41695626836136646;0.9852251048819988;-0.48127370365858013;0.2603857900861666;-0.31789881109192253;0.9771342429131779;0.2201958109908222;0.2003185906368423;0.9584206360490388;-0.8193751072542873;0.3735234272706329;0.880166803322758;0.9921523995531011;-0.9005300470418115;0.037622690456952324;-0.3541780678422845;-0.36440556132280755;-0.8685023891490907;-0.5980997421165266;-0.8133578625137873;-0.2899653688013855;-0.41322017489936325;0.6443027634076962;0.19870298807115902;-0.7313028272413287;0.6514066986196521;0.4380881257730083;0.8227875045453767;0.6087890051889512;-0.41507528673506633;-0.10361709298627275;-0.10018252178895451;0.8426960215672112;-0.34149720226393415;-0.2811872235638342;0.9127161125633055;0.6224413614491761;-0.9606662125271029;0.9494940272526827;0.12446510136951981;-0.8032500726068135;-0.9649751781456924;0.6586527311285189;-0.9089182792785985;-0.18623025855531652;0.9007914461933825;-0.16386380008756746;-0.008559831595324491;0.20741412152923858;-0.9222732880606692;0.7669185467065778;0.47291520019147026;-0.31063539976196136;0.6486220895727958;0.3635515045530342;0.3295418802727922;0.2859198852490013;0.4274314810152846;-0.732702392225618;-0.8657523660666501;0.1386859616216967;0.6881850661227458;-0.3778387521776184;-0.028428250108926623;-0.05223766609308487;-0.515082314636801;-0.026598650758707695;-0.03959441421656111;0.7700050734607063;-0.2650396848951635;-0.7076522799834694;-0.4553666772795506;0.9575510296748795;-0.45335922162090175;-0.7594451691603621;-0.28344339730212403;-0.4412095065251143;0.5726274155244799;-0.43644468854417;0.050451481315274445;0.8317603568088516;-0.1743283628851279;0.062153231892895976;0.8652311390560814;0.5791142883010225;0.35040085337646526;-0.4447007506753981;0.22923162614936268;0.2612579999246214;0.3929196207247319;-0.7042943408802487;0.17526512860325497;0.42726478970977083;0.4264247823445315;-0.3643273759776886;0.07249359823030925;-0.49626877524911717;0.49382328667579717;0.714509443121432;-0.6512761937552212;-0.4235648760626039;-0.31441546870091663;0.8517071001139643;-0.8995533750336159;-0.721790542589;-0.05829589014859711;0.8203949227279885;0.08646713178885483;0.8207670952759415;0.7875883204222462;0.6166371413275364;-0.15457588234434164;-0.6510271912196315;-0.7873728652838623;0.14054678342425464;-0.7310142204336909;-0.8075170957743946;-0.07218665057417684;0.030901151421725215;-0.6780291302312504;0.7237282404667738;0.993394196974431;-0.11528830312947215;0.3991168396042953;0.3900708602427367;0.055688286575440726;0.3199539605242819;0.6214822075636492;0.08371933583643744;-0.17619924420100974;-0.41242278374021907;0.8934963513701007;-0.6569250594497368;0.7386231129779769;0.4142243408663371;0.9380913240396087;-0.26995664436710354;-0.6531544120890499;-0.3435523782504352;0.6797414193275522;0.15928165504078076;0.20957790792695383;-0.03690402648776724;-0.6798812647972146;-0.8158884429067408;-0.4330153922407066;-0.7499193859549513;-0.06623280509462218;-0.04178719744777207;-0.09591766333844153;0.709582561783594;-0.20515079380138854;0.4952272882386349;0.05746707893897917;0.7663947132051131;0.5435721363961301;0.46506353886442764;0.36870424332793517;-0.15443592322067454;0.12651504092422877;0.9073034850759935;0.8873704107873948;0.777555312797941;-0.5046656231846409;-0.958679067147917;-0.1182985258844071;0.576474657477917;0.006470600920619081;-0.06853037597697713;-0.12696789558357696;0.8389515890171255;-1.0192853591915834;0.5776677064348564;0.2251037804792599;-0.4686518623069377;-0.8739789298936721;0.14054904434734194;0.35475283238680977;-0.18020375936780272;0.28950116772003187;0.3428075063097016;-0.9396311744400524;0.6906880276267291;0.3537837234943515;-0.11319536231991911;-0.9716262599880521;0.6986827954675848;-0.7484497060257139;0.4491097376412434;0.4674756293947497;0.33623261810326655;-0.4381500173545299;-0.8605565408137437;0.17623968196047393;0.7538929631397546;-0.8832747157420434;0.5124372199462097;-0.4923746255619664;-0.3914394276780516;-0.02028494331298981;0.2359986871092706;-0.033695317917414154;
-0.18180427241002894;0.324194777650406;-0.12675969784930774;0.007955141636987536;-0.028441725143607478;-0.07268960538462514;0.7720468342969162;-0.3527035449629191;0.8127373564325855;-0.8456417233735483;-0.9153904014725931;0.3986753945716548;0.9225076653001464;-0.4022638421986805;-0.14029448531871225;0.40399755661647074;-0.8045096442546692;-0.04817667021929517;0.9479465717920543;-0.5151331754441872;-0.11025259616329317;-0.8189248048368628;0.015729367080052275;-0.45354890321528474;0.5918423977870523;0.6860489525351495;-0.24533995649576862;0.9282822380867378;0.32897443536285725;0.6172907691195437;-0.5817636233264595;-0.8953362845140965;0.5611857378952849;-0.5852518637705696;0.5117590276059135;0.7779624008450273;0.5075996676965153;-0.3841799862862315;0.38376739507782703;-0.29771495556251687;-0.056409019315056375;-0.7537736344649385;-0.7034544369841563;0.07190460511241323;-0.21126866597550648;0.6076658669717607;0.5997575764702793;-0.3117068154797024;-0.8325227563326778;0.3350610692299021;0.7808395327947751;-0.7353648483148633;-0.3038706896475911;0.16142644486382957;0.09840044514874322;-0.38548080838939297;-0.6773022068734434;0.7188393176273737;-0.6289045611501877;0.833699833986331;0.8552599698350146;0.12711989538026344;0.5633704001016143;0.09036608964204562;-0.05228599153137814;0.7489153822512005;-0.004444150546553979;-0.9552274478539544;0.5178771935425571;0.056121996402896175;-0.28590982885475646;0.3360890941757681;0.23133885229136264;0.19644251114504366;0.04769025425610777;0.17894616050111498;0.24271307811404974;-0.04250246550060942;1.0028566147705142;0.796159308620931;-0.8983071971736121;0.7399422019098785;0.34704468679274186;0.5359485139927056;-0.6423695128692083;0.667974548611648;-0.18214982953056236;0.8219847966803951;-0.04710549284610843;-0.3035489746494042;-0.5991617834516755;0.8592553240219258;-0.873363816922216;-0.7267779600073918;-0.4857088746622589;-0.3401889154671223;-0.0708014418851217;-0.9855251340307527;0.472519951663059;-0.8831058976793407;-0.14252287780681264;-0.7343311018348091;-0.45143649727952306;-0.20725671302409865;-0.6156329436634927;0.26486371297915995;0.32347488294052856;-0.4190590121754929;0.3916017800240542;-0.3246849984516264;0.23155182261004714;-0.49180130142085343;0.4998201245201331;-0.5280760768943497;0.6167737875141698;-0.14476930835631727;0.5992438132654935;-0.5002138956482621;-0.5100014283225291;-0.7710964887823718;-0.9056436301606902;-0.8514544023447315;0.5000655050382362;0.10038417209169427;0.3716756637338879;0.012849662172609265;-0.8255240407689962;0.8170795543493055;0.725297419965933;0.4806153717067969;-0.6037669746867736;0.11158370167029949;-0.7589634954022787;-0.6580810762647565;-0.9384517751628189;0.5646339653032604;0.40329876754689875;-0.5843437761345801;-0.1009124228063407;0.324106934113909;-0.9526024089836931;0.6156423973470199;0.8320213677163234;-0.6146537077339506;0.9292975806494337;0.5956279872666338;0.3839110970993391;-0.41095667548829007;-0.2282877105793495;-0.04047142786057894;0.8616021221386767;-0.6248264408579007;0.7488595432853162;0.9931866870838915;0.9922931199213567;0.9045488048857182;0.7823372216046021;0.0368205181329491;-0.15476032794950392;-0.3131970367082161;-0.18902384633497915;-0.20041229617478654;-0.19591578744565114;0.09511639115414006;0.5449490990827094;0.6065888631683418;0.08626334309896273;-0.6367706217431388;0.32645492249395225;0.8222804659321022;-0.12625331657040703;0.264543060245291;0.34436610517900546;0.5599397013415925;-0.5140776407523393;0.606720202903909;0.30144249673283663;0.5026385918077475;0.1450781660171077;-0.04588519691609747;-0.697067952515499;-0.12121084807271591;0.7996745848910617;-0.8727324436364743;0.9597210811204284;-0.01508180859759487;0.7049960031038469;0.46598582181909376;-0.605696428636268;-0.7485593234723998;0.813880913632716;0.5051412515626694;-0.3043312236301461;-0.07140638748452091;0.8046768211848154;0.3993016103910204;-0.1419604470768736;0.07102415232161818;0.7487440184674453;-0.8412243624091771;0.22689277621039186;-0.35240846918780205;
-0.18553795868938644;-0.044188466141650055;-0.47786748253867484;-0.08966641843720073;-0.470872467764663;0.23395033154809236;-0.09671803695503312;0.3809159496203107;-0.47056115970592133;-0.42655368207626193;0.23287175536287208;0.07952920355183135;-0.8268259740967829;0.3155853009703115;0.16950156566364183;0.46121818718882635;-0.22827283487712818;0.08707125972129258;0.8044737144589036;-0.9592988148494237;0.05803406105456273;0.1107984661284153;0.33026028799406904;0.552552220644105;0.4104200484399818;0.03531549431586592;0.24113330161924712;-0.7127422721351503;-0.9887865351051801;-0.5934858253004571;0.7619480531671973;-0.9347079026903891;0.4133023317752066;0.555217495324427;-0.923134096873666;-0.5557757371380612;0.418390556705658;0.6643385101387449;0.016928070065186752;0.9870913059055182;-0.7307792465419038;-0.8298300456530268;0.6770287895417763;0.7106442902724766;-0.014517544088747817;0.11899651424579245;-0.6812953593406939;-0.7541323169605003;-0.5930355020389577;0.7003984334217123;0.25063996906523267;-0.907730683744043;-0.3524468030191832;0.7104860770079012;0.6066214631404564;0.07311466095035493;-0.8161925521221803;0.07109866014212193;0.7711959430147898;0.3372396148123142;-0.640101928243269;-0.7495279194972214;-0.977384251438865;0.9573564225407647;0.4217941878118997;0.6768330617597815;-0.38796603907185273;-0.05829570998777781;0.2760066596895633;-0.7704650631504358;0.49961007468673857;0.2477306624574507;-0.2933240383351435;-0.8062033108737766;0.3459640793743014;0.4843792754133472;-0.7810751621847329;0.4621499856836514;0.8563873142787447;-0.127700640438315;0.6089727885028579;-0.8002628703288764;0.6764577107609516;0.6731259158710075;0.16027701432833574;0.6829586588558435;0.5086616749687248;-0.9100002992860897;-0.5124682875491593;0.41606164727110423;0.8730197029064255;0.34290234126545593;-0.9715025588012717;-0.31054278051634987;0.7864121981506642;-0.4479211661957323;-0.16084574047846334;-0.07356818070914604;-0.13982986480395915;-0.42905697959482864;-0.06892312448242621;0.33681515577835697;0.7987808643431976;0.9560791682951806;-0.493346735278321;-0.7673392259309497;-0.3216279049788918;0.37262837352338546;0.6458277878093786;0.814573168617426;-0.8067813036869681;-0.49542422560097854;-0.022632619071226802;0.2842087000632148;0.2570671715761561;-0.8626931319608643;-0.7407517538199926;-0.5480262085829436;0.4822163449160095;-0.47543909749936425;0.33532811300025944;0.7926989594575;-0.1632153008621483;-0.5440477642095366;0.7992691611943731;0.5240668134152641;-0.10248907068718863;0.2723429462460063;-0.14379728014042628;0.5326918805146271;0.29183667183863826;0.1605987705638488;-0.6536855322179497;-0.3089565814040313;0.7280414498114818;0.6606153156773255;-0.13896583005569776;0.6175223475026621;-0.9628357807726263;0.38633355368241945;0.9003770065693649;-0.41165924210135135;-0.9149403810587154;0.3207299744276084;-0.5005934321912721;0.5573778229799069;0.4061668243279673;-0.5258094909695853;-0.1982583935317086;0.1265735139147452;-0.25395701529641906;-0.5022153707675141;-0.8974926729102911;0.12096238078875268;-0.7014064341379013;0.06042860310758726;-0.8781132820039558;-0.3707804678998328;0.9304604433097726;0.6631141610376075;0.016546925314585906;-0.9765145780366542;-0.7590944082421757;0.5778704078962466;0.025237656232807673;-0.7241382958864635;-0.15740881824051142;-0.25415456994663127;-0.47281472920182926;0.43435610631883015;-0.3409383394875818;-0.9559289575407313;-0.19041974816390947;-0.8863013450071232;-0.08595139369481167;-0.1884874712859632;0.07897531553757914;0.007038461058604698;-0.7439436532666778;0.5184427753281902;0.9769799959796794;0.6211089753666087;-0.26403591374426966;0.033944812106800455;-0.13244153058202235;0.8150300670565264;-0.46589855320894036;0.002631631540327226;-0.07513755284040613;-0.1843416750004394;-0.29414904425656274;0.3978042135664502;-0.8033321901750186;-0.9065823968748713;-0.7190626162514755;-0.7415153945862616;-0.4555759958953134;-0.09257998810570878;-4.025722486154561E-4;-0.10342519671766584;-0.7285090649116115;-0.44379618079616845;
-0.3620962996732619;-0.0018320777794475533;-0.8398835538595475;0.004942256782985643;-0.7540655339561377;-0.07426316902568858;-0.3954185279930007;0.8842927185261341;-0.5572551120111024;-0.9733085839104698;-0.39914586113168227;-0.8041341500020367;-0.5730491079601874;0.3995625826567279;-0.8970230093015423;-0.4914845223249563;-0.577024394554797;-0.3429873986991064;0.5158918895755293;-0.27645869407693124;0.7762623923951716;0.5952983452906014;-0.02274493824702044;0.11086078876327653;-0.4296443362278162;0.7449696725548148;-0.5327816694221772;-0.29774081500418925;-0.6259123133673368;0.6929373383555243;-0.6855847913454143;0.6074833095835935;0.2592514349979122;-0.44077700917016693;-0.15879249653514113;0.806482475963818;0.09160677516645958;-0.914691527765018;0.14857594992807857;-0.7941378947096467;-0.8095292038656536;0.38011002265583044;0.21650375384639553;0.21549057799180743;0.37783834144545364;-0.602384523773294;0.5565673652459925;0.5203049480446693;-0.4870807706246184;0.46999232314375416;0.89619875300157;0.34929396270693003;0.3966812936966891;0.07330995627237484;0.31810109063971;0.46316408153732835;0.4988459327812412;0.979046561784865;0.3530259722801598;0.7747947253704288;-0.3957473506409989;0.4209188081936157;-0.18572779668473757;0.8399191858851429;-0.4684314866466012;-0.6045852499402815;-0.2594435100256852;-0.8139542801707722;-0.18749440118932606;-0.2460217366883256;0.4923592982242702;-0.8025868529553256;-0.21067331035908554;0.2576737653222627;0.3331204028612271;0.49362314604306273;0.7821553373341694;0.22622999103322672;0.5889923013571158;0.6622071160080675;0.4556329354315124;-0.16281181577610174;0.9086707474848421;0.4932138655809021;-0.71228021267485;-0.6049767718412994;0.4098947126300011;-0.010180012103436834;-0.35358714574180117;-0.14802619365980224;0.2253996935451523;-0.4440308003423389;0.23052394982275745;0.691643801425288;0.7450206893899648;0.7742207277132275;0.49575000246647166;0.22584089393859447;-0.6429841222249234;0.33989042194002994;0.16854293088036928;-0.5066014251324796;-0.9624575592068707;-0.9255288482176305;-0.9468586181748252;-0.6374064247531627;0.7542662613718911;0.7122857804863786;0.849392027155192;0.9130433548745317;0.8163965100102679;-0.5954024818378704;0.9315617338430168;0.35491518563841756;0.9819172110471868;0.9194999324816329;-0.9401039605687681;0.6849690891837762;-0.23558614736595992;0.9746487861336707;-0.6155420868028287;0.772679638306273;-0.6838292609590136;0.7643390084717718;-0.8747360123988042;0.2702429924318057;-0.8476885542582315;-0.8194245976272251;0.4104503331582598;0.4377002938166608;-0.6024701601372233;0.6428128931987339;-0.6888705979256815;-0.5334738298043481;-0.6249465770406404;0.1873491869380525;-0.9274549229235558;-0.04243492101614034;0.7765900695275643;0.2647489694090456;0.7388856399586036;-0.7672222216099709;-0.34735140717022894;0.18973551823534027;-0.7712660132988101;-0.10956547731881147;-0.303360858761418;-0.012389397751825942;0.8379830313953205;0.44795653936664914;-0.7603084419231748;0.28798335275960774;0.2137220838690388;0.06450165405462456;0.2549744480744779;0.9541385659291342;0.8252208292392025;0.23340168653951646;-0.6795517863351012;-0.8069613366802608;-0.21602158649924683;0.9065110723012282;0.046224604971742266;0.8609125880860878;0.27477608546525967;-0.6302220592518882;-0.705211836177348;-0.7877825904917333;0.3147771967754466;0.5097791385738132;0.8399026280610675;0.5986279886848036;0.05428569077518768;0.6668998552755508;0.3020195225753934;-0.31813335920070884;0.3287348061259009;0.6860843532261209;0.843636015938591;0.44729322008930156;0.22616155353651046;-0.8796174390280302;0.14965425970707624;0.6504070551129354;-0.7551553343607373;-0.25092336842136004;0.34410214967249164;-0.0658207457197434;0.6740069343751589;-0.7355497343875819;-0.7051338169094912;-0.673718191220801;-0.9296704365496316;-0.5012070916067274;0.18931299067163884;-0.33854455952709095;0.224211167656035;-0.3164423544489353;-0.8655061157821985;-0.8383955523282701;0.6546023713223715;-0.44048326841826985;
0.2897198642792157;0.05214339352183338;-0.5841190552162807;0.9848336105386848;-0.2548228098367566;0.925678730890717;0.9690528013700637;0.07793037715175875;0.7034424972304373;0.6772416703474089;-0.339351142631942;-0.1956854220232252;-0.21191166222671867;0.2622898542566615;-0.6267660383228759;0.06759221413236373;0.8943395969643366;0.05332610002276101;-0.21421001598959566;0.44887760329161613;-0.683055378368169;-0.3785120874636052;0.7037936307455637;-0.7766617176030907;0.050708028905843666;-0.2547208972017873;-0.5456016442495598;0.9351709640299021;-0.6314217399251373;-0.49370101723153764;-0.03259574749400555;0.11549463762246615;-0.097253473991532;-0.3882206419858345;0.5244230455477114;0.8422838334902412;0.7578441859975229;0.5364902962475555;-0.723569123339246;-0.5348114372315056;-0.9677641348769818;-0.9020561611359348;-0.720130017599365;-0.6493217248249558;-0.7446736796410589;0.7432582585855615;-0.7326753031424657;0.629642557532341;-0.21102091522247682;0.3600120149936225;-0.055364169349759795;-0.506806307631356;0.4184496672114631;0.15739794542424426;-0.8173181666996227;0.8239121122776315;0.8143092999202093;-0.08048908113468853;-0.7662370126185581;-0.1528388422967642;-0.5252912016647667;0.6246120123650065;-0.8666475332215559;0.7372676426875986;-0.26805324717189516;0.726465765518371;-0.7083948442280285;-0.7848467428225465;-0.5526189727153062;-0.40885757152270225;-0.6547209671796206;0.5754650251074022;0.6065942071143249;0.014376324583586361;-0.9012399300603237;0.6665005440112862;-0.8631146789913056;-0.8999057570289115;-0.9642951480974528;0.5082673105910585;-0.5545495044836619;-0.5937016568232502;0.1666344518041746;-0.5012968255869119;0.49718582904381786;0.4995962766051778;-0.6140512660819657;0.020047257115192143;-0.8472992238005643;0.12604686377357904;0.2770089432427899;-0.15380781117986572;0.37052968934867386;0.35530974699732554;0.5969646449094024;-0.6272504281884438;-0.8104378656555263;-0.7193466912903002;-0.9435324154355993;-0.40678036563007375;0.13056676552549848;-0.5625255031585713;-0.9957505518279404;0.33025755923829064;-0.7598711705133722;-0.7204058718542332;0.45300960986048777;0.7553391795136075;0.7853014043098551;-0.48175032064477397;-0.15948702622616404;0.2270638546493301;0.9857476047111912;0.06761132633186034;0.48877285259178077;0.5265571442907226;-0.577357320711669;-0.8849295986316692;-0.3442197546710105;0.6944217586313407;0.6953862653316792;0.8687594721844779;-0.8683052616200888;-0.773148500498025;-0.6019256926999239;0.12280679195857902;0.46454020474643126;0.2284322571657314;0.6293326527158634;0.6937527629712155;-0.2022513246092418;-0.7203368114885037;-0.003259357746660285;-0.5137352172985885;-0.45646659268800766;-0.11889478638673162;-0.30003838493386004;-0.614114348643022;0.3146231338157391;0.7837925529897657;-0.9610974817077775;0.4789966612907256;-0.748791054001292;0.060301455490831116;0.47194765164529034;-0.7315906683240074;-0.2975935387678549;-0.17093145508936933;-0.45081830332390815;-0.09601546249378662;-0.8592304367473825;0.23454627769693037;0.9853290631775;0.2269072709235135;0.6162724101749265;-0.550259167119977;0.6406813568979678;0.6674596510563597;0.6021684151710215;-0.5802322197844159;-0.3758001880041343;0.33740970674044807;-0.4089865841364015;0.3957348052713181;-0.12906011140462348;-0.6525219431744274;0.7023761330986518;0.5429360672830122;0.5133895925351869;-0.9091494988222759;-0.6129143253790136;0.09687978515292676;-0.7212119334643202;-0.17527069857108618;0.30589541606377774;-0.5938125553021978;-0.9528867822720432;-0.8489543425840768;0.9790247627328217;0.7243018489302109;-0.9350454675889239;-0.7660976986992649;-0.5468253973853981;-0.16239498149771625;0.4428705543453557;-0.765982888914541;-0.8424254257146112;0.3553588561095069;-0.28443402676093665;-0.19762732839570638;0.7098254642655916;0.46908700870428777;0.9043153606331769;-0.3553716190937342;0.6226462833194265;0.17444405901757778;-0.5845512644585289;-0.9394574380633929;-0.9528189348641455;0.5764347307268557;0.7964994854253741;-0.3993221835318082;
-1.075372397138978;0.5463227965922349;0.4193029295422681;-0.9074802403267112;0.6154196386491472;0.019469623332534828;-0.21191935979748933;0.5449485949595041;-0.2539050162211507;-0.22880761026375543;0.5983039791492375;0.5304044146655538;-0.6575488401875368;-0.3171105230162672;-0.9348625416063441;0.39127611162147746;0.46722475537143254;0.5093502437100574;-0.12189282463886175;0.8859131107521058;-0.5045086806970508;0.19609381708539472;0.34175434858380876;-0.008852548137089708;-1.1387986837762514;-0.2973432772091792;0.18098603580192507;0.664059067440125;-1.0086641883275824;-0.0056519883028928915;-0.3767256137416193;-0.2677283316051061;-1.134641681353071;-0.7283357726733855;0.38863953184721584;-0.7653484291325048;0.47833227365912445;0.10678951826202605;0.6816049112572118;-0.42925353051905474;0.17854816662174364;-0.28563157665784245;0.9605585352509197;0.5194919893706892;0.05162002108772907;-0.26951978230099627;0.35647338366733045;-0.018484742449856675;-1.0393737425703928;-0.05997773752566446;-0.09763949657266087;-0.6802223562369558;0.5335737562359677;0.062150720873705295;-0.2584304319961564;-0.9391207802261158;0.6269999210962235;-0.2683249222198131;-0.23960187207813402;0.08851384888187736;-0.3373104011058149;0.4329022209207979;0.36234744540393743;-0.3344368171089509;-0.5026980809567616;0.5527134833804183;-0.2199994169169768;-0.7665470833111351;-0.7144033310689876;-0.15494504246972407;0.7506580570226544;0.7524112863453408;0.7534807045697436;0.6930769964059709;0.9113076054851292;0.17012953852751436;0.6379382015185002;0.5421119359562021;0.7855514380235314;-0.754002264376975;-0.03047016670733939;-0.8275824031582246;-0.41872408908793474;-0.5085632329895091;0.33236252725199567;-0.6837112919339091;-0.6048326445263592;0.1845810464808549;0.8544531023570311;0.20900329834152234;-0.22726411326864843;0.33908423903047236;-0.8594723589367466;-0.6374830189137719;0.36874485914495003;-0.006404873132119964;0.4702863793142183;0.8694214769426272;-0.4258172887525509;0.8216322970373834;-0.29231880206344557;-0.6580271116269103;0.42052879597239873;-0.1333069707238733;-0.8228393457363465;-0.09827830682302785;0.775221923409562;-0.6739560531447811;0.8314864125191437;0.550904801532453;0.7782401128490981;-0.8585795832345245;-0.238036421405192;-0.13377548355644242;-0.39337482085003816;0.7930611216621978;0.7694242708836357;-1.0155019072512281;-0.8427710066801155;0.9865046271569305;0.10333820411155663;-0.40724498009412696;-0.06927046536830155;0.43586926355009137;0.010148939436193357;0.9708909694529213;0.9247535776684641;-0.9716494988009392;-0.09991375060979683;-0.5784006835984737;0.3157145016955642;0.7752822100807689;-0.14148745417769173;-0.732478699925449;-0.14099829735717137;0.8895927400781886;0.15215206405882276;0.560706125511226;-0.3548534450667188;-0.2939155869118794;-0.115160484895774;-0.490062421011506;0.15121066309517062;-0.25170245606135055;-0.37805911308092277;0.033878173024092656;-0.28172370609073993;0.17914151908547202;0.3047386700268767;-0.7454192655425315;-0.9769990638046361;-0.5561184185330097;0.7173637094947921;-0.03439566284683194;-0.2024297036194646;-0.6785228634135546;0.33659710415785976;-0.9255983759417309;-0.18061809471655468;-0.20466293984373127;-0.5112604536133679;-0.16365323269687856;0.7230462988977054;0.621577379933863;-0.5243755795382525;0.894439075690772;-0.41042008664478086;-0.3929702061992742;-0.584709953940108;0.5229720199058769;0.43363985555454837;-0.4381823571572801;-0.9163356349863315;-0.39860563247421116;0.2513771950769807;-0.8698040497972434;-0.0450882100099543;-0.4264730647997359;0.2743104669216667;-0.8953301206700077;-0.7189130500486605;0.3187062808865893;0.21924386319139372;0.38979599784028046;0.18559017588713633;-0.7936108085703046;-0.5108916598388608;0.8507950339703035;0.22810374592125515;0.5436805777382662;-0.5593203094391818;0.7551768287778189;-0.9162441318166987;-0.3423673279270952;-0.41407872439150223;0.1968772456668043;-0.9804695939656591;-0.19569086629259522;0.7161231635032085;-0.5953722302755887;0.3172734328181432;-0.028097565254058647;
0.6150205364704954;-0.7141851254202463;-0.8059263672662036;-0.6982597208513394;-0.9054792774481838;0.005614221076854129;0.00725121318568589;-0.3440694114770696;-0.0879018909715349;-0.20956173127302943;0.8678896813889834;-0.4409683315441894;-0.6053663578893347;-0.10674637368051135;0.08534787436392488;-0.7569884935823;-0.19598727433445712;0.6884346870093921;0.27317746724139336;0.0870161782539528;0.07251138934338515;0.2873778080340306;0.7447443042878237;-0.5868906155910908;0.36896299004365396;0.7574621084893303;0.9930758041697508;0.8523597423605551;0.15413790606820874;-0.6060204634176048;-0.7112111313016355;-0.2060781823518152;-0.07580874683097831;-0.3246981910798784;0.1780212155531658;-0.9351412632932673;-1.190764615842867;0.6511243064504858;-0.2643987852152858;0.20768454185585825;-0.30962148522205885;0.405348482479684;0.38912067652545324;-0.14669413733751774;-0.5019411413246394;0.2198413132551895;0.12465898144653079;-0.17897748705107042;-0.9779149132176239;0.18822418760332676;-0.4278570425471099;-0.7927058392009195;0.1637213584207379;-0.5202736214512975;-0.8782371101332246;-0.35277855451521356;0.3860814596099057;-0.7447111842255136;0.5373993100053708;0.9688068120146337;-0.013844153381802591;0.25449610897120956;-0.8344148546735348;0.9085725518472098;0.20401495983984175;0.4469847786959611;-0.05111343157433779;0.27450276092245246;-0.5848767678533449;0.12393785475706393;0.4260211872969902;0.2736746756483214;-0.44060280472634644;-0.5060749662463482;0.8332245210735355;0.7702797376054815;-0.7226559501703341;-0.8494181715241945;0.08315497578987403;-0.7616455949049941;-0.575495271931279;0.8605775512279;0.4177116048462549;0.21432133558411878;-0.16019694165898965;-0.35792893647618007;0.5179068745844337;-0.08383864214358026;0.6678893814434148;-0.5741387880622562;-0.025930634591670998;0.689732799528328;-0.8951965205948782;-0.9142953271160401;0.698878679956401;0.6047221933124985;0.007611424602392816;0.13243391385174355;-0.6928195766352868;-0.2604765024052667;0.7868703691598593;0.44477369805622;-0.6170897552577925;-0.1228484808452264;-0.36958830353724903;0.6090359341306457;0.5735450801272891;0.3138633878427216;0.23884105462463373;-0.3771910953391194;0.7143454198585848;0.5816200764588886;0.4863698326866084;0.4376147765201834;-0.6623285694217147;0.8934385398767858;-0.8647899294533803;-0.5528077527952928;0.6749731779691382;0.9867389775948487;0.8465916476414793;0.08344437901805607;-0.8380556792188434;0.011755749145317292;0.09293303643872286;-0.19167157343882474;0.31511308210144595;0.47037840009523885;-0.14906827079261542;0.8740767865416885;0.35021622552125486;-0.6400947094615539;0.14616011401746518;0.8884375580683028;-0.681734289698285;0.3099503926286216;0.41869560799988437;0.2560532472399226;0.6994038818162174;0.05781763635098329;0.3214330052708738;0.7794846657264177;0.16163730028858395;-0.12458632916866853;-0.3541000990360925;0.05985760014015499;0.6500794853376386;0.44019712080180357;-0.6238905648180225;-0.4065006779411739;-0.7635567287983425;0.3792531021640084;0.496653351335087;0.764959179667645;-0.13516213318038836;0.4140223734536538;-0.5080273941615032;0.17399886909164886;0.14329629669563923;-0.47001978913257125;0.5834863135697095;0.3399826651902231;-1.0592945071035271;0.402860881359562;0.7991371588004222;0.7649466484806406;0.005082774055942277;-0.925808611536834;0.026991282803851244;-0.5307366538469103;-0.6502478621599405;1.011991507713542;0.6434583783735796;0.7640809671636131;-0.4574227444430776;0.9743972109714643;-0.08076861522100283;0.22437517446029456;-0.6406989552017646;0.9965565669814719;-0.10212575659245737;-0.377508221540076;0.754694427580452;0.9091879108456326;0.9422958567200541;-0.6873235603623025;0.8390569812163394;0.8954726998162721;-0.8573193462156099;-0.8552375329891325;0.315221536823395;-0.10010867631460568;-0.3497942932496112;0.0852711854139984;0.3881969577998077;-0.4548665100819491;-0.17375248269299637;0.5085546758972594;1.0045051338056588;0.43844345493157777;-0.3173805954263221;0.09843292023783771;
0.8620311196392434;0.6632351891406763;-0.7631276224968959;0.5704598065559013;0.7312872420204426;-0.09048861502835376;0.9645342291850412;0.6564623366494702;0.6919133443583793;0.31392228294332203;0.6320309349025774;-0.7290294948827354;0.8346883834610997;0.5477217954811289;-0.22738058686215257;-0.22691868528991457;0.39096987857583093;0.5289900747328283;-0.38209380625586475;0.033933866679160915;-0.7908953344660408;0.17405270025094707;-0.21815964804839583;-0.31475078179935095;-0.2249913252540083;0.06933019555829674;-0.6564667674882156;-0.7906752119347091;0.2028510310460038;-0.0559278808789639;0.10964470703337484;-0.6137363122558315;-0.8568316139704364;-0.817677977467068;0.3800127921521827;0.6043974005768649;-0.6402064582548731;-0.8548187217604347;0.40066050006977816;0.5212053606570599;-0.6489352591179277;-0.13752903484077983;-0.679834212710572;-0.7938599331089516;-0.7916217424964381;-0.4513358479990126;0.5314667284238513;-0.45845266230487874;-0.4511895474502205;0.42604957030148627;-0.6357052852948601;-0.13932179539643813;0.204653615992115;0.058427895769829145;-0.5792140228600445;0.7733350422816399;-0.8277393514316835;-0.02477581939485563;0.3872889014566781;-0.29441668829219014;0.08151365908003166;-0.6251342379886476;-0.36813995456762805;0.4968912774117949;0.6856821004501695;0.2434120414416989;0.9241033799824214;0.08719010786203447;0.22579187100853804;0.08972538683231837;0.6079651928215368;-0.6586421580396508;0.8442601466354199;0.6182992795554221;0.6454481669012642;0.5011776104396226;0.7197511117234062;0.5516867979699022;0.9511058790069697;-0.2396078720101256;-0.06437902565755481;-0.5905402167520976;0.833595657168967;0.6353884470198133;-0.016307473142082737;-0.23306130394340546;0.4812333713743129;-0.013958979369403497;0.07658988130748237;0.38917981953911035;0.8586241130382305;-0.8752661130077183;-0.8258722140525117;0.2586520602469329;0.35304298592070055;0.5021438080832432;0.8686873447128737;0.10612100151701813;0.1715309836955956;-0.45593642771317994;0.29448421895394145;0.005745443228198374;0.6726322561526007;0.18478612736620956;-0.4752796860741085;-0.034541814773527656;-0.56267882110954;0.8739671656707594;0.7072225584996861;-0.08306205336217218;0.9435246632205095;-0.2377373448651998;0.0021888068584592084;0.6612330943175426;0.6818576522796715;0.5790484001388738;-0.7171270213278783;-0.7767479792913365;-0.9764536628527063;-0.4175636987996982;0.4864296685153525;0.8754809112722073;-0.6151151269831099;0.239206664291453;0.8938135824692586;0.36040348109939935;-0.013101241888628235;0.7442144856180405;0.16598535103571332;-0.8934651648431179;-0.9548899771522216;-0.36127175445307946;-0.30628011562927404;-0.3065684604364249;0.9058878167981691;-0.7804855952579937;-0.015410761358691578;-0.04287481490448101;0.2638548275330996;0.9246424597781326;0.3049237145626839;0.7669273599020823;0.5945423727282693;0.9974664714232773;0.8330719579225087;0.491397194095723;-0.24694018953970892;-0.8597364389822318;-0.6100911081408241;0.4587289040973417;-0.2550886275084079;-0.17823050003673166;0.32423275633456605;-0.583515553504293;-0.7215308058526493;-0.30025132282586137;0.19863185492108082;-0.31050117137934674;0.5475342933253251;0.7866009249480627;-0.2119858737312378;-0.5793495932356051;0.5140846020193733;0.0926669620052496;-0.7412160792787859;-0.2725711530170002;0.8902082600044023;0.669362671406863;-0.035084757154078376;0.6148324231125496;-0.6440449337330068;0.65072601335528;0.33376002150458856;0.7836093042703122;-0.6570516942564746;0.4029038016303437;-0.046317573674200495;0.5845041932550528;-1.0044746345258981;0.8112122562159834;-0.1869417568769649;0.24428799895250852;0.1378244009636631;0.5038069130838343;0.07694898879921364;-0.6587614417534816;-0.8334688647496586;-0.8327586117509475;0.5717383655039829;0.28072923476606093;0.5543581647452489;0.5390615577689207;-0.8553608754708257;-0.031374512129091287;-0.14858611211106604;0.17279075281328043;-0.4642545242048084;0.5668197622509021;0.21637432081905686;-0.3180860849042857;-0.6004979066126868;-0.6640318879238385;
0.24516180069719382;-0.582436117656649;0.09355367943499537;-0.19601921281421913;0.00777983483263212;-0.08657191854789972;0.07516612403973677;-0.4108965322453601;-0.3556552516100847;0.5506282973486302;0.15303028683562414;-0.07172556312155008;0.41684277202757686;-0.8864035511242206;-0.3389192478075307;0.5413795956476294;0.037816597877415765;-0.21852850783760389;0.16900537685793537;-0.22338129359067382;-0.06550632485214755;0.42231520131993183;0.5233222999441772;-0.8665723724930582;0.5171853113145604;0.15311774136957482;0.37159730314506967;0.6609842234203405;0.8250163679261362;-0.7496450521032906;-0.12133957919492264;0.5224990878393038;1.0002539218653566;0.003787695346097971;-0.5717598648747859;-0.7630901384127293;-0.8861051579822875;0.33515486238639586;0.1709763201515989;0.46244790134861585;-2.796419968280822E-4;-0.1346874697784713;-0.6176857149369063;0.2613386180755559;-0.12447564076497965;-0.5227366846789268;0.6481086812155117;0.20689327411326539;0.7207277634196846;-0.8743723311772783;0.4307736249292602;0.5451602560586744;0.05780971273073591;0.031177221416206824;0.7561029290847786;-0.5094780878271208;-7.044046454477796E-4;0.44905904650888756;0.6613983030068793;0.8093734655296283;0.4694132186528689;-0.2463996968046893;-0.8030689117050562;-0.5800217555578527;-0.5260822899913224;0.640399141305134;-0.00918522853259321;0.9963070304402429;0.7968329655260846;-0.5585336334069012;-0.31412657671503885;0.7053821563549845;-0.919782542111646;0.6664551510345312;0.6384987747148723;0.10473891671186032;0.8903177160191198;0.2934835188865128;0.40574236519700485;-0.9699514161273486;0.3855526646749445;0.22579740351172986;0.7503212035703922;-0.36529966520318496;-0.4126107644919854;-0.8131015425244617;-0.606728809347696;-0.22368738106871036;-0.2751042250310923;-0.132781644362131;-0.7492039649114014;-0.04888474688159719;0.5574959991677494;-0.582616200190098;-0.7496038670410287;0.43640343685066096;-0.6492197662731851;0.7414946201365589;0.4952585579955209;0.12554463595991164;0.17925187156872216;0.9337618573762336;-0.4285417102239406;-0.039040704385175165;-0.024433622187777587;0.6602627401160215;-0.5782226662436775;-0.7866797675574634;0.7380224064602773;0.25261495459704986;0.9023479861025694;0.11071590689830013;0.3557106782504798;-0.580471949568814;-0.10810896307006808;0.05932234565870577;-1.0027869072109417;-0.36039894109403814;-0.8180188572924816;-0.283687917158859;0.141427330906543;-0.8212413711273439;0.9427353844117864;-0.2698694885654172;0.7964204022557861;0.18402694440948314;-0.5318211656867131;-0.6298937380817616;0.7116770220697695;0.5240983321004575;-0.11754007015202401;-0.10288426697421585;0.05772192536981982;0.46544418108758034;0.8229713808483389;-0.5294480784267369;0.8286827524765781;-0.20037094650713588;-0.8917299968702744;0.721790722581141;0.1018576575672877;0.7788039573658682;0.7170053569446408;0.5887591852781662;0.002749459059652934;0.655963314296635;0.256249798687241;0.7340944701811588;-0.3733697490040739;-0.1308398609930166;-0.11253494163110024;0.7825779268422879;-0.6119052905840435;-0.9153281276974835;-0.8102129101458454;0.35967804631291883;-0.366004097369926;-0.35488209733574794;-0.36744461072351703;-0.7047412629429367;-0.025689776340908247;-0.15121284818851433;-0.0012270149017184653;0.8101718543241957;0.4980274802747775;0.1556441735460226;0.6208369024717455;0.8436423208570341;-0.6495165047723074;0.9044995611888502;-0.27692488812174215;-0.684504115609578;-0.5411156479392841;-0.5213446841320806;-0.7078418234819807;0.3744432330967803;0.518554687803971;0.4479367739784697;0.1834732454505674;0.7791125767772752;-0.1865177089105856;-0.7001632668824908;0.8331452806096733;-0.24621371007483447;-0.9140927701337185;0.30137982806773433;-0.2983491855629825;0.21990560859968822;0.08163283002086685;-0.3768967155923007;0.8486483630278354;-0.2961533440123325;0.10213052262980704;0.4940780223559942;1.0433114519066309;-0.06399228205164284;0.3445744902783068;0.01147260408556605;-0.7422382204438301;-0.4307780670843219;0.9636042355750503;0.5742523690508534;
0.3427645325301776;-0.2337230984796873;-0.43936359927819546;0.3873682292244759;0.2606172408397817;0.6076839867990912;0.6665569268194493;-0.6721865334718702;0.11819250914144072;-0.16425466450645265;0.988873960192336;0.45509786451731343;-0.3615637530646306;-0.09181800470754267;0.2950631038289666;0.7896033985731978;-0.09759696425224158;-0.556405686089231;0.30135721015994665;0.1687848128671435;0.9564053262697422;-0.7913824477074999;0.3760710996999563;-0.9952136046472777;-0.6576747879451135;-0.531359916703944;-0.6694333569920506;0.664529581541245;0.7788207293339772;-0.5715395454367408;-0.08770640597221838;0.5049139913837868;-0.6787216204414367;0.5499143310513627;0.08024702147910591;-0.8261553933964514;-0.16865238595684887;0.7655496068486398;-0.06823077203478128;0.6994247559831691;-0.5883100160376382;0.6428166136498761;-0.04505337665146933;0.6076661030547078;0.6097518632585202;-0.2071803186114898;0.6578634069939594;-0.1036316799812481;-0.5945091534450436;0.445168351461833;0.8630243072438897;0.21442482255002823;-0.12115460159619365;-0.2523813067134779;-0.12264314800681181;0.5941964530185568;-0.8521559727015203;0.7006296141260104;-0.38400401290575337;0.8309750693155422;-0.5391525051684927;0.9842481600056946;-0.5870641240275538;-0.023674025970115035;-0.04094814061383333;-0.13370034186100618;0.393902331010046;0.34788759549312104;0.5501065313107207;-0.9925788709089082;0.23810085452728966;0.15784760791164656;0.7386887751848488;0.06879814283056575;0.7053698226438935;0.7617335793567331;-0.008664820689401064;-0.9271446803663901;0.8509551392237108;-0.4198697797077304;0.5815869369350258;0.8995304921299012;-0.5680165527452022;-0.9675410251264479;1.0114620076202976;0.10544005249944516;-0.9314278707120344;0.812638845921744;-0.5269090823642842;-0.3761472907542332;-0.052414764460560384;-0.7874164161461593;0.48970273682231963;-0.6324215302125381;-0.8990623332609323;0.3356126146362795;0.9127883238637018;0.4633555318010439;-0.42673274863816973;0.3934890517611584;0.3595297826217535;0.64104086402066;0.2268670255683795;0.8777681948202941;0.9009688024884749;-0.282043154528892;0.26440058621085666;-0.566734047219646;-0.6349977295991628;0.512500624933724;-0.9048094484309153;-0.12024629539709908;1.002415042819343;0.5053805130892874;0.1748891522265049;-0.3779744825251468;0.450049525158202;0.9118269376744066;-0.2330216105093218;-0.5724682547480594;-0.5525987672911611;-0.8443860854811662;0.513303679159505;-0.5789962268246854;0.8099422489976748;0.7553660955146654;0.44314477487445847;-0.6030137516183786;-0.3443582432808121;0.5402633941563374;-0.32680716727598036;-0.4165983214300897;0.7296287724261806;0.4403769387738365;0.6176568204183747;0.43729076058264726;-0.9045897303026216;0.07087429375086296;0.06085719538727688;-0.4500053887617473;-0.03159844946147936;-0.9269607657083382;0.27233426427628477;-0.16784212649816474;-0.059290873495632515;0.676980011925906;-0.7510941502670468;0.5968134539371234;-0.4033629676651954;0.057098778494668184;-0.7409740619691991;-0.4811644542417148;0.7488816058075675;0.19997645974245812;0.11010695231642952;-0.6130207440960174;0.8569759035071743;-0.5769626301794408;0.40346717842696816;0.008878819505626058;-0.5500758676089256;-0.7527458054626941;-0.005482040161240074;-0.27887910024451057;0.3906081441078181;-0.3747377145020469;-0.4950428156843197;0.3198830876159604;0.5168129692679561;0.4180888365761438;-0.07490937224576283;-0.2351185624326647;0.8695084700255078;0.5796881808343708;-0.8238347155713104;-0.9423867987957348;0.26049872026677573;-0.00860014366528279;0.27256478303539977;-0.9738869538075771;-0.23475790214955183;0.8471295795776411;-0.2736020481262222;0.10875038130799625;-0.782126829127133;0.744078054648709;0.8133821905509541;-0.16373489183238027;-0.13886094122260761;0.9570372452245806;-0.28320843295802134;-0.8543413805920425;-0.7335454225239078;-0.9060595193752027;0.18587376384133625;-0.7808441983513406;0.12338060678854545;0.09926036518475473;-0.37963087201795925;0.05349902561452128;0.9187689334944773;0.8299834779619198;
-0.3470608400911252;-0.8162748091127854;-0.8559698744096702;0.11185709384046837;0.5524762640836962;-0.9210425146773306;-0.08682091233582145;-0.6702838937767284;-0.35419251329955587;0.3290732842629712;0.8812289702471636;-0.811972140404014;0.2988890259194179;0.6355083336840512;-0.2644824162971471;0.24889840498328233;0.9252114798608452;-0.5692711355373279;-0.2816537130264669;-0.5379226544910537;-0.1436991868386774;0.6014737926277616;0.9630982174492578;-0.10811582448989582;-0.31684772491218754;-0.4673691184738788;-0.05756459533874602;0.4435594092533326;0.6144978949928467;0.8615825436442418;-0.3775607370999413;0.9503412160552824;-0.4698687845549358;0.36158934936896014;-0.5986744331560286;0.7057642288494286;-0.14299078249076114;0.13428671252560875;-0.7426575075564943;0.9357540832559075;-0.846566626359184;-0.9462397374834867;0.983050244184462;0.8988604603464679;0.6091216560257262;-0.13512618560627065;0.7190690488547882;-0.6727117746375794;0.2509810213953149;-0.8440387656135436;-0.7316791860422539;-0.84373723404929;0.010587651006280936;-0.1523188396735653;-0.2125536875576254;0.8631743111514346;0.42188013809705266;0.33365545075746783;-0.7781719052057564;0.3561290770522632;-0.0413566043809155;0.9082487826810117;0.1502231355684518;-0.8625665567322701;-0.5373815567891151;0.6217755826119494;-0.6140835906695633;0.13169219268418414;-0.4828487968024074;0.3089281473774315;0.4706384819686457;0.7356024736987087;0.34412138265932257;-0.8004136221495733;-0.27039672696714884;-0.11050976676039932;0.27611762338377965;0.8930711763994859;-0.49382229534603883;-0.9905904875786226;-0.03332423502911597;0.06285050216777512;-0.14903074242453043;0.46862759052984454;0.6351047723213298;-0.9894760524952217;0.678909715950648;0.4813083700982099;-0.7946221064453501;0.6690777953653541;-0.09542864553967523;0.7668635304002831;-0.270129872437541;0.9291649978768838;-0.4616783163760518;-0.3728941358586439;-0.272729706144254;-0.2826055111839448;-0.3832556899511269;-0.5898574091877113;0.33816269349267825;-0.12361390160615864;-0.9700918166586179;-0.9571311281861462;-0.3735473001336345;0.7624761452338786;-0.31815234628325;-0.3773506443130069;-0.1052259716914812;0.967678487185792;-0.6186288822399731;-0.9097967992088674;-0.05831847834959758;0.3497368627367516;-0.45988504500320276;-0.5597071918961698;0.45721721742397886;-0.18794610784889806;-0.368699403546067;-0.4961045459447449;0.277034827919651;-0.6490621312546928;0.3788127787153056;0.953221009635909;-0.39303518212565225;0.17126865044955522;0.09128310158453101;0.5540081462800027;0.8646238666998961;0.9791251580551179;-0.32763574618841845;0.9063216236862203;-0.30573586483793685;0.13802720172176794;-0.7102139421126819;0.6906317958302738;-0.3789160405686379;-0.7720638221067102;0.4173870711103634;0.7796293864600617;0.24905822815896336;-0.26037923293299314;-0.25407698804121037;0.043269550867619834;-0.40394963809108186;0.8601643853515518;-0.2262533135263218;0.9800036706755485;0.41208824840111086;-0.030388252113674977;-0.2814599787910876;-0.44083394760070627;0.9626139990942714;-0.8160628311114305;-0.1885579064287983;0.964874767563971;-0.013813829075681862;-0.9442439820810123;0.38615753644162953;-0.8182592180282829;-0.7147643246684852;-0.14095132337937563;-0.4365049212601953;-0.4344459930177106;0.7985108968841287;0.46302380073697896;0.4574910334767967;0.012856694165792838;-0.3384949151879921;-0.9412082320932798;-1.0947511735768156;-0.6852095965273272;-0.8522655441578992;-0.15915146048685586;0.5517555663606399;0.881928012018358;0.4440107627087269;0.8473409331402016;-0.010526502454900324;0.04287822833629987;0.5833908954149043;-0.7649264786313713;-0.7352927683789927;0.45862886856829505;-0.758021799527038;-0.8727300661837696;-0.28694883951116984;-0.20996570177374058;-0.028032598356282135;-0.25077247821008225;0.3733951878394768;-0.21405308952649466;0.09565037949895228;-0.6340539514709379;-0.26591826643529104;0.4736742055422498;0.27846369734867826;-0.10443643238678925;-0.43776520129646973;0.6961712770278882;-0.8048945889950119;0.10429854631545014;
0.8428853090188179;0.6627269759468578;0.20489517713247252;0.0793201533053548;-0.12763124313940497;-0.618114097296187;0.9930256525129111;0.9912691725823036;-0.7545847512117758;0.8794063548752135;-0.015887828921189895;-0.3722245104820342;0.4081620606101115;0.7145287288056705;-0.10505877595449542;-0.156313792016073;0.5940946905867001;-0.9196669077295918;0.8658309232688224;0.24510465176755913;0.14163264243598692;0.9213606979271477;0.19325724219539803;-0.3379223926040977;-0.8648700603702367;-0.9377593295079779;-0.4400584813443659;-0.2708752591121373;-0.3472725760945093;0.2625372739820918;0.321595804634302;-0.9734405391216011;0.3443683557221484;0.4483347177466329;0.40432928712986993;-0.2814552136425032;0.1337610375030413;-0.06432310133889063;-0.7474968192368707;0.5774348636810088;0.3734603343372318;0.20082252819852991;-0.17770464630626612;-0.39975597407408797;0.30355276853523294;0.33553690104036155;-0.2993407461813095;0.47411092005726807;0.4789066331768755;0.3780076399140504;-0.7363971348079648;-0.9235916314493813;0.2071864929804712;-0.9411947035297996;-0.7289431672041722;0.42647726236319133;-0.888704377842282;0.5211174981962537;0.19750005606925097;-0.19323771238161472;-0.7477885806290758;0.23434567867573872;0.8757659180060625;-0.7071490165002492;-0.9012323855511911;0.5276531484468997;0.26177784113945324;0.95553200211317;0.8644208838227472;-0.8929817728447255;-0.8741964505508878;-0.39951703352099294;0.16963815883795347;0.8633254603658505;-0.3480021312431354;-0.9314787216482138;0.25853751796152846;-0.5855338371402288;0.2660289197326674;0.5313524017994606;-0.3247305308615054;0.5445119416259422;-0.5595355644203633;-0.5605435073412444;-0.706892762414423;-0.6386800613656833;0.2919386441339315;0.3741504199838439;-0.5530481521750235;0.9762738223135533;0.07141108175952754;-0.4682807665346774;-0.05847757743300351;-0.5861447661627791;0.527294270008085;-0.5315675111372773;-1.1642607039903377;0.5458503220608689;0.1075749838632155;-0.1544353963589114;-0.4619278993726058;-0.30177459181141164;-0.2914090596737957;-0.9014749928083695;0.5737427102164916;0.2783210158417228;0.26726297876740274;0.6283801112641398;-0.6590011032632339;-0.08767532834587895;0.5873816535956267;0.8573919587841504;-0.5675298896869718;0.1540961567549543;0.1531536780493425;-0.5270977735717665;-0.6618658334773811;-0.7650650418477362;0.3211728642659661;-0.2771355046496442;0.7064709451106641;0.6513350177838326;-0.9509835554182914;0.47925374511959185;-0.9603663628144908;-0.12184197571003283;-0.41574872559347364;-0.6585396063510867;-0.47730350854635645;-0.37800418626608;0.17486680465503068;-0.07540848265425128;0.9205999404559597;-0.8127211862013591;0.46186346599908695;-0.19016001116961914;0.8732310551346923;0.15212501085802654;-0.7124984363042901;-0.367829431691147;-0.5245508946143871;0.3257815846560846;-0.761035143930608;-0.8155499983906074;0.6100309121742264;-0.9649514406330011;-0.07393763957555041;0.2618262745393605;0.5660335767009559;0.3363288086610283;-0.5252301759195083;0.838950278953164;-0.8354441270478188;-0.3226102903858635;0.895282344601909;-0.9039511191634574;-0.0013130262335317073;-0.7215473929363546;0.07213447907180408;-0.3022074558041384;-0.7923751138409999;0.04805723387525643;0.2424166386035754;0.421339028924881;0.9501112766136885;0.34771410040540707;-0.07489900363047382;0.5829510911518537;-0.07168115243518607;0.7702662049356174;-0.13859756665256992;0.20147803276786663;-0.9482583200831421;-0.5871891677235489;-0.7532628659583223;-0.39028426481569933;-0.7427714876375803;0.5246938692183405;0.7978003854565813;-0.24645528700302252;0.8281209099835638;0.47372980436936335;0.20713427621331518;-0.3761654372920363;-0.47039022387784324;0.5112926679537444;-0.6649081546858597;-0.5209837216216162;-0.2326574178548486;-0.49785895362403787;-0.6378664231553789;-0.5317686964470132;0.2412343508015551;-0.803528000155385;-0.9473442674175563;0.11527652786980618;0.5248663041005848;0.23983455138905607;0.7366153621664578;0.20329812106211884;0.14128719561076258;-0.5389792077364766;
-0.5387382014376252;0.7093178399829799;-0.01948563967385719;-0.4611726291775285;0.6896244701001679;-0.9209845876117776;0.7735343172525235;0.5608008908756473;-0.5920010564751866;0.20394803772876927;-0.7768868482405573;0.62834963811314;0.10948971848888604;-0.47722661021543933;0.40688309235118036;-0.05343670023083947;0.531148034289653;-0.20730141811359523;-0.31615979269571337;-0.415566367455649;-0.32887611848716153;0.28015211988622435;-1.00329927867219;0.8515484163247798;0.47436110870196857;-0.3531242782784086;0.3525154036760917;-0.42271085252952995;-0.9018872600252748;0.2255130098538832;-0.8751793612871958;0.08628037933084973;-0.6398983358932834;-0.19506539875949958;0.5068042001982114;-0.644973089826459;0.5223013794500827;-0.1571697035826368;0.06758062707539525;0.2708623578801338;0.5789486525023787;0.692545733887175;-0.43780712264083016;-0.6316695820595587;-0.11976427175124542;0.9433457230171031;-0.8690428000718428;-0.4082164833859869;-0.6055058596512708;0.01778125270361618;0.2420432976044685;0.2768957987817371;-0.30903754471481976;0.3692244156538166;0.5569221536046162;-0.4670911193464801;-0.04651484412435912;-0.3433998131920037;-0.46109872271453767;0.9701703257397104;0.3308367523517919;0.61420694987829;-0.3849999064394081;0.6220676859294145;0.8951501630600232;0.009450912370068764;-0.8901470894055863;0.4444376960480629;0.43781735186658083;-0.636919971046644;0.6512240443557186;0.20588867262734378;0.9218835656378633;-0.32247272552166817;-0.8749888507762424;0.6933281645422926;0.9562568479856927;0.04331162833550197;0.35444370424350746;0.09703046128914404;-0.4857855568682577;0.6945959447654101;-0.1233093986966468;0.8547928496324784;-0.17356871298998544;-0.0897433021616818;-0.745162203852725;-0.6821080483954834;0.7197671519717344;0.7117804143469948;0.8450198061535472;0.5382785757450735;0.6810858767600135;-0.5971617520983485;-0.8244835293272793;0.7913277512243944;-0.2897379189461765;0.36485452719856715;-0.017606708854747452;-0.7985756142997315;-1.0158511600999776;-0.23140314627982878;-0.5356594102539051;0.05454746151661559;-0.9275591184736405;-0.6461210957807179;-0.24208535467769565;-0.7410565714335889;-0.8579700176104892;0.7877648798336401;-0.45729336559997213;-0.15440873492049537;0.004232537817833232;0.1689467431690377;-0.9131640313715766;-0.7784813326143898;0.05233667096228341;-0.2263050394423036;0.04792218425574641;0.7725614468319316;-0.4201441899446718;-0.5456054533702874;0.34495901437589394;0.8174609662424452;-0.6526200949816092;-0.4661096693781259;-0.2057847192971555;-0.32158620784554015;0.15803066378146702;0.33092492474166035;-0.44093208566169717;-0.4136647559604095;0.6122889239851058;0.43986221450977037;0.07304193838219888;0.5743903657535548;-0.9769670274927909;0.42774118327933;0.8496839430008156;-0.7709476506864188;0.5331134184287246;-0.8522269239331652;0.04994392187156299;0.24053170046481015;-0.12936173129420858;-0.9237979288570298;-0.3663428707395607;0.6151933674405465;-1.000103973470874;0.4493324538303874;0.9779733975391748;0.5537253679906744;0.06022557648636185;-0.9298549297339249;-0.4326733063092207;-0.9462994399096792;-0.05829877581336181;0.22809177343685744;0.6917945872362853;0.2818930959681678;-0.17051924113782005;0.939974536912061;0.72989608165999;0.3946351160333879;0.9300059097673784;-0.4272239873376975;-0.6106896843421545;0.4372873891829586;0.44741225437549764;-0.8739625419816159;0.711033309357302;-0.7303557694821271;-0.2096842566857144;-0.895363510030744;-0.39514423896852247;-0.6867602303935892;0.6828854222923519;-0.4811074517468913;0.04116762587272445;-0.3200929165929533;-0.2721230768192855;0.6713972194800224;-0.38332296423776413;-0.4837531013888096;0.2986906462118164;0.8097114769141596;0.09635982419665927;-0.7269762555801605;0.6981242884009966;-0.08062579978258867;-0.7626381728914208;-0.327385330852767;-0.9098882584126458;-0.4691350623643422;-0.040166361182640456;-0.8061218267004273;0.5648939007775353;-0.8439106958749273;-0.2677152163395301;-0.13669465099166284;-0.2650118582715912;-0.1430937130120612;
-1.0017512117364447;-0.6180058162681333;0.3542145755071753;0.9869073373003174;-0.3435609738524579;0.9030783491413583;-0.5735128859309235;-0.5123342362487943;-0.07760006296778203;0.8343562785041191;0.46939103717528874;-0.9046025119361786;-0.8682641068328386;0.7979495394903341;0.030470456509017918;0.4783393710611813;0.7835645858914813;-0.9298912773563445;-0.8359543291623552;-0.8620154946767451;0.24483030331561081;0.7300467380342042;0.10816945159554733;-0.5422348546495492;-0.34590374113289435;-0.6543538125698692;0.5661041709607734;0.4631095684572286;-0.0637325950276229;0.3982653101685992;-0.04532756126464589;0.4233596819133811;0.13348738525203527;0.952939581328084;0.41819323377862755;-0.19890965792348364;-0.6299135750644491;0.7915953580209056;0.6259912584906666;-0.056114485920394315;0.6239255069216177;0.49312792977449127;0.1564991889352572;0.6769942633505341;-0.021768637943962155;-0.4557339420399009;-0.8169116847077246;0.6425583141392475;0.43249696866753257;-0.7157306838601347;-0.1915677776049536;0.19443459693937284;-0.4540652900254979;-0.4676686451018237;-0.5736111365009577;0.47777044756899034;-1.0513903558846338;-0.8009159752520925;-0.3364002522635861;0.17495433603721594;0.5940442563745697;0.491339481719712;-0.22545109136248118;-0.22030116498321425;0.6835009007239664;-0.9025020270491183;-0.46908418232723015;-0.0996724219463968;0.6358354248084088;0.46914536685964037;-0.1242395428296051;0.42363448828117845;-0.8628104547905175;-0.45088527756261537;-0.23531748479408993;0.9470806821076913;-0.664310886387612;0.17162311454369383;-0.6225698386038906;-0.35278018526281696;0.7783616846106464;-0.727777665399659;0.8213937453559912;-0.20505534816120508;-0.9927752019176616;-0.7942944156728348;-0.7354309573234461;0.17767817328741958;-0.245532392153592;-0.7344096217915633;0.33492078640345463;0.7050946896070791;-0.8774127762973126;-0.9873778766757731;0.5507736176791937;0.19224008356181796;-0.6172842145953181;-0.14828300556104587;-0.7319081273313665;0.8916039077835789;0.07635247076074371;-0.40046998200937534;0.28687592231310344;0.03051737205932819;0.5718450489238105;-0.5547982252232101;0.34211517892339594;-0.7741666351973795;0.919324587715835;-0.4454432461881109;-0.6634570072040218;0.3017920723406456;0.3908944440330535;0.8298211297101906;0.7773740393371321;0.9038778703826512;0.7785411172620962;0.9269668616905379;0.22994257319494196;0.1284902079988958;0.26218950700355176;0.815667946275326;-0.42326299242997095;0.2991686206264591;-0.88790423794666;0.26907159621898075;-0.31631099813262875;0.9787442863874033;-0.6139637395269225;-0.6342706325456376;-0.4538948245934631;0.34498519337088684;-0.7164171344388841;-0.5375809285055068;0.5656182050576927;0.41714338744377005;0.9714994196156894;0.3457706948582394;0.09436566689722457;0.4493748845958763;-0.7271376758427706;0.2164876739335496;0.4068241697082246;0.4299226050972334;-0.5621803875518546;-0.9275013603104788;-0.2058403813404585;0.6059684179412155;0.5514021567208773;0.1431378515960341;0.14961769392937965;-0.6960303778562744;0.0888824984726602;0.519612249343502;1.0231220445354892;0.958418906403417;0.34894273068807485;-0.5898279856041909;0.46621538265417556;-0.9217427979940269;0.09122123836997527;0.5943677102250353;0.5589834120443412;0.8960965549685892;-0.3112409929253884;-0.6158716786102648;-0.14453573830225666;-0.6859461939426985;0.2520727998573829;0.5890068946259542;0.16575473027509757;-0.8946241897214224;-0.3752591876266161;0.7271330209746898;-0.7099517085327788;-0.8724358114305514;0.6954873082059874;-0.9288079012414527;0.11409192216064282;-0.18358505526366473;0.42988336228917245;0.8916403825945548;-0.6467240900519763;0.5443105134915459;-0.40762820716961556;0.03656883819282612;-0.08034656545017518;-0.8815468386186449;0.5031562959941966;0.3993597743433342;-0.09052782336094554;0.1348903470553089;0.6689201688588644;0.2837916721777528;0.06416813920880128;0.770908856865616;-0.6725542439728744;-0.3956691970767451;-0.18726752783818199;-0.6804937958743632;-0.4392945641701985;0.15182471478853005;
0.2340065760932905;0.34910007548262006;0.9111770415189393;-0.13032052303231167;0.7929049730165296;-0.2293636657321592;0.1957285432392546;0.5360796655424663;0.14311852188750823;0.4554562618029443;-0.06162167607976654;-0.7492968430347459;0.7913534659273996;-0.01883100750282178;-0.9340312194400942;0.888818515765602;-0.5176658509369768;0.1099096342533067;0.5133347152061667;-0.17724977043196366;0.7818611365235579;-0.6846270283998797;0.10439661959807925;0.6606588411163525;-0.05556167329950275;-0.7689404437924491;0.8744361809477806;-0.4130949731690879;0.4709395551492234;0.7636921052462179;-0.9500810595176084;0.5397636163588094;0.4979276602703116;-0.02225160192814247;0.7220484734279077;0.9649272914272333;0.26310327740604506;0.5984786969190915;-0.11630708708233324;0.07866306998526378;-0.19856226915980288;-0.7596283791922913;0.2277714330063451;-0.11658172469404886;-0.8218202351213644;-0.43689043731514077;0.5920259813993689;0.5969236033107452;-0.9596013544389329;-0.8852703948404177;0.1852660776886344;0.9044956276782096;0.3183187639922066;-0.7362064152005379;-0.4957974705394513;0.9751509689684553;-0.9240506359001026;0.5343480142032314;0.8846986161790885;-0.6072617391958957;-0.243869802691981;0.031310150536363913;0.9153893785596171;0.5125751471314496;0.7238349965121411;-0.6255537651661516;0.278693702368181;0.8782491855974418;0.6454191205323939;0.798678805291388;-0.3986090104867776;0.8384269841349996;-0.5797753940557014;-0.40218939360066513;0.2539481145344961;-0.813534104732502;-0.18229219986702186;-0.3380377261963467;-0.3099806206486452;0.9877019309157641;-0.4696138231763292;-0.12877183646830379;-0.6703665009131727;-0.9079683866296341;-0.3980282526422321;-0.6242283740826777;0.37359056537347957;0.598554352787579;0.9033723046760629;0.8041434632107705;-0.6307925255021124;-0.45280921069577523;-0.23592053561867532;-0.6058748023109487;0.9772021568368481;-0.5472055536425067;-0.8722249956896825;-0.45517201022008247;-0.701618661627903;-0.8639352992091474;-0.9306606798423864;-0.758260278450862;-0.3620337781254812;-0.44757228482690375;0.5419460500101497;0.5931632571769627;0.46089790755467064;-0.06889358117400068;-0.8152077622550146;-0.9680766918212259;-0.9684121076689057;-0.7888659127963774;-0.6481062171988117;-0.5250125591650509;0.6854889285733365;0.10922906436736045;-0.24247307278701144;0.8367356334171119;-0.5449635757984849;0.8380334143828058;-0.34640561519090374;-0.9549823777542693;0.7646038624192041;-0.8358592824785385;-0.11638686282886271;-0.8769453364138499;0.9588172335013003;0.195505193947119;-0.49448260329418936;-0.8830025486252187;-0.3398784040439028;-0.7125104466509908;-0.8370232663234884;-0.4907921632670225;0.8754841101540258;-0.4390121251419952;0.2704686802773118;0.8296398148206392;-0.3857127924270992;0.5567829898552344;-0.0725526535065966;-0.22544032281300416;0.7885375174213014;0.37998793091987376;0.35311356936671906;-0.4484408419385717;0.30384664586216253;-0.7996402286251741;0.40619547278591484;0.23758515561625457;0.22165061877734366;0.4799942872803229;-0.4597848357255156;0.5703527569475287;0.18478632920924792;-0.4122714744556101;0.8711559186231185;0.041842818926091575;-0.1677682203289336;-0.041426265406011714;-0.8437554872498073;0.12945175665310363;0.5826904143090975;0.7005409640737021;-0.5984079717694208;0.686806206247971;0.5827976477114303;0.05777106870594634;0.9127236234291927;-0.5768003622474098;0.37790941838439435;0.1588401471451755;-0.12474501417220982;0.36777822048214937;-0.3697697185203079;0.3055881336669447;-0.9398943819100598;-0.24822550138997695;0.1959282594307442;0.31086640880388094;0.9418648720944103;0.49593680293962505;0.3107683887200657;-0.8077580041590102;0.7021333706729294;-0.11018956260017337;0.6202083370603488;0.7624886206826896;0.8144319735133456;-0.9010026199613593;-0.17770186983484004;-0.5842123647458752;-0.8903735310270937;-0.27803663846160226;-0.16422175464229652;-0.5740244256761552;-0.756773021733913;0.4712163917020369;0.4397064966288173;0.26974104875741667;0.5267237862451992;0.9203726367711895;
-0.37666527004536426;-0.47969288207737476;0.9234176169456785;0.9724968568284349;0.6908468049257654;0.37719022598876206;0.5104554322563182;0.1488729213278507;-0.26105949331780565;-0.31617599234827115;0.4229188473979102;-0.15827147198082053;0.12473912934941042;0.7508936329901726;0.9552661191076974;0.06200861723570981;-0.3651149723133841;0.908497561616745;0.9032431435383765;0.4747990204741165;-0.9369916152071179;0.12630659578489103;-0.9341321089036922;0.26630173468699425;0.6003148360181924;-0.560840627033444;-0.9932187623572836;0.1552183633238373;-0.8759681224000009;0.07513169837324167;-0.962304198005131;-0.19022919869396773;-0.31580489649595045;0.608104969807908;-0.6099117698558878;0.9435399169621635;0.4251986748014909;0.3760625873797023;0.6992234593981392;-0.7454314149800825;0.23147183399379948;0.023945115819512856;0.08823598568811476;0.6177542355269695;0.23482839765744087;-0.48605659963260267;-0.7123764732099165;0.8091124162166193;-0.07498475234102135;-0.7457475191475962;0.10573351076282968;-0.95879885254247;-0.7540800187575367;0.5550258579667894;0.9404862887625984;-0.15428719276603564;0.7353349978338671;0.1525993122408383;-0.3449932629042596;0.3883173103991386;0.040384569678767246;-0.28017393805200635;-0.18371661078420126;-0.6765547049006534;-0.1754791584672446;-0.950294907956405;-0.8380236501994124;-0.3990211198438345;-0.8496734598575002;-0.21236553900016605;-0.26519580484283845;-0.279941910248329;0.018576961841208068;-0.955335593910708;0.4722781990596434;-0.5617319118188516;0.17957017164483982;0.29781107433166026;0.768427734867957;0.5347666811221642;0.6817667339410449;0.08449219543113505;0.8786947382681785;-0.08630647818013223;-0.15244712597237636;0.011065931212038008;-0.09643994543144478;-0.0924794530757135;0.20340060453726014;0.02064169087712376;-0.49823683690205794;-0.1372256683485404;-0.9837438264001588;-0.420235557977425;-0.1375274767125037;0.49742185726941396;-0.9647709745430055;0.8680008834042013;0.029386732372860967;0.9231982509749573;-0.4516938543265215;0.8082109661814999;-0.19357425838527936;0.2671233077300986;0.6710846242907186;-0.6693755796463282;-0.0022077899899248347;0.2669327203812123;0.39058549457214187;0.7826254171483424;-0.1761434794145767;-0.08680223548692956;0.09803124388335892;-0.3811896570031714;0.9819089452049037;0.8142373953844205;-0.5506100673830594;0.08426797475793481;0.43480230068634007;0.762037128837971;-0.010770507083772871;-0.9297152054078665;-0.9969573791063082;-0.905675711384738;0.38541963521884004;-0.4156098418994554;-0.36955836038368295;-0.39825223219632266;-0.557780602238865;0.9364772384496374;-0.9809332740593013;0.8137579442534763;-0.35086774947163224;0.3222484887986311;-0.6166413417912776;-0.5992033708337245;-0.3254729745503756;0.11507717008544234;-0.21978734129078814;-0.5817303819645809;-0.7847363628032578;-0.12097132835499735;-0.48785088962847833;-0.5503349305936293;-0.7113813270240891;0.3257147018677334;-0.5127613922381141;0.7293656001676954;-0.6165218878327267;0.430264847483249;-0.4744657688372331;-0.8826397679533604;-0.056368051758199096;0.6435885772068912;0.9349342925487129;0.7738767242425633;0.42125942053119836;-0.24467149438178246;0.9993015064331748;-0.46710756658845853;0.9601486883527348;-0.4040844027100643;-0.23984579190925423;0.6396543876634533;0.7982938364622915;-0.9311918706283913;0.11284975011650422;-0.021516175459579574;0.00895942929634383;0.14556561707330426;0.5847338299807786;0.989296360705391;0.4559000212425145;0.8256390835431218;-0.9586196733976454;-0.0634415876888336;-0.6958078610680019;0.7282574098102611;-0.5698138427937534;-0.7215486877775781;0.5426432735817002;0.09053347867454413;0.16449959767702288;0.720646124192187;-0.7390804707758152;0.3936964195178007;-0.5871596929942499;0.8921566719159234;-0.34618841427139135;-0.9347937208453551;-0.1661341409693482;0.7857828921849281;0.11018573288646372;-0.6657717285679761;-0.6875299190519928;0.3664771385930011;0.9208187733640987;-0.9620209143845204;0.01728330068301764;0.5988240032708946;-0.36381447737165873;0.7944658875886346;
-0.7160548681502362;-0.9216046865106644;0.06363894679009352;0.04921249147739322;-0.08169311994295168;-0.7817335522392074;0.38085885262266417;0.524677791814836;0.40713101741333085;0.6595385053297063;0.14963855991543085;0.5757322222967377;0.745733152520341;-0.14510666982583417;0.500518780889913;0.5192479813726266;-0.15335850649162022;0.2437931506885173;-0.0029155627539172446;-0.026898846585774412;-0.05028969607982671;-0.41031480622241;-0.9125326754600582;0.33847898042088626;-0.3816246796264379;-0.4395664874676401;-0.3979438041451915;0.7136457230332889;0.8295945747991327;0.11610030828714367;-0.7768093537469046;0.2785835633276189;0.6669958380411256;-0.7362752926900521;-0.6234454396094513;0.4415861102783165;0.09465394475663313;-0.24998190119074468;0.31360742071047193;-0.4513265750544709;-0.5896577136532013;0.39117839870698257;-0.7461191739328289;-0.4895672797389604;4.703073135377999E-4;0.11303508912516134;-0.440448140699476;0.46238692541236187;-0.5585917887782655;-0.785987032580882;0.3460849826568338;-0.18164174053704044;-0.7646372182567311;-0.10308260756831444;0.6552578848927435;0.9379818186612211;0.9781698335723822;0.01661016025720608;-0.5124229080737277;-0.8324667290629914;-0.19763197671626762;0.4133271410883785;0.5427778751786697;0.6681300725532981;-0.489573574453309;0.8487406117009476;0.15412678056697734;-0.7094086287201902;0.7651530007859725;-0.6870401446842797;0.488011552147627;-0.7860233312909355;-0.9848810755723018;-0.22936167576218638;-0.26286953220335213;0.6505934665541777;-0.4294335176681392;0.14654712535296155;0.8437854614774585;-0.28207315095996516;0.28271839567672263;0.5121363804874439;0.2087389287306994;0.6534338440496894;-0.11455181724447193;-0.43263248410101973;0.29441496730975736;-0.8406678480731749;-0.6223502545063736;-0.6344440970019327;-0.3913391681988631;-0.6762314278751909;0.5989756104081168;0.3889138079745093;-0.8023013209729111;-0.055293435934065875;-0.4197429720936523;0.8072694174288784;0.12320284126719235;-0.5354596477716355;-0.6889433992422097;-0.4670289573442792;-0.6743824833918711;0.14961528771855198;0.5830526140374414;0.49469914357040917;0.08218801109789099;-0.6677321492520536;-0.48904189374286244;0.632977881884928;0.17575701256345194;0.5062260634535393;0.2417740451671071;-0.7158824382397687;0.6239175828775062;0.8013725566183566;0.19323375336917317;-0.4434785682018915;0.6243456235612275;0.8970162437943275;-0.23148228047087896;-0.6075755492720305;-0.25219933172622644;0.8950180184733364;0.8155432844172065;-0.8187818591647488;0.2535980492785378;-0.8600033342179869;0.16165393019295923;0.45884266785421124;-0.6212563328539545;0.6476501322603009;-0.14814646784157884;-0.3485540605533015;-0.3583307890842915;0.9931974460195497;0.9141411276434913;-0.4704794264975848;-0.03653203045546561;0.6388669685428214;-0.9361843279816751;-0.690669772261025;-0.40069974650089635;-0.8067299492362586;-0.40615729365196834;0.6021752424000129;-0.02059592707249133;0.5542416491474015;-0.3647531061228412;0.25259693159587376;0.6291693271210803;-0.3440260018200459;1.0297863277226842;1.001619166567935;-0.5084742484378177;-0.8054640911849715;0.43905160070772603;-0.9404866719062879;0.19555910287605074;-0.17077444721585144;-0.5314988066450828;-0.7942483209241624;0.7857530054070874;-0.56463099278654;0.4464804352312183;-0.7888365027862939;-0.29766972838414524;0.05959189197248204;-0.4607956136850455;-0.04418521932595033;-0.919204239650346;-0.8995969165172659;0.34379146033038843;-0.6140290200677211;0.49492195038121833;-0.18589595030366815;-0.524118996394149;-0.42637276105323596;0.03500915510819504;0.7418300963369907;0.9042125911265562;-0.13435133627844287;0.6740682053263539;-0.1258387600940085;0.27403300259665575;0.4509501891331018;-0.9583228475082298;0.4132355198796671;-0.4138838881620768;-0.09087983707045116;-0.001208915629949952;0.9366961803749879;0.5471228224663538;-0.33140504774078866;-0.7916123202572558;0.08437065120966952;-0.22347580063642858;-0.3896267914845101;-0.8701041573144009;0.9491261470073695;-0.3755102271939904;-0.2684039885244482;
0.44260731500436823;-0.005450076285172783;0.12710714800007805;-0.03675170759284887;-0.5447544496130176;-0.7001686180509241;-0.3118226270466853;-0.8431674260250118;0.8492996994235221;-0.13754225455929683;-0.7742545032888446;-0.5300925430203147;-0.25395973538309585;-0.8704390826523033;-0.028649008911933338;-0.9538783495153612;0.8471632102665573;0.15200941959793776;0.39934238889792906;0.403782879859022;0.7797379609678696;0.03161601068330827;-0.8041684224662906;-0.731333475797432;0.22403098768296853;0.3354388235938744;-0.4988613126744289;0.6789518118641741;0.33480389213953304;-0.49290578513413374;0.8392616983591376;0.7258066252346116;0.8956827964273971;-0.8933874632142055;-0.29400043736420195;-0.8339215229179998;0.1655616509052393;-0.26514271673307577;0.38302464520064905;-0.26483065237989023;0.3701723786009847;0.904346469078458;0.8060243948133426;-0.09371814389392455;-0.7954574317441112;0.04570272181290881;-0.2834634584004129;-0.7435904984240839;0.7314600950860789;-0.07821042757418774;-0.1380390572575623;0.6619321046203159;-0.974655251291687;0.9847859064983152;0.1571873897267528;0.22155384700293712;-0.7190716305761911;-0.3433206622169499;-0.17634114368406426;-0.42146343218843807;0.7330389302440967;0.20067101200300766;0.22986076349099682;-0.39426581865094923;-0.9197524283307038;-0.51993854846757;0.04370861914675782;-0.5872361977402543;0.4059510032738379;-0.7807189462427545;0.6764269523549021;0.8522594381489071;0.8688778521947921;0.7836462585964841;0.48886262474229136;0.16391427329414762;0.35807087453086905;0.8706037550107418;0.5656463858628501;0.6998999678072343;0.23005505398802847;0.8849278468876524;-0.6993523649486794;-0.970894295703232;-0.2926419986174093;-0.797353125966214;0.3667806433061764;0.9887470866947939;0.7892657389562466;0.024750768662308652;-0.04845467174280379;-0.4851806885238144;-0.935477213490911;-0.041242859146322065;0.22180820860248565;-0.36628835757626166;-0.7216665166022143;0.9738179961792695;0.5699390737760117;-0.36051107909391894;0.04777838839555077;-0.16981195488049466;-0.48468580701013614;0.9196288151981046;0.7675285388251388;-0.42023692172923777;0.050972987311987995;0.21742423458059193;0.027970481592409186;-0.7599131729748207;0.6009727004966803;0.7258060111751656;-0.9374903831256346;-0.5184257315589743;-0.5742453597543453;0.19439082992543255;0.3359941612423947;0.47834310000510744;0.2557511326020496;0.4390036411755323;-0.9421755614951147;0.12929942843904374;-0.4580351123568618;-0.6792601437510417;0.011419609153964583;-0.8636800830837864;0.284256293920145;-0.5149580024498557;-0.43291895803550995;0.6112551710383273;-0.623856219734258;0.5884720804236607;-0.02934633321358194;0.8757952767782178;-0.13097629109072073;-0.394761730772228;-0.49136829218883427;-0.1941836830327535;-0.3384246143308166;-0.7985520896190409;-0.7082995847542117;0.2967897410917263;-0.13816963484006867;0.5769011086119736;-0.8043173637681245;0.6855035773849173;0.8636333857957705;0.3516005518128919;-0.6743209605673042;0.4658062895386853;0.7697505153597103;-0.1544998244332052;0.3856888472769056;0.9226909625091398;0.7973809342007823;-0.4906558518962419;0.6743195138607327;0.9851907123522704;0.662637561106329;-0.5909833096344723;0.7337816148094798;-0.04136703366800395;-0.5320998721107169;-0.27512544480421647;-0.3425965126668905;-0.09775750768827479;0.18474066832111147;-0.9923084027892716;0.7853811508512526;0.01337874990583848;-0.5470121293671599;0.47188896318236945;-0.9209674808945126;-0.9152626169897551;-0.2203993167094584;-0.32426892168590865;-0.23236556592918145;-0.5760139132509197;-0.6522186233786403;-0.81453952197026;-0.7016345360013534;0.953970010115322;-0.9615532322071134;-0.04981735509956572;-0.7634381963639023;0.08936752809630491;-0.11250615551290175;0.32383575759835426;-0.27649065572829556;0.1349889699500022;0.19505569720457833;0.24240635133637475;-0.2682698834585475;-0.45483543727130527;-0.6415855227466644;-0.9830449172079143;0.6642382591181601;0.4424807091362525;0.8523505454012362;-0.6392892895283707;0.11888320095428079;0.5435320976345909;
0.7378035604786751;-0.6979396824012754;-0.4923903987519309;0.3853643217116167;-0.35228928184421937;-0.5784549600381443;-0.542331120655029;-0.5532836267145352;0.7691750652888074;0.7956647959582687;0.050518187962470096;-0.521593769772799;0.6815002561258781;0.7988658769073494;-0.38114963575619876;0.5931444228663285;0.8566312038603332;0.031436547159291985;-0.9835490726413583;0.24515554921033772;0.6770837414240622;0.4554231140796782;-0.376561161791078;0.7371380089076286;-0.9167658393213338;-0.6591352874667968;0.7853119754151053;-0.8632512493872618;0.3802846276888636;0.853476063518274;-0.3932119665548329;-0.826472678398765;-0.5843248530483246;0.06903250800994722;-0.0790123834297467;-0.503699387678384;0.3301424942963011;0.13789885926325446;-0.5339772667543219;0.906749361846939;0.21217012503509053;0.6479838856048546;-0.02989067278607874;-0.3593486765872625;-0.4639359868164949;0.8374203646947574;-0.14345400566647024;0.2366038096054723;-0.4652431332558028;0.002242805636345835;-0.4023551562519905;0.2877102939609119;-0.9980366150060718;0.8946983344574132;0.5810436340988663;-0.5635368291640694;-0.5252492388006621;-0.46942453236007636;0.3229589870998093;0.7676020322049665;-0.5324196829516682;0.926312748224228;-0.6118858413244896;0.8761098490265341;-0.7770063369372451;0.15381903049276555;0.7819611954486082;-0.9522225653662829;0.7837189655697797;0.525907743150029;-0.4597856782274899;0.27157882465943556;-0.6155215101562636;-0.4357708572796822;0.734254232740138;0.6467937606761549;0.6412787148842484;0.5677143938608972;-0.018120974452255786;-0.7797672874599998;-0.01697036643394478;-0.9149175164860701;0.4632959340792618;-0.13530486445314613;-0.3171487194522419;-0.00522155603815895;0.07693845111010567;0.657472809861037;-0.7866578365075727;0.25939611143357993;-0.7938360964002279;-0.2859002562247591;0.6862307094965101;0.851718674686327;-0.749362740869395;-0.4944097438760905;0.9278476863425297;0.8741453796252483;1.0013546198742176;0.1039491170848218;-0.6673960730239238;0.6871553120082167;0.06253090597340122;-0.41979701425332455;-0.0476607465667201;-0.9291859094691854;-0.1690741928680672;0.6278892605068104;-0.6864609220564859;0.5515050868542481;-0.8511097006510147;-0.740301570735301;-0.4310551141679699;0.01417325963813611;0.5452463902997864;0.35259235616507484;-0.5753710735378532;0.39697208595348826;0.9563289683504583;0.5555238861078209;0.04037277157095113;-0.05061174790848464;-0.0019081403359181136;-0.6464609563883443;-0.5173793125470879;0.9056956788638144;0.059491608976060276;-0.6235814253088346;-0.3645147946611006;0.8752438980190262;-0.7050436931848841;0.5057592148015199;0.04594539407522126;-0.8424608959524501;-0.9910386733994931;-0.7127255342989667;0.5155340001852735;-0.026915779973573275;-0.9583821821930121;-0.4415746899187422;0.44157157740436753;0.4014643419648185;-0.636923217823511;0.7980863154133923;-0.5664379235662981;-0.9262307017661637;0.5133128269320808;-0.7812717703898625;0.30823829079142656;-0.9885253410563875;-0.9447190912420861;0.04248336874786419;-0.3797467810070014;0.45691718641752;0.7431565235916454;0.13642964482189007;0.02001821301496748;0.0777342284559858;-0.028330292140642723;-0.4731490128525322;0.921136375242601;-0.9568223398979733;-0.5268763951099478;-0.5492427404538142;0.3662028779232992;0.8951779091627174;0.07163048287299083;-0.8369580919856837;0.590075060413898;-0.40166986821973905;0.29819377144603454;0.027125499867355823;0.12029548602835807;-0.1648609760388937;0.21116700204324218;-0.06276829714424068;0.6318686589850564;-0.15159014315552652;-0.657924995948313;0.12198572307927119;-0.1877793987315568;-0.5300657012342388;-0.1798318306415008;-0.3002528499175059;-0.7519343822438969;0.23938643414911856;-0.35241672057740175;-0.8349678285648646;-0.7258064968232487;-0.4891696369077274;0.3266700726260818;-0.9518195391599054;-0.005611487511363089;0.8466517812901008;0.8511627481667587;-0.029953946792852647;-0.4083981738974516;-0.010455024154067254;-0.01948817967840596;0.9177541758869686;0.0176876575016381;0.4886691856046669;
0.3469975790682332;-0.8654297530440295;0.05158425786573595;-0.06875121100829547;-0.029233389289878363;-0.4942032361351583;-0.7998754157244901;-0.4452224105127433;-0.7793579698101404;0.732832848941534;-0.15192802376482306;0.3921764204637643;-0.5670595917575163;-0.6793485180514196;0.3380782271082057;0.7053699394066242;-0.04731354567192155;0.3422397605380113;0.473841806521234;-0.9260520813278503;-0.8909319032903483;0.6010603939585364;-0.20993205113190747;0.7304475763252519;0.2576200386617186;-0.6163513658124753;-0.2326109603831304;0.16914633035395432;-0.6169930164870829;0.6861424601031684;0.10143173371027091;-0.002741090548483208;-0.3354751550426199;-0.9756655653009438;0.33919769299389546;0.14105003114378514;-0.8347193473231737;0.43071983213582926;0.2585043596749149;-0.0019330100778806626;-0.5212453115091137;-0.06709837286693758;-0.5981531455208232;-0.19361333876267334;-0.3431252044922497;-0.26385575229364305;0.20004889828306052;-0.3820493295267233;0.2687753243988352;-0.004900700499682761;0.5729264918720236;-0.14100820161557792;0.055145891175130045;-0.8129578753679721;0.01405658051334648;0.07842913100405487;-0.846084160264987;0.20897370563729029;0.2950794449130151;-0.5962659158059617;-0.8222278907508234;0.35770305152747767;-0.7281809651798874;-0.20524831931729914;-0.7274540176799402;0.38723769708877803;0.006345490012302842;-0.3986246975061658;-0.6280987644304792;0.5531046382742356;0.3805108702378878;0.08327889905893233;-0.2434528114399925;0.09600869490625755;0.29602520721823766;0.9769476604103262;-0.9006928914409918;-0.5740469771032509;0.5620167884590902;0.8662728510253821;0.7745281497002124;0.0345977661224665;0.9337092295326787;-0.7551681281582289;-0.12734066767519509;-0.9555591195474974;0.36224703429808686;-0.1270187164855745;-0.1851277634835338;0.9122278721487079;-0.035523874082051425;0.3708468312214786;-0.8899137697380165;-0.5093718066210294;0.7904341404870462;0.7851328381544865;0.040168407674124475;-0.14849723776555676;0.9636093618585572;-0.29481321285947465;-0.919440988466987;0.25197265869171825;0.7550213452547523;0.7246906898586164;-0.5969097009096188;0.702036022249243;0.7721431683994243;0.06731542176293265;-0.7393880977698388;0.3690952464012102;0.9143217483250552;0.5559029575968528;0.344104950845965;-0.06540592010412052;-0.24831854315305457;0.8304463592042803;0.35456280267276286;0.07701254957493373;-0.6660414239309417;0.2285504528852619;0.009225312196126392;-0.12111190172079044;-0.26976337145186563;0.9250363289916892;-0.2914465567069562;-0.29985137513876603;0.43682230183412174;0.39156345595262415;-0.8925009134300329;-0.010961052172354095;0.7848474110609198;0.6141610496733554;-0.506336820207252;0.1299802391554599;0.8871035506697518;-0.5997553529705721;-0.3332116525529192;0.29099854376900264;0.02427569286834584;-0.48551054608635213;0.7557061156321456;0.7029868230033504;0.12060538117637638;0.5210537138600616;0.1740483049425118;0.2063353546826252;-0.12278190266419536;-0.06633908149618885;-0.286251456484166;-0.6786945956351138;-0.9824805188615786;-0.13920391920599748;0.5031907586679661;-0.2865958872344016;0.30695844888458296;0.21008645070321122;-0.28036836525886605;0.011520970652524441;0.7156625883552774;-0.12491678308207518;0.22928264782647334;0.13568033618898437;-0.9831469744935243;-0.6661782391492291;0.43919496735256397;0.21042904358691403;0.4567053851539287;0.12191377457471039;0.9651080231883256;0.3966520825687527;1.1051591455718779;0.897390165771887;-0.3031100926568483;0.6619221970376835;0.3413288458548152;0.36492246916799514;0.7215028671372283;0.9287767220877062;-0.751065773856801;-0.3265049131741189;-0.9011844897242014;-0.6174682537232671;-0.49715946468942734;0.7811115854773257;-0.23618598037460115;0.03277442079785143;-0.6636033300603561;0.5579860356245676;-0.3948470910402;-0.251918149545253;0.16613096714951073;0.37970354173317344;0.6055575718742123;-0.3965348143256113;0.22178364345412444;-0.8934835028017476;-0.7147499413410383;-0.6346357483576133;-0.36468265896247987;0.7430000841887313;0.521506384569779;-0.7110428789955846;
0.6907096405554025;-0.5142925225566973;0.06893204991432222;-0.6860341999179066;-0.8577588896075375;-0.8915867425439807;0.39794987703169427;0.6230608177237104;0.4191164873703125;-0.2891926269441653;-0.6702783296223658;-0.2658457321885516;0.7791129096990568;-0.7238019892962618;0.16016444946555164;0.44824816440751303;0.6227183694137239;-0.4095186361864335;-0.9054498470178574;0.9801907348296298;0.5897081080562384;0.23709476997977452;0.6340699765000869;0.9825979359193886;0.4628705971291634;0.8999574219909625;0.0956112926504868;-0.050219680080734505;-0.3277625990337012;0.349204445164818;0.7632260051175525;0.22658964652665092;-0.46917123990891324;0.8156339370931637;-0.18792004402945475;0.2996159942451057;0.5802039331434875;0.16188055208474264;0.5463615270134101;0.6794879435404375;-0.03286796986141257;-0.1071961400444859;-0.46165734729835084;-0.3110801881363317;0.21664989784396602;0.17447695004592842;-0.9153714791185621;-0.676774621318364;-0.16700136678360375;0.9642501095122711;0.07715141574167889;-0.4827797426802597;1.0015889137648057;0.21644050108921556;-0.9728078997718292;0.0604208749859368;0.8242476465874463;-0.2925528449204401;-0.6323711582799744;0.42171494450863334;0.35087915669034475;-0.41373698726428315;0.028737606598730325;0.02827117502013804;0.05822043776393249;-0.8071454854222523;-0.19262606092338302;0.8749176769900396;0.4417386107834015;-0.8331828272079952;0.2362769620802021;0.32415953817126514;0.8903136434013259;0.5437829605608447;-0.21846162386611978;-0.13074812942620548;0.20548116582944073;-0.14310342088615285;0.09339762815662621;0.48541718719283605;0.14466078643493024;0.7636032546104885;0.06896783853891085;-0.41710191596807317;-0.4649926856706747;-0.6442604189767591;-0.8325487825590105;-0.4547126393932859;-0.14735935637308525;-0.6181239175112225;0.47780985293388323;0.9553895251350034;0.1501283739706425;0.6603383909816946;0.9531545677025383;-0.112084582949069;1.019800677256245;-0.20906189646680773;0.5872910344820169;-0.9255963058226463;0.7886846069822878;-0.9098188302896499;0.6119018416876679;-0.533454224308877;0.3725018242904;0.5040003434234306;-0.1511894782266072;0.827030313761817;-0.9618133228149257;0.5909167619688184;-0.5664978193441006;-0.3030946526536059;0.056139461931666385;-0.7401529128859142;-0.6876516028297396;0.4608750794279761;-0.235425908636843;-0.10444437875458662;0.7860229051732077;0.9801358262799651;0.8805824120328288;0.24683816611913922;0.30970564742585527;0.3541634937775744;-0.4790137021472872;-0.13335931233937773;0.3019101523317643;-0.45559961271442045;0.2204918773182645;-0.46901723223071684;0.14354619610139796;0.11887985560512263;-0.25687693899851205;0.6115180606656454;-0.04413776219073994;0.22320772124367042;0.4105151817985632;0.6924166848277562;0.7947690187872415;0.8350889044425973;1.0228146974238963;-0.18806949655292085;0.2164675441433912;-0.544220414344034;-0.385648267089163;-0.3901200434870656;-0.07824356296043346;-0.039504866452663955;0.4934053273018972;0.32728164789282005;0.031245311067863324;0.7551032020041889;0.5016433947386459;-0.288112421292173;-0.9900729549217094;-0.6379135252691487;-0.23904724562871707;0.013027393745045015;-0.9345429595040937;0.883061322981785;0.02974627010436329;0.2405568838550845;-0.15114983403252316;0.4047781747630093;0.5445823186386215;-0.40043790857433964;0.2400358040471532;-0.5297350058955544;0.1165004954491743;0.22278739979061726;0.7858493248154605;-0.28696466160088446;0.8971082588285985;-0.6971656412542254;-0.6642155562101183;0.3257303797027;0.5725780460389099;-0.7044637838284423;0.8656456271085745;0.831941147578001;0.5986476709994097;-0.058470816244243246;0.39969750611103977;-0.40917385650339194;0.6207345720885142;-0.7547311086553085;-0.6600993213224359;0.7865022299900386;0.03217142299358011;0.6598992055983184;0.22530863544691218;0.7902955114096594;-0.15866201929529944;-0.37899555646837296;0.6344290315863741;-0.8055277913062182;-0.31766777046017025;0.10981862316476444;-0.0868717680099291;-0.7270402072003603;0.5246275540653933;-0.4745968945079777;
