0.2754265407804555;0.9001657223248338;-0.25446361945190277;-0.13228778481617365;0.23451000079313422;-0.9049879883326457;0.21757831280369277;0.7944369443646961;-0.8909698799762162;0.42167603906995543;-0.7458382106534869;0.6026631573771317;-0.3978004211321289;-0.615898882498354;0.720249417161581;-0.074089915423323;-0.35142530745885114;0.2531761401845949;0.3768769585010747;-0.9881305730763197;
-0.1543325920640004;0.6802211383185979;-0.33305724299373796;0.006443420334129701;-0.8139392541338557;-0.600971560118315;0.9118572949819879;-0.727024255287329;0.27361287010280244;-0.5970710366555971;-0.38448896639027175;-0.9183357396836389;-0.9162337608965196;0.406986777114678;-0.020944130667038596;0.15201671126309635;-0.5075407075026452;-0.051676229002547425;-0.8533034185517132;-0.4616553137462627;
0.12361817769166361;-0.20469074909649065;-0.1391459788007645;0.6381023079366537;0.6268508845242058;0.33980497099898943;-0.704870916766767;0.22192213278741613;-0.8329694532519725;-0.37404073896296675;-0.260096307955231;-0.6295270269517934;0.6319493257605373;0.6183859587324883;0.02094755019151573;-0.7675380598439923;0.9102071565263796;-0.2375323259514759;-0.769452459056257;-0.2850217396125765;
-0.6941671221517651;0.7088846943201732;0.8704665652022661;-0.6633052087235034;-0.7324745272164126;-0.12487796092637726;0.5615394353069352;0.5814409092019297;-0.8105853567516048;-0.9938500619290698;0.1010618747998544;0.8685168487793178;-0.4996109846725072;0.10446789338039553;-0.24393486570385337;0.7323161824839985;-0.653881526321517;0.24144320782523554;0.7370112816340506;0.634473319914203;
-0.22793996125233584;-0.701761389019123;-0.25105961599087245;-0.8786977229698139;-0.14260821448299255;-0.5927288910789263;0.10118651314181504;-0.6079754318645654;0.8825818678012229;-0.596882191416058;-0.5497467390548478;0.5633147132177134;-0.6298263293151294;0.7558214972702955;0.22785457091267247;-0.8463910121622107;-0.12045114726012729;0.0649951153124475;0.5033469179949226;0.44167712781018054;
