-0.8569392449716103;-0.5452629592344509;-0.0021030957514242402;-0.3929783139745981;0.8051763639403761;-0.0842387793803419;0.7587647633727943;-0.7192779890368743;0.10418242958625304;-0.8996591009748032;-1.171177000901043;0.3466901410946254;-0.3340326117193304;0.341875810879717;0.5278734160731919;-0.5650405398298732;0.31440102607341863;-0.5618461725081779;-0.8931504235168188;-0.19361138215993448;0.4112107592028127;0.22963401745727458;0.03173474660135808;-0.8304644430309255;1.109505681547241;-0.01787174082469;0.324720392010875;0.802537795467981;0.2466646607595375;-1.025017015049709;-1.123822529679825;-0.1487085301794234;0.7669652272178166;0.29729791454815935;0.9788616475469888;0.6647135426702431;0.28207962846737117;0.7222252101954417;1.0658149749366226;-0.7984028679258798;1.072098954225429;0.8185360273824801;-0.20670665721881207;0.7762937147182767;1.0128988251285331;0.09562925260193027;-0.6817269385715391;0.23050764061029427;0.8231024314059797;-0.03254285058082085;0.31129122590684444;0.39257310983911003;0.42142902574280316;0.2959174824360606;0.7033295577096966;-0.5036898645426354;-0.7536604660187932;-0.6900702598889208;0.24429656099217315;-0.937518009830698;0.04359993643048449;-0.5923025321572642;-1.15445971125079;-0.5487547809243851;0.04406885564339353;0.9714319080816683;-0.36116855959744104;0.6283347770751607;-0.12916516809322579;-0.3471906682420906;-0.13590487833890533;-0.08636361112294355;0.844196445886201;0.4747857815154717;0.6931019955066179;-0.5437006787602968;-0.40309431834674697;0.513395162455852;0.7958127924267016;-0.5946873782201879;-0.21240636968704826;1.0538871404849786;-0.10118013518874686;0.9147959518103442;0.7791208437917602;-0.7071077898911631;1.0089691699605718;-0.23633735608462803;1.148626561283285;0.48308525013281306;-0.3252007555681495;-0.3988516163154579;-0.3521610156493034;-0.43213924134511467;0.5297159947591406;-0.8234078999703802;-0.41896242991734606;-0.4390688482614892;1.286323735745181;0.9502174360811341;0.9673147459643634;-0.43361977038252947;0.912950153530444;0.4588170990565021;0.7340341366010211;0.25003202816311276;-0.6334847139931404;0.3169975705460714;0.27974920301652995;0.5216456374030569;-0.16571075122833617;0.0653295857043945;0.8657785952260111;0.6223916844687418;0.10186912834839543;1.0369697065575003;1.1344855527060693;-0.6884904800653379;-0.42291819721321333;-0.09574579210370435;0.5224414685091575;0.43274384979889563;-0.7987525105512556;-0.4090709999305633;0.9282203595661318;-0.17908373043979897;0.08643600629227513;0.4241640548192298;-0.4817615887690004;-0.7887558322850304;-0.585443989010935;-0.5461354652303007;-0.11516108631357025;0.15462307679562068;-0.7998532800817795;0.12235589653479062;-0.21761432248695367;-0.9133875624887182;1.2897764271659822;0.036305949943280826;0.4455356164690563;-0.6798656226641911;0.9183855179839585;1.176224836999522;0.5284305720236677;-0.34347768783055055;-0.39556650779321;0.4566880714890728;-0.38777999660456824;-0.05060684515956638;-1.0817317872050138;0.346482868886046;0.14389830756695524;1.310615662010139;-0.7569350622607518;-0.44973438743522365;0.2462040305164312;0.97714172230297;-0.08910984947916935;-0.9239783933114563;0.7291703094747298;0.18694515724796276;-1.0906730359776224;0.9741743934980855;-0.028827369058487002;-0.5971752770288249;-0.8883844566442338;-0.138199734700651;-0.8920058810369589;-0.33935509228721233;-0.05135413039208519;-0.3087048709503411;-0.09490034856902756;1.1615205109834106;1.0836491009996025;0.7581044722971291;1.0051370409586196;-0.2801936406342583;0.5649552321864783;-1.0363804170453499;-0.8784495220364491;0.8991345440017611;0.05163817810941254;-0.9197455447616965;0.06135103155504487;-0.6227825774533361;-0.9509876929238338;0.23435195061220218;-0.920708548505051;0.20824263196084591;-1.1583216635284173;-0.8146482965800608;-0.9448753974612055;-0.6073351299942013;0.0566903768846528;0.06902827410455321;-0.0774584998118735;-0.4730498314713649;0.6381765210412111;0.6814281314044337;0.7717827893754579;-0.3915278370633284;
