-0.829471253800938;-0.7162204082790504;0.11625311902626732;-0.21783046740768702;0.806672843983078;-0.18800733580482665;0.8122836825196185;-0.6475966889845578;0.14974688248850532;-0.7925032376422686;-0.9752547572325762;0.23224005278641427;-0.47067626914431715;0.038408060973531215;0.4426826094596921;-0.4937341539035364;0.22571960216943937;-0.4049926864601449;-0.9115862518315759;-0.13747258571598786;0.44598504556811897;0.07893353109360286;-0.0697293105041016;-0.6582804568360067;0.9575897982639962;-0.12799426346242793;0.2984634393939758;0.6874872740019033;0.16976474998011704;-0.8737103758279288;-0.907315288641724;-0.2142057289688564;0.6767477246946378;0.2641413552801202;1.0135516160768616;0.6079081449234336;0.2028076807058751;0.6435047379326075;0.9367070325142217;-0.6516832681924314;0.9771256245382178;0.8454648812329792;-0.2726324665368269;0.5888958673439708;0.9497304472745107;0.09526703546653381;-0.6315957455164921;0.2067280411865516;0.5912221202703539;0.005805083057432936;0.22926185725839351;0.4011491169352894;0.3206472493753049;0.1636789997270477;0.5990899965584731;-0.26771407919417356;-0.6526207965372808;-0.839625732651687;0.22396904849948604;-0.7632544072486509;-0.08013870402037053;-0.5569515561401783;-0.9345337124572806;-0.6968265508070772;-0.022575409423099185;1.0232997706284193;-0.05172385564968232;0.4523532704012573;0.05151416340660578;-0.3902543170204095;-0.15408668829859232;-0.21582291064019937;0.8735412815480529;0.47711972866357943;0.38556724305870843;-0.4698450537725404;-0.3939386351667623;0.37365290246282995;0.5968853496823244;-0.5626988357536036;-0.15158043070624616;1.014656503074587;-0.13360974106141257;0.722523903641528;0.8857544851244574;-0.7604994695150663;0.8910747751629688;-0.356757348475136;0.9596570238421308;0.47598621578293077;-0.2507496174659101;-0.4532139049618234;-0.40327185553092126;-0.47872692797098626;0.5671217037329092;-0.8084857384430234;-0.4000286491517828;-0.5094046747018645;1.0002148526663301;0.8141856110734061;0.9988782156482332;-0.2857088396260389;0.725223088106128;0.5351958706378735;0.8003514098679655;0.16555274215199073;-0.5110958764954797;0.34486816657407576;0.2436850736102669;0.2544528151564413;-0.3024399277341245;0.08933151422022305;0.8810797498863243;0.47013714556933894;0.017527824745955402;0.8502538305843359;0.9279225959236587;-0.7080617248113803;-0.3544998725308053;-0.16154522718101455;0.35758305400591495;0.42655605742346103;-0.65835113760044;-0.5175447320139113;0.8601548225557237;-0.1657622177223509;0.056680681255453245;0.253388858967418;-0.4700873623429357;-0.8689732246286339;-0.6209644277025977;-0.6456246026626788;-0.2313621695044289;-0.01362374429321728;-0.6852240647733105;0.11520963467332328;-0.2520711086328852;-0.8615668205725399;0.9951746411405914;0.038577909763698216;0.4604609769210839;-0.6404411925257548;0.9159440119352604;0.8476485910532773;0.4985241531248139;-0.3389747615320461;-0.6148107658511882;0.2860985491236956;-0.4399548537486156;0.05018468121805996;-0.9756202765581106;0.22466852379812208;0.19606318582945378;0.9285095554610202;-0.66277143450523;-0.4556651319069048;0.21742417442720882;0.8646648453811292;-0.031486687537655655;-0.7136188672032041;0.5111601283039996;0.1740077682584563;-0.9587710184102148;0.7806214918276668;-0.06589045776907855;-0.48823053468419103;-0.8044804113798574;-0.14103553015480008;-0.9362325419421961;-0.4530257190672499;-0.03443896958526638;-0.1719342937251921;0.018630587830367428;0.9116240962811443;1.0127701373889724;0.6538402284134797;0.9505576888875327;-0.228195373658255;0.6181947451200313;-0.941264707782063;-0.774750476512695;0.8818099903569251;-0.018857727835747917;-0.8249376899286172;-0.1365276569315908;-0.6514460512170361;-0.80461968972032;0.3253569401539563;-0.7959018772471047;0.14513581902052997;-0.9521419740354127;-0.7500817899857442;-0.9003448145436999;-0.5646044589670458;0.06915447981507325;0.15378255291132878;-0.09303632905530576;-0.28454497065452555;0.6712792300179572;0.653161759327965;0.7319006228705316;-0.533611401386318;
