-0.6498576542040305;-0.13088638565523558;-0.2140258514343898;0.9653995203342132;0.5917579496131989;0.652142984539533;-0.2706921107070446;0.0356468046845578;0.12394210035462559;-0.8805923478761049;0.42355473107947783;0.8538010052670172;0.06559731399292783;-0.673541967670243;-0.5047459106762151;0.35109107135607126;-0.5423334500357821;0.9464974375296796;-0.2514035321693737;-0.9781215633840502;-0.5163076017923798;0.244207076423257;-0.8031919855259373;-0.4105195497014533;-0.7482567192713645;0.09749561256593942;0.2657357181734555;-0.47961506080893146;-0.17547161021067886;0.782848266750809;0.7951118947652946;0.4237663280676266;0.44224960308043737;0.07754363866500613;0.6039606410713185;-0.9716479056400698;-0.9350913444610648;-0.5926768606088668;-0.4549359839015726;0.2942234025846451;-0.6381682052802523;0.7655202785808991;-0.05727821648768552;-0.5213490471146163;0.5140962362484643;0.8454235404236556;-0.7504743368656169;-0.20324490750574242;0.2890979963419179;0.5913170327770223;0.6441505736013446;-0.6107081254105731;0.4062848677221753;-0.17783278411604497;0.6951789822295948;0.7538095221258357;-0.9760485812900777;-0.014472510560972873;-0.6262444089030803;-0.8849957485650707;0.1424937189386693;0.3976935014038613;-0.7623826839869283;-0.37417847310252067;0.20089775786880987;0.8924355237870822;0.9103164550782705;0.7027742014787697;-0.9114813600603436;-0.7895606761116123;0.44845386508950874;-0.8241711699499048;0.1600515317393332;-0.06353350874887359;0.999108978720135;-0.06720711323899042;0.263741407117143;-0.9924383842775812;-0.6364613834027274;-0.9266804271415897;0.3196737220619635;0.12163624411555393;0.8810351011832196;0.19132104330747937;0.909891111996946;0.42834979845450216;-0.26902231039867275;0.18454909619623705;0.4557919478026872;0.9296157038592707;-1.0011198010705376;0.8344792680414378;0.6191404250452435;0.16909178521399482;-0.5384089756174701;-0.6492433103601143;0.531015562816506;-0.7904316129467353;0.3802490238078792;-0.9642393784486759;0.6961794807595976;-0.5381366247452228;-0.3568669026892723;0.1928918940653627;0.3790119229263515;-0.5634588069059739;0.44752653707880846;0.004091795718100366;-0.8295745018615637;0.042984373927114294;0.16778800128036658;0.9514689694681199;0.48173884292577474;0.9789351582465001;-0.6859044123379033;0.4646313318252351;0.9746443247070794;0.31526158274982324;-0.453340992904229;-0.48201683650056765;-0.41939217426975184;-0.420619354246791;-0.3070448216006467;0.46852400765234764;0.747452364956552;-0.37519363747874074;-0.02689599987693561;-0.12053708851163537;-0.25808081112062486;-0.5653659189281636;0.824409745467251;0.2437327396906901;0.7104805703197086;0.020676401413828756;-0.39469987649422533;0.7455877834413689;0.6482949207330008;-0.4070863902735917;-0.6258189886546318;-0.18973438735848525;0.9165503511328168;-0.11318955745461282;0.850678888547943;-0.27430733838216165;-0.4642153456867741;0.46364610752585156;-0.6492245153404946;-0.07563176347440527;0.9656555089124487;-0.17940981126694866;0.6786889880620076;0.554011346119142;-0.46343106074123697;-0.11720576447032595;-0.4785971396703664;-0.7644328629803079;-0.43169883792584224;-0.6580007336631815;-0.9337599353078487;-0.4749888994261911;0.3402835355801729;-0.2671554787650718;-0.08488266133896663;-0.3946921795669693;-0.392858425323321;-0.5171813766153015;0.40428674307886503;-0.9546531889947578;-0.6211570804300659;-0.11557381983540674;-0.2409676254675066;0.29226968513099916;-0.268372689490365;0.5533749586434343;0.7574227152925025;-0.8807156113538409;-0.6290724616891489;-0.4386137406343902;-0.8375974865375616;0.24258040871183967;0.7976614832418469;0.2114133915118069;-0.34379048814906193;0.7295974701349537;-0.2602073244857661;-0.6133375146007356;-0.6731341975528233;-0.5182745920527847;0.25378131740448584;0.1633942811548785;-0.10450753019741539;0.5426288988645971;-0.8518379152882585;0.3011310425001039;0.996096075481523;0.9940335606874202;-0.049069037506254576;-0.04570463228630825;-0.8816908244273117;-0.4615866053382405;0.13073917501898238;0.7267135048916931;
-0.7724966539769538;-0.06610677445449542;0.22700418881297835;0.8138607103333697;0.920647201626153;-0.45187926662058286;0.6455890553662638;-0.7816124532741192;0.9226359714215479;0.08382991297020159;0.6224335141312187;-0.7658713644338371;0.2979966202570998;0.9525368348402603;-0.7372425169201782;0.14244115228638699;0.09659196521355537;0.5185438484219916;0.3443535645860174;0.19782804182586647;-0.27849462920506407;0.26292919258173536;0.9780181302087089;0.19554529379388108;0.3512324125960959;-0.49481663508398954;-0.008040764324451376;-0.6035290129512679;0.24913147236583344;-0.6812021944512621;0.9033225692783913;-0.8284328415353902;0.032937969826097376;0.07216892281135134;-0.3893934635753995;0.8415978794585974;0.6948160108796181;0.08659213701092261;0.1313457359406163;-0.3343020980049972;0.5927836682072731;-0.04409464998284949;0.06518532292834907;0.78113369880783;-0.7990463232559671;0.10500821013451689;-0.13178421731122622;0.17073483025267067;0.44244922429172723;-0.40631938134970746;-0.08623377173601607;-0.12222229590922096;0.2073457320006836;-0.4779111128652185;-0.5199839342373886;0.005831557062399919;-0.38179362869159733;0.790630362992039;-0.09662886676138338;0.7708771463802127;0.13613423558235493;-0.4816463781443462;0.37375734403512867;0.4404284377455798;0.7984480639927518;0.9851208737048321;0.5455749912702453;-0.8952118359218277;-0.42536022640817067;0.9439927184729322;0.8210363093844932;-0.21603033368780017;0.43017555092148235;0.5212354929611159;0.0028879213418518384;0.8428989876008455;0.21604459107434096;0.8578779342945406;0.8047157066993531;0.6303438770292225;0.7541917369594292;0.8786517010050526;-0.5040848420765109;-0.43833185244362805;0.7607256985406924;0.3223858975320132;0.3334478826408118;0.2238828581742094;-0.9024884600153462;-0.43797357270338466;-0.5242560162280355;0.15408142043851275;0.02445838811659412;-0.7458602669884449;-0.8379233524364;0.4434314722998629;-0.9770178710532359;0.8877160121280293;-0.329669467206452;-0.28369484002973644;0.21194901006393932;-0.856894986386831;0.5463157944432633;0.6406436688064168;0.9165916209451992;-0.9317637138675454;0.18094487248169053;-0.8188784386837309;0.4944395939219726;0.3801737479267017;-0.042359172588530745;0.25983276679182316;0.5301086165559342;-0.4858769467959041;-0.20933449766829978;-0.8127580946904347;-0.20000942584433756;-0.28511315777126506;-0.9137012135455614;-0.25086213355568804;-0.013203271469175194;-0.1472797698531555;0.1522260060578847;-0.25748663019205403;-0.7311381787850576;-0.5583050521524794;0.6408179990103182;0.06754829097829736;0.6336332130269398;0.3221279731635024;-0.17846308810479214;0.131212294187949;-0.44935476696081794;-0.40268644803918197;0.5013369977445583;-0.008886552335455903;0.9669248875657961;0.45886112436600257;0.5580151794432641;-0.5955030895368008;-0.44431823541114607;0.9127038737169841;-0.10428858403208334;-0.41917510213250025;0.8358913862361359;0.6416374003351355;0.1174873256540517;0.43202132039650837;-0.34986869738784204;-0.20685849048468374;0.8443760541566413;-0.7311797425581501;0.905902973240899;0.6622150956898522;-0.36271115188014347;-0.45399787570823347;0.7886695289156326;0.7304835295881266;-0.02433881679723546;0.9982646144981946;0.34778241895967416;-0.21841286402743063;-0.7062783294669883;0.473965020588852;0.7622461361300634;0.1029190518846849;-0.7775406928550379;0.044599840475972;-0.5530395439759921;-0.23809573623700553;0.632690849823789;-0.1512910388863068;0.917930789491361;0.6435538825741904;-0.7542146376320571;-0.4821723515984295;0.5926042792687328;0.3726285454635948;0.8191014109828666;-0.05846807282386615;-0.9099148290409811;0.7156022866644619;0.03426524132714223;0.10191100864483828;-0.7017085868802304;0.07609921876940703;0.48334799816874197;-0.8698810140167691;0.6976330549899661;-0.1289681943690066;0.028887620468131082;0.9071872640460019;0.865563090441529;-0.3498989578143595;0.3284907944443095;0.15633608707789395;0.1584683938346454;0.7740476058582147;0.9393723413436851;-0.6655112096943594;0.0047668152967995136;0.0758418341508507;
0.6239811292224532;-0.5933078838953514;-0.0461287965527466;0.7613438244644547;-0.6941903008323936;-0.8967490453714075;-0.9540845372329765;-0.09587071515792975;0.98297830967222;-0.678018912742562;0.7070893104781906;0.41729832849904386;-0.8444138760552204;-0.23307076585724396;-0.7996055306038237;0.6566939162518166;-0.12778645715500211;-0.5823235077847079;-0.9118331554323253;0.6155092713296418;0.5964377571978496;0.7407183536366952;-0.8486300556312162;0.9562109878076639;-0.6661162786196707;0.3251078454056371;0.4493888942602866;0.4094041659676654;0.23805925413549178;-0.4866131837412422;0.2541425958746418;0.426988131920888;-0.011632606186314818;-0.3514111881538986;0.8896755405501598;0.6048748869746498;0.17318874160374742;-0.07145210047630846;0.6123489259733795;-0.9719969196962082;-0.2860568395137556;0.19730601776976803;0.933687193415152;-0.3073142854969446;0.8267549707093358;0.8253857838208751;0.06986625853268036;0.28338885136762904;-0.697026110787598;-0.7605304582679651;0.2635040597826149;0.9550304505300133;-0.16287993131315012;0.49616639053833955;-0.5874283402891698;0.2479245047054053;-0.8098682589751319;-0.34754326116877343;0.8055065083968866;-0.12474639302522478;-0.29490705691105745;-0.36269802515763544;0.8149105271102107;-0.2740708826707997;-0.9024669616257789;-0.9865211194318741;0.10010355453654173;-0.2673278383873291;0.2385889066742602;-0.3824923958269796;-0.8218996956175836;0.7605885223285057;-0.7179609474378371;-0.363723601522442;0.5553222134594518;0.20340362954049418;-0.34225785043201346;-0.5674219571868055;-0.46944303589131003;0.8642985040073972;0.9097502898845087;0.5297964860481764;-0.2829110099274943;-0.46319696716179454;-0.9827890638502496;-0.42523997049726847;-0.6872976298259942;0.7763732654288402;0.3839494931558892;-0.6490538863518058;-0.7270025430090291;-0.2821565028104892;-0.9149269884124744;0.9713880815443048;-0.864068233570813;0.6135436950467643;0.08972795302406153;0.7851926343044207;-0.6734127819031475;-0.2355479559550316;-0.7391945186530118;0.04901565777079992;-0.7349990003416625;0.5065455476996665;-0.17324524504469563;0.02263374413421949;-0.7139536567864472;-0.12924398425727035;0.5412413293660208;-0.3506033450035889;-0.5605947324551949;-0.12447589880882301;-0.4395289690881071;-0.5048414556185173;-0.1094721907618292;0.935624163545409;-0.046940200513018566;0.6970646637286666;-0.9743367673286999;-0.19180884268644469;-0.031108831080083398;-0.889736555111754;0.9531680640859446;0.7541563273138419;0.531552121606578;0.26004000398662813;0.3399672237076199;-0.8234303753235113;-0.5688410452915411;0.24892560053511148;-0.3776185544304565;0.42504647638349713;-0.017229885134246992;0.6721095777949997;0.011836183237416696;-0.5856848680442289;-0.4456999808642861;-0.8913310314542779;-0.5002683622750074;-0.004274642650920302;-0.734642705089119;0.8717705431538594;-0.6381873705535217;-0.5270170371455851;0.5822877107980861;0.07455832464264242;0.19388270753329112;-0.1270265049833417;-0.06123140849667613;-0.2174679837931639;0.7980531304873679;0.9793948977966753;0.7115656490174413;-0.6463261152520942;-0.6769644743663042;-0.5655240020266898;-0.7550644406761406;-0.7941155634655462;-0.24298736821021943;0.6229245676964525;-0.11903625037506621;0.24920442193623177;0.45696649349409096;0.017787088311995276;0.4412404807429016;-0.9855138938236647;0.18260626178645853;0.999325834596115;-0.4966497068766612;-0.35396999954478225;-0.7532371859713071;0.1698457208726898;0.22087428905568962;-0.4628475666605537;0.3951570666262297;-0.992972483398732;-0.1959550727330146;-0.7904982580278908;-0.6040523577406297;0.2362616795900829;0.9281757885056654;-0.5001389348055502;-0.196099792467609;-0.9350317373980377;-0.8553879048130335;0.9751535422911335;0.9569191909531439;-0.6087688581725018;0.6723424410729244;0.6067518744143731;0.34527053036202004;-0.7736969054171314;-0.20439933623755513;0.6365849171373957;-0.6156472540229236;-0.6569133804342299;0.4174894629957131;0.27356902073400363;0.24547650797506698;-0.5097981585534759;-0.36943360652731466;-0.2445920325151128;
0.4613497684763532;0.02250911568453451;-0.9207913475893572;0.30442777748072414;0.3034634093269869;0.4290579241289174;-0.13043409564199204;0.7956489240694025;-0.04281852931271079;-0.8750353224906771;0.5026565455921341;0.7043078808886827;-0.05896790226112615;0.4852186689534972;-0.15903394326079656;0.11459568366547575;-0.36844930073318405;0.1672707923658584;0.4731078429693203;-0.09939458668932627;0.5891410097582365;-0.12124849872490669;-0.8795827055020611;-0.5929169974064292;-0.8708460807745771;0.23152039614013176;-0.8384789539549314;0.9424692286602055;0.13410811466319597;-0.001776604367100143;0.3428217127358847;-0.9651712115852673;-1.0112833749616985;0.9035354278954162;-0.08441719140605905;0.25048885792193326;-0.08251243229987683;0.6924936585978438;0.8520569224023649;-0.7198859724618147;-0.6377427109683438;-0.9207446636921865;-0.5836062302986876;-0.8112530470393561;-0.73577494135201;-0.8326500786753095;-0.6113893774434165;0.7583272818125851;-0.7495662189740614;-0.5469503619999796;0.6900763047548478;-0.041625088986402936;-1.0266574990444644;-0.13517303519353785;-0.6087652427387152;-0.3830317943973843;0.7633963364313987;-0.10688618304674558;-0.7598834801959923;-0.9475659269180629;-0.5026482389583558;0.33634350680213804;0.5781745905961337;0.8493424546833671;0.7137697502885254;0.9756956282787397;-0.6871921542968027;0.9911013686954886;0.19212839940106893;-0.40254450416173976;-0.004134371987335518;0.7883767384816284;0.45773037330923844;0.14774469718955624;0.4486400721849969;0.026774757848138098;0.6412365088132201;0.11658239849703467;0.6980812610218159;0.5127283854762219;0.11137458902832596;-0.13814996741128585;-0.3995609791542252;0.7514012826908901;-0.05981134348789163;-0.17607922735434753;0.33236834164608264;-0.9632399759787686;0.5429416589543354;0.4437940955224331;0.31516062218138435;-0.2719545744981454;0.19997149367495953;-0.11490564075247733;0.1195955167550713;0.38444040467648466;-0.9452833465496068;0.34250671872724103;0.03903914391530985;0.9390468219082367;-0.5221802937780865;-0.10953072900402752;-0.251721595873898;-0.547124619084984;-0.17139062135397207;0.5047284135187332;-0.526806457726627;0.4933126920476003;0.37407720050842813;0.06701475161975518;-0.980771624555513;0.5431208639779569;-0.9187700155213246;0.9500804818971964;0.589292987077418;-0.9530699738890975;0.20095439796262785;-0.3980318081812516;0.36303990355802285;-0.8586142149736002;0.6613044171483597;0.9125548547820072;-0.6692291155801966;0.13920334434790715;0.8700945900711021;-0.35474237577217194;-0.7704196564549304;0.18809065092455435;-0.7719709366888529;0.157124188136264;-0.8164564871549514;0.1327531738735488;0.47958608976577427;0.8240545534088428;-0.08129145975677747;0.24915605437418165;-0.29854344749931233;0.8492233927479576;0.3984309193311703;0.43140430029061877;-0.9894266434569862;-0.9749101921366209;0.5738811111275604;0.7404491527118241;0.47418293646224496;-0.010255184562945155;0.9274371203206141;0.32798967488297903;0.3429056224102857;-0.40734519812484926;-0.507482734988722;-0.9948590355614656;-0.8805706156183525;0.45242998161242937;0.33619042241813335;0.19970064996905323;0.6632734217201813;-0.5455376132945531;0.2581629014258811;0.6414359942033475;0.27366739217562325;-0.09579186940451087;-0.34763681623932213;-0.9217404019944925;0.313199153889866;-0.9831277263372139;0.7212556829373599;0.2869167175241512;0.7303975339221738;-0.7364296579889545;-0.7453801457548025;-0.8978640200621284;-0.24508554157755552;0.634078693264617;-0.20395155105090118;-0.8113445190113774;-0.16065821613174033;-0.4105228552780526;-1.003345839225094;0.9794666948500188;-0.055582388397827254;0.0023716009987085683;0.4840882025977529;0.5117833084486302;0.9285813147387136;0.409319685444064;-0.11308674527268994;0.133475412363295;0.6594746848967783;-0.6822272898343348;0.49798077565994;0.5061969987856247;-0.9745393946110117;-0.9764735661461171;-0.9642637125708574;-0.433793100764239;0.04029207189856243;-0.44662604249443305;-0.6417921136003559;-0.1653961925103351;-0.149856373319123;0.6760352553663427;
0.3526072335498239;0.9860170221320594;-0.48127370365858013;0.2780473337414874;-0.4251715013153429;0.9691615230207373;0.2201958109908222;0.20196694834560697;0.9785002552647737;-0.8188441283228254;0.3735234272706329;0.9239105210124514;0.9145610690035916;-0.9015936000118574;0.037622690456952324;-0.3228101576839366;-0.40402951231279427;-0.8706787248290144;-0.5980997421165266;-0.8058910013656471;-0.29410845993170337;-0.4090706589388583;0.6464377377044304;0.1992388451630709;-0.8086522151727616;0.6518199801669573;0.4479517709793916;0.849016940738457;0.6185559995101649;-0.42727428920422117;-0.0999939614612043;-0.09336180612712446;0.7865926352787947;-0.3394617862070408;-0.23059146990782958;0.9187534686070258;0.6031168007565262;-0.9648998918607079;0.9808168173430891;0.11502330560537108;-0.8443120146268258;-0.9657510576730948;0.6831130524429125;-0.9053842791161827;-0.20899128055690092;0.9001645538077596;-0.16279548419674833;-0.011328088434079793;0.14551130595753634;-0.922793512035436;0.8145358467886441;0.4693970481925982;-0.33921618532616765;0.6484144925003523;0.4316826330660107;0.33166628733993336;0.2583995420900907;0.409818338099329;-0.6054473278601537;-0.8622028361237075;0.06279328772951591;0.6911277309292324;-0.31585319223198954;-0.026836351009992074;-0.07613378757929667;-0.5144412859234114;-0.005038573455825892;-0.040545829816338884;0.7827285472165709;-0.2593289397272972;-0.6672225299793837;-0.4475443476839599;0.9540089580110734;-0.4704016644661239;-0.7329933020399593;-0.2820968768405534;-0.4894007214004115;0.5710163156366892;-0.41130100687886856;0.06435588026156448;0.8332627441617904;-0.18147406221326626;0.16357510052262397;0.8664446669816473;0.6169612146987984;0.34928713552164653;-0.4406606868096409;0.22992045558231422;0.18330356879307236;0.39184103370743983;-0.6086797065639686;0.1797967643603921;0.34451830915096016;0.42637107922759276;-0.3030727734225803;0.07775442872648353;-0.5849946284224345;0.4947379483772884;0.734878119896155;-0.6460465509942428;-0.44668977919247266;-0.32204345920356675;0.9299741793297018;-0.8995411232189945;-0.7130746471147995;-0.058208647379099365;0.7930895096754723;0.08796909231113381;0.8247151996342661;0.7893944479359305;0.632413634867438;-0.14466664678197003;-0.5719613543049522;-0.7864894461712635;0.2043508050809367;-0.7296040968707701;-0.8397761170298718;-0.10608143753118625;0.07052381465870287;-0.6740435821849999;0.6916649847434642;0.9956578429426277;-0.13945493171576723;0.4075271852420816;0.38126813925058284;0.053736689069502984;0.44063587749127936;0.6291466594477878;0.08283230266845551;-0.17657999771962313;-0.3373304475725344;0.8933824770620233;-0.6455077092486983;0.7389061730458318;0.5143264887965062;0.9369174908214885;-0.2368939973523609;-0.6567922313753047;-0.17832679865553447;0.7051511654449694;0.06482395319647274;0.20635122160779004;0.11779199732358288;-0.6736521476611369;-0.8053173731116308;-0.43310813055892855;-0.7623837479632101;-0.06422148406637385;-0.0314509540209127;-0.08804813035036774;0.7464775322228404;-0.19635715352096192;0.45156794903320346;0.0520732851774135;0.8487255937068988;0.5437841206162921;0.43101059340039094;0.3647874952712813;-0.056000331177610115;0.13409877274208626;0.9012318857979581;0.8521933128357341;0.8171680636537559;-0.4906558440127363;-0.9699547530487241;-0.18669890746923543;0.5495795821797284;0.01611294707840983;-0.07101832087453247;-0.135544649390486;1.0117337079582374;-1.0006170452602878;0.5545825587129302;0.19758791100141165;-0.3663466971902425;-0.8869162882762801;0.10651563208008114;0.3419662369166268;-0.17650933279113576;0.30169535456495794;0.3428075063097016;-0.9482446905491337;0.7197747203253478;0.43777776070555074;-0.11319536231991911;-0.9857528267060638;0.7572094438354278;-0.7306846349606994;0.4491097376412434;0.4552708068266513;0.4687255772115832;-0.434596420252325;-0.8605565408137437;0.16709934872281926;0.8325693251318889;-0.8796534417060096;0.5124372199462097;-0.5024685529890809;-0.34712889214086917;-0.01867520949920629;0.34119528977138636;0.1870191826088539;
-0.15500185480739162;0.32408096574126133;-0.12675969784930774;0.00616843507753354;0.012115123785884361;-0.07139699985418302;0.7720468342969162;-0.3531175215901291;0.8172887934051356;-0.8460987696799305;-0.9153904014725931;0.392919337384677;0.9226886394926594;-0.4022015094687206;-0.14029448531871225;0.3978237693992537;-0.7985295515584577;-0.04811391877208101;0.9479465717920543;-0.5140200230678528;-0.10957176575507374;-0.8190332745117579;0.01617606968467239;-0.45106367839495;0.5973771810599604;0.6858399425492641;-0.2441325622088785;0.928455730333419;0.3322158343602098;0.6189871922635073;-0.5823393079684414;-0.8955849807701077;0.5725419823269936;-0.5852184718825668;0.5173919583787747;0.7778187144939922;0.5035601399327716;-0.3839560846788699;0.3800721511168471;-0.29629238475496866;-0.05698968888191296;-0.7524364099594159;-0.7028676445539424;0.07128177217213554;-0.22408229813784603;0.607709366988689;0.6008500644443546;-0.3114030710879802;-0.8375307255246918;0.335054549377958;0.7793784318957667;-0.7358095127704836;-0.30004201103881956;0.16142620116601836;0.09326699135751941;-0.3857881757747804;-0.6703228264875283;0.719028474132654;-0.6408859903407254;0.8286903601546234;0.8446916862512914;0.12809737320299605;0.5580235150397225;0.09002994958353466;-0.06374298724630885;0.7492008784689804;-0.00469925961094806;-0.9533109383456011;0.5217466878794497;0.05600442707677762;-0.28353221231533676;0.33621597725792557;0.25486931140697455;0.196606299092801;0.0477574348714889;0.1790626060087377;0.25111919518477904;-0.0425253022821066;0.9992946379993624;0.7935505145995291;-0.8956645285963146;0.7414518084584967;0.33726887138745215;0.5361717628116457;-0.6429711445841014;0.6684975293348205;-0.18443141687652026;0.8219556966139538;-0.036235149046471134;-0.3038373987648031;-0.6137152841456346;0.85823656692288;-0.8486107223408789;-0.7267825823983678;-0.49744388106683773;-0.3408638907950843;-0.07672803011521004;-0.9862663820752718;0.470644603817151;-0.8834823449084511;-0.13930076036896222;-0.7354374895071589;-0.4564292385333319;-0.20726691574057932;-0.6134050815025426;0.2650874800571959;0.31492344904557806;-0.41924654902342584;0.38663915264330945;-0.3243525155822557;0.2430862953989204;-0.4914795687788875;0.49519406031384866;-0.5280192777271541;0.6064250171485631;-0.1450481896512516;0.604807802789316;-0.49509077733618734;-0.5164671611001649;-0.771406244466106;-0.9073712837063207;-0.8514957257856868;0.5040393726495627;0.09992814979386892;0.3727313497720028;0.013952809030194706;-0.8411655472632509;0.8165230596130789;0.724603467117516;0.48031974136982636;-0.601646770227738;0.11370325976080498;-0.7622382241968715;-0.657975404178046;-0.94630543957295;0.5646060448338843;0.41350940166456895;-0.5851208674101624;-0.12701322978509885;0.32165480672415436;-0.9516452055640239;0.6156227771179347;0.8230537928567679;-0.6150269450414877;0.9255730006508563;0.595597727544867;0.3742110743534103;-0.4112874707842205;-0.2302530200210818;-0.04041602653327381;0.8546357518499417;-0.6272792550775218;0.7574650782381076;0.9934853867381072;0.9872585932939103;0.9044584331719041;0.791008055697504;0.03703570794257333;-0.1495458370712131;-0.3146233160491066;-0.18923093922393344;-0.19768064619413556;-0.20650479632818364;0.09238163785235318;0.545189737731105;0.6122170438654685;0.08088982925403687;-0.6374914191882782;0.3259584141861061;0.8225636709427495;-0.15178101140973227;0.2615507655301284;0.3397618447298926;0.5697285513305147;-0.5424902593329484;0.6065447548591169;0.3024787456812265;0.5063332923214907;0.15646344253222433;-0.04720219426451489;-0.697067952515499;-0.12051959464723074;0.7952553542184669;-0.8879849963365882;0.9597210811204284;-0.014025992275544154;0.6851643596983895;0.4620657621262738;-0.605696428636268;-0.7504522057858035;0.818179234297862;0.5049221678958175;-0.3043312236301461;-0.07113881976843382;0.8049254024731174;0.3995019413696598;-0.1419604470768736;0.07806501217146927;0.7472404809499629;-0.8409941176814673;0.21230463636604693;-0.36941568119850404;
-0.16118564252218942;-0.04411699818135362;-0.47786748253867484;-0.08378333051139085;-0.465459922833382;0.2308696780853905;-0.09671803695503312;0.3848240931048513;-0.4663110978304946;-0.4258967372514175;0.23287175536287208;0.10619586914800117;-0.8166304713855248;0.315278217138258;0.16950156566364183;0.4751153800259423;-0.2299993594495424;0.08663317712057891;0.8044737144589036;-0.9566561601313657;0.11676662826921363;0.11353909180727452;0.3332264567017823;0.5528479769248507;0.44824958402151843;0.03552269431237165;0.24749677130146672;-0.7070614072258252;-0.9612756404358298;-0.6027462768354717;0.7648186791988921;-0.931219108991363;0.43515688966147525;0.559183103720192;-0.9031208653938897;-0.5532863510222684;0.4383739889164083;0.6630705081843196;0.03349341893882226;0.9921584508273218;-0.696962213578964;-0.8300226196045508;0.6875568867069751;0.7117391287087064;0.043960741238933065;0.11750326042644677;-0.6792190770959506;-0.7550038061874614;-0.5564508026041494;0.6997393071296567;0.2927373460219973;-0.9079811568156473;-0.3229711999643531;0.7103254413106819;0.6429320381405292;0.07373514326055018;-0.8142699942100114;0.06117442454326083;0.8308374199214988;0.34842361605420535;-0.6248157474761902;-0.7503932732466119;-0.9616688669909649;0.9601538982162533;0.45993773726249576;0.6783165880565424;-0.3803578441254149;-0.055885752374347;0.3062753519679708;-0.768865522824034;0.5235905222638334;0.25062831235972455;-0.2882104884685639;-0.807915472189699;0.3565119586348519;0.48530906853030764;-0.775951102945323;0.46118897041226936;0.8767968271896738;-0.12003302638440787;0.6111700135464745;-0.800956787032981;0.7631888363129914;0.6744516352508351;0.18373059869351965;0.6829684412535741;0.5198001332630267;-0.9099845283052979;-0.5065323389980917;0.41591122598687646;0.9487877574584312;0.34668193453111135;-0.9760143075544341;-0.31053297570678473;0.8279665396594904;-0.4464674346371116;-0.11931388355904195;-0.07300390573456349;-0.13290827368175862;-0.42743532486973196;-0.07430577306586975;0.3345236765447459;0.9026157807899975;0.9560444420140293;-0.49496113872958625;-0.767584785050519;-0.2707167974537225;0.3724863053358787;0.6667658573962673;0.8165064805877681;-0.8037098904038569;-0.4925029608702163;0.024038643173179535;0.2847211539256059;0.2841981048862665;-0.8625388733716033;-0.7345070467968828;-0.5518691985853291;0.5295247595093134;-0.4746290444488073;0.3294138320845794;0.7933602786335602;-0.1621164361049247;-0.5421130825130616;0.7985589062757507;0.5226670640949634;-0.04383308378703285;0.2764220701086977;-0.1426591019590374;0.5321280743984013;0.33367469214267126;0.16027165734683013;-0.6461827566581049;-0.30887926371894664;0.7754856560527958;0.661443239515537;-0.10660290999839124;0.6152175348939701;-0.9208837492209797;0.4060628792709408;0.8772252981325848;-0.4124011088094473;-0.8652212576325087;0.32154480686252157;-0.4867411937146665;0.5572513333945107;0.4523769481900493;-0.5253011956211133;-0.19618739204061728;0.12665478543710407;-0.2184844370675459;-0.49866570182206793;-0.8905158744511366;0.12029372946342601;-0.671851202958131;0.06063840120976982;-0.8624750117414575;-0.37235469439411595;0.9873032562043033;0.6667835286486957;0.013931072858035675;-0.9826989260695091;-0.6763757983353821;0.5887945739209947;0.020404067599735558;-0.7332189508818954;-0.1031515580003409;-0.2513649264709485;-0.4693774642405963;0.4296862029987368;-0.2822775714240756;-0.953047448330263;-0.19164068373434257;-0.8873401619520066;0.01648271304223387;-0.1935523413952224;0.07961829228390607;0.0019733101398508274;-0.724351335676808;0.5242317276304989;0.9769799959796794;0.6190347308572641;-0.19948673251399854;0.08371231747756576;-0.13244153058202235;0.8037075233006962;-0.41091269215603404;0.012723805975503653;-0.07513755284040613;-0.17710861047167023;-0.26876293491343756;0.39994102907535445;-0.8033321901750186;-0.9086374440902547;-0.6981547836798611;-0.7407593652504789;-0.4555759958953134;-0.07643405881970464;0.022080634587472926;-0.1045145902545756;-0.5883155761021835;-0.2877335988782763;
-0.2435063442196877;-0.0019980732579623073;-0.8398835538595475;-0.011493363816496394;-0.6237394423302899;-0.06196769657202639;-0.3954185279930007;0.8833724077389143;-0.5210984809167174;-0.974339882135894;-0.39914586113168227;-0.846310094222361;-0.498774111162437;0.40046222115168195;-0.8970230093015423;-0.5128798064598065;-0.5153891552560665;-0.34259939757981683;0.5158918895755293;-0.28430945285644393;0.8308149674856988;0.5919503118511047;-0.020474564685793152;0.1110190153473376;-0.28379663787520704;0.7428396677879796;-0.537789016344926;-0.31113850310442875;-0.5435004169291643;0.7073902080350836;-0.6875814921864188;0.6016597883001675;0.3418843997976008;-0.4424876475405204;-0.17575971079173996;0.8023803864413522;0.16196343997115747;-0.9135522597811612;0.11861411971926959;-0.7919228082184087;-0.7409470806959885;0.3803309919728983;0.19695621001503516;0.21186263409967473;0.4154527458037618;-0.602494768957488;0.5613280229504023;0.5237552968896801;-0.43311606350833376;0.4704340322056342;0.8638560690411587;0.35207915121368916;0.44751463069654857;0.07340825824587571;0.2599399405911838;0.46148515972988485;0.5703070868173197;0.9929064561651664;0.28283491012024964;0.7637368134231751;-0.3787015643036041;0.41930956065542513;-0.16611777757085086;0.8366507644120924;-0.4621612083244739;-0.6056418204271082;-0.2676418799670601;-0.8137913943935321;-0.1725463080316257;-0.24964107828219023;0.46475604467035947;-0.8087606867965028;-0.1514376426612771;0.27265526158516945;0.3156344316969363;0.4928226091338581;0.877622800128227;0.22708835781889514;0.5738158308233251;0.6482500766690859;0.4794582156254788;-0.1561619332307932;0.8697170449223439;0.49199668565659416;-0.7127986559943142;-0.6040073864346424;0.4091103523613615;-0.009683699749576613;-0.304829554428222;-0.1494828623406348;0.15681041688948968;-0.4470856590473017;0.33041242346619853;0.6916462708432523;0.6894878584108124;0.7660349263843038;0.5579168616394986;0.2243856777136017;-0.6609141650456556;0.33484203757423164;0.15599916618983725;-0.5037239105192484;-0.9543739760618827;-0.9255475442296275;-0.9582090190907895;-0.6376091080692042;0.7669007062301485;0.7109399435518626;0.8427774704259751;0.9126747284281257;0.8342535322903619;-0.6006741128385723;0.9038552929393933;0.35604756574554924;0.877632575964842;0.9187709346847107;-0.9252678077937649;0.7141028819731224;-0.28240205842743016;0.9716293884695595;-0.6197457588466299;0.7723113141548064;-0.6590900786252375;0.7555125778700039;-0.8719088128176218;0.27363996225399645;-0.8988698455426053;-0.8240947361326781;0.4124205260100831;0.43931842950522904;-0.5754893937493998;0.644360144652893;-0.6982345502934757;-0.5334436414999456;-0.6694186837682958;0.18932974107330788;-0.8904929481553998;-0.0396986826399881;0.6523532957414961;0.24415954580531213;0.7744889023152679;-0.765042456363709;-0.44511193156388307;0.1868160583013191;-0.7828317707893416;-0.10941535715930939;-0.28313524575257376;-0.013805266669768206;0.8302808870098984;0.44456672009969944;-0.7325212385571858;0.27778227510302217;0.2668424569722498;0.06884926025717375;0.2174429051567343;0.9536538689836289;0.8879186919248246;0.23701288564260992;-0.693396019254003;-0.8104286183304596;-0.21068854813049187;0.9310340921415102;0.07292991178571986;0.8531356546006053;0.28342377930362;-0.5872780918884523;-0.6935823698632338;-0.7929512045802958;0.31751095782368177;0.513076897786477;0.7338206932743218;0.5831229167305109;0.07468753273648947;0.7128092709142607;0.22038849107795475;-0.30708177843377044;0.3661360013199935;0.7021554470403445;0.9038269516361297;0.4375811613908159;0.22616155353651046;-0.8750134731841684;0.1270161281165393;0.5869658802304222;-0.7551553343607373;-0.23937015827134853;0.3309778423900193;-0.08039404656578213;0.6740069343751589;-0.7365894580960546;-0.7663172539727691;-0.6775749017515292;-0.9296704365496316;-0.49810786822012526;0.16328994658836385;-0.3415563101433358;0.224211167656035;-0.29500190295733353;-0.8586654635802823;-0.8391278485859138;0.6191104379314561;-0.5739097702361049;
0.2877278202219502;0.0521823016029932;-0.5841190552162807;0.9873080256658071;-0.26776962018064154;0.9242851993570456;0.9690528013700637;0.07834266076654692;0.7163581522230438;0.6774735024805134;-0.339351142631942;-0.18885771236543047;-0.2086264912352511;0.2621333508929802;-0.6267660383228759;0.07140372449664817;0.8990363603674718;0.053204415192796194;-0.21421001598959566;0.4483751750402145;-0.6682590740949066;-0.3781876910517227;0.7020396802581814;-0.7777846040025971;0.05743076525523775;-0.2544457712230097;-0.5457509516160538;0.9374433527224063;-0.6191416229537584;-0.49478932387031493;-0.03227306961925793;0.11617041727389649;-0.09393379314618773;-0.3880685189208961;0.5264732257880402;0.8426854746352103;0.7667147143822712;0.536067441753908;-0.7204976906634482;-0.5358936663414101;-0.9461173330314235;-0.9025548640757016;-0.7172019547399312;-0.6487732240589617;-0.7225818858914254;0.743119158430406;-0.7337315378937103;0.6292691358194903;-0.19821916701555825;0.3599688521584594;-0.04849673312100769;-0.5069417408034869;0.4252951073186703;0.15737372719491716;-0.8131712329054377;0.824154577729463;0.8183878621995907;-0.08202711477866309;-0.7557116061461319;-0.15049722313997915;-0.5244473889887692;0.6243388823451456;-0.8607086767317227;0.7376102103924702;-0.26243113346573277;0.7265377596994086;-0.7059121722502295;-0.785708075090422;-0.5578280608436907;-0.4084444488580364;-0.6521894505359898;0.5760167723278422;0.6055512413311259;0.013507213004094588;-0.8998719008501199;0.6665507449371046;-0.8632896243791752;-0.8999468270024371;-0.9622716243456905;0.5098438904577662;-0.5581687064791245;-0.5937108329381426;0.1810341597029832;-0.5009682765575302;0.49311314312291876;0.49912179526649175;-0.6107255800584391;0.020171037120772617;-0.8524510716606114;0.12658144540526028;0.2901719160352555;-0.15301945238093145;0.3548435503407826;0.35530930954656226;0.6085755033489226;-0.6265055531971411;-0.8007947714602464;-0.7190143302905929;-0.9402197944421058;-0.4060485992642525;0.14283637038505245;-0.5625513678279784;-0.9875475468656646;0.33026210014086;-0.7602142353760305;-0.7203355774734871;0.46310579029163323;0.7555583247496334;0.7872279018268028;-0.4818473153858765;-0.1537961451286467;0.227622204200745;0.9941203096240401;0.06754273756501288;0.499632026154829;0.5266861527034815;-0.576698344398399;-0.8887677454264244;-0.3391271727510749;0.6949192625477674;0.6949599661789202;0.868857680849992;-0.8677345296823376;-0.7726219031234649;-0.603140486741084;0.1221801541489309;0.48680496102278303;0.22883775969909761;0.6294258915735867;0.6936329858820389;-0.19268171097031853;-0.7215732582985475;-0.0029614789122017035;-0.5140259387414949;-0.4441678060643857;-0.11926508495175855;-0.2897837518942826;-0.614590582996273;0.3419620286079637;0.7868154395081927;-0.9631909102169246;0.4785711826321084;-0.7244112668138066;0.060483431202118174;0.47294106707947386;-0.731592205829691;-0.285231383654733;-0.17065157962509023;-0.4499470275760806;-0.0956707140797719;-0.8482523547970204;0.23608200016169453;0.9782655697521265;0.22642762735293412;0.6353539361111912;-0.5501884287201144;0.6364708769858722;0.6670753178103889;0.6228185305508639;-0.5790112103332306;-0.3761108610140351;0.3342967232009594;-0.3990603400342254;0.3977470230724796;-0.12975448014680555;-0.6601891882687492;0.7196633615099818;0.5437065367824843;0.5132245548553895;-0.9088599485589066;-0.5839517579267758;0.0995164438175757;-0.719358865252415;-0.18181761332466867;0.3424341958489422;-0.5953450801097427;-0.9523913815343271;-0.8496555303189114;0.99272208608315;0.7260060666541297;-0.9350454675889239;-0.766059925001443;-0.5365934793177359;-0.1512301643968779;0.4428705543453557;-0.7680121906036947;-0.8210284664552071;0.3581159807797436;-0.28443402676093665;-0.1971048203577945;0.728756164751234;0.4695463294053957;0.9043153606331769;-0.3556999767406377;0.638043818798968;0.17475616022147142;-0.5845512644585289;-0.9409635259786732;-0.9319472520953086;0.5767220211588583;0.8224445308224434;-0.3740339048611329;
-1.0197333400107267;0.5455511309984229;0.4193029295422681;-0.9284676676220932;0.7925157528592504;0.031417035487427025;-0.21191935979748933;0.5407884657312848;-0.25650045214934125;-0.22955616112701072;0.5983039791492375;0.4682948815803144;-0.5809143507357704;-0.31554823390142217;-0.9348625416063441;0.36341046022264534;0.5009709440562126;0.5100470440325737;-0.12189282463886175;0.8793488444929709;-0.484364224617664;0.19205107020830695;0.34282294882201414;-0.00634144239810297;-1.018312487863284;-0.300090805421108;0.17122618399490103;0.6534590454712251;-1.04973509756487;0.015364001311625408;-0.381971626947309;-0.27633640334007614;-1.0570763535771441;-0.7303543764873897;0.33801883844746133;-0.7693951124723848;0.5165627196704637;0.10777308880375691;0.6426888447128242;-0.4295921828357117;0.2509202052006755;-0.28522623369506134;0.9461648188791884;0.5139341978832113;0.001165317005438576;-0.26734741082498337;0.35741485217195545;-0.01464906919918437;-1.0282497127997858;-0.059155333823462275;-0.15317297318192652;-0.675157006814046;0.5578467819155636;0.06257297901334735;-0.32427408656980317;-0.9411934924431522;0.6743016383265881;-0.25111487667648813;-0.3247601465131454;0.075345797853069;-0.29189640036477454;0.43508846096000575;0.3217789098309977;-0.33799215115548187;-0.5250849320432597;0.5512738724163488;-0.24453177070507445;-0.7607045708185002;-0.702119385976447;-0.15983310096287137;0.7198994219900587;0.7468865853738654;0.7794631624478029;0.7088175152667604;0.8896929049290853;0.16835716109105414;0.7259632287116002;0.5431483856477457;0.7660376980120841;-0.7691078731708002;-0.012731677899949681;-0.8281460559325743;-0.5043933858787376;-0.510727443098029;0.33970048170216;-0.6824116576865208;-0.6638918253478698;0.18470944071695916;0.9268034076608752;0.20954987794973423;-0.30434932103107737;0.3341891227562825;-0.7747650031514904;-0.6375069615977442;0.30984367934282847;-0.011946684600986357;0.522952444863811;0.8666301101057329;-0.4430761971446343;0.8167076733796693;-0.2968464961727606;-0.6559935924522315;0.3530812442249924;-0.13328331472843025;-0.8153386103694741;-0.09847995480844336;0.7692216380510989;-0.6754141444633674;0.8196324461143244;0.5469434533911947;0.77843741511525;-0.864945817060141;-0.28154718018384606;-0.1345855099640277;-0.503307836721132;0.7918719557605997;0.7740887402036393;-0.988868294170417;-0.8851669124075097;0.9841678782706483;0.1137956122619647;-0.40801611353600786;-0.056299067800692514;0.42846323744625325;0.020024652905562344;0.9754150333290017;0.7815056212035701;-0.9747126644845601;-0.10151747984339374;-0.5767552444786882;0.2953491269745634;0.7795805457271971;-0.16705019791734677;-0.7302207014451262;-0.18548300834630643;0.8933712374726179;0.08771775598296264;0.5598740955700812;-0.4587309327650829;-0.3207858192523202;-0.04279280080409013;-0.4881878662263942;0.0026174004040787424;-0.255769032377442;-0.3857981280187426;0.03393256864912795;-0.3271715821599275;0.1771396643833518;0.29319056041035624;-0.7482215057788917;-0.9802396373599298;-0.5649068861842049;0.7796781164301072;-0.03176344515620566;-0.2718741705658799;-0.6791457504691703;0.3521917968853632;-0.9224269660756742;-0.22041747439805456;-0.21551813584830265;-0.5067517236877814;-0.12993848054473875;0.6617290874984908;0.6104481260368554;-0.5138883003843348;0.9556653261916266;-0.4467547798945795;-0.401753158579459;-0.577012106591068;0.5327223324726322;0.27620914132055907;-0.4551079475932118;-0.9137139938567207;-0.36059386976368174;0.16801248569733154;-0.8562037011269192;-0.005752956457962827;-0.411361571375417;0.2674209905272921;-0.9083305754000601;-0.7189130500486605;0.3250933927872313;0.1743040957984957;0.3128132069886294;0.18559017588713633;-0.7809800379129734;-0.5027904677927708;0.8378255525921899;0.22810374592125515;0.5434042731208472;-0.6410729269614349;0.751720980611399;-0.9162441318166987;-0.33845819776073477;-0.4336910065948481;0.19300702233915917;-0.9804695939656591;-0.191754801544744;0.6726475185446363;-0.5938735262835856;0.20689026738081912;-0.2090173040672357;
0.7641465378745433;-0.7151983078330648;-0.8059263672662036;-0.7257152364362542;-0.7091403486922309;0.023478158031090324;0.00725121318568589;-0.3502125359457329;-0.036069789213213264;-0.21019137227956697;0.8678896813889834;-0.5261264536506732;-0.4345336945941579;-0.10479137153751061;0.08534787436392488;-0.8130343804291588;-0.11689120117569794;0.6911849450649169;0.27317746724139336;0.06574027771042329;0.12213584271815173;0.28340387792595784;0.765639816935218;-0.5812426256604837;0.5278335164852821;0.7542918132940486;0.9892872032395019;0.8342120823449591;0.14755789449258247;-0.5781181990523965;-0.7224676191518019;-0.21453947817446975;0.18013408277131965;-0.32815596748041487;0.13107878072822013;-0.9420840145213324;-1.0660268503168584;0.6552399480145346;-0.32121413676259186;0.2154327151232303;-0.3061571597385497;0.40890506789369563;0.37327688365873024;-0.1545517376390658;-0.5623586982699929;0.22363771681683553;0.14541110194275966;-0.17364837590092497;-0.883332940902751;0.18912803537936407;-0.49022741478533255;-0.7874100344713095;0.3614466551826794;-0.520053485706234;-0.983214705832722;-0.3545835922992152;0.4732024159218973;-0.7233310291825916;0.3770681345995997;0.9565716297683357;0.08031997972787772;0.2711941002068956;-0.8482609766258876;0.9045111979897474;0.29207582082308714;0.4464124871724468;-0.06636966280629701;0.28094116077952214;-0.43614495692079164;0.11791512287239067;0.4197895450618669;0.2657676650542238;-0.32387475478249145;-0.48007624929866116;0.8099429877143363;0.7694866295351888;-0.568670547430122;-0.8479945898980228;0.04695129834132556;-0.7827843200667637;-0.5347689153749101;0.8833118718453502;0.3460071566467863;0.21001351218630354;-0.09884439777643934;-0.354924921044913;0.47990877518448916;-0.08450848275461076;0.8808634824848078;-0.5763939177239121;-0.2036555908312401;0.684225243465634;-0.6957278364574132;-0.9142648221629179;0.5943089209584794;0.5928362626474135;0.20085715715576194;0.12960958805386105;-0.6920303473843177;-0.2676630012915378;0.6087692209112427;0.46109837565188916;-0.53700690406979;-0.12285681578800757;-0.3770895469496606;0.6094351343772344;0.52713414271492;0.31194709554785693;0.2892746254854088;-0.3802592338708473;0.6124991848442473;0.5741301130452875;0.4817460871953099;0.4392191035685705;-0.7919143998693764;0.8925961489776626;-0.8450854197745039;-0.5143524906292283;0.6069007991219987;0.9819839129567942;0.8587643729895873;0.08228598423709829;-0.8508323775285099;2.2966088576353502E-4;0.09544321134835557;-0.18606179896454478;0.18411756883335778;0.4621845679054207;-0.1551716286963888;0.873661096157538;0.2778605020184694;-0.6368925150364413;0.08538168944932677;0.8887637649544995;-0.7336925964733834;0.3121250373625803;0.38159317809196003;0.2575198180971532;0.535898485033057;0.024462879223343923;0.38403940129410347;0.7823039279828029;-0.17817587449374153;-0.13478797691055477;-0.36666096422406613;0.05986881833694312;0.678527782140916;0.4379760888823713;-0.6280095839218197;-0.4277175153495696;-0.7618558457741483;0.36411622368904306;0.6095083168009658;0.7722320607113535;-0.24204345333424426;0.41335638988866785;-0.4653936350717716;0.18065021412510673;0.12767149870324906;-0.4790029025891693;0.587460190423072;0.37162380464550465;-1.040408304856922;0.39007701800985284;0.808585152096137;0.8265216514588742;0.01944506993937245;-0.9345948067839771;0.03589177679702114;-0.5220472738825698;-0.8997730757896162;0.989328654861559;0.6575449810446355;0.8395798181055351;-0.6109279905798496;0.9864624501262772;-0.02017296947960489;0.2502096535674886;-0.5959197775857462;0.9827528041188611;-0.10212575659245737;-0.37044969026875435;0.9036033410766895;0.840428089246134;0.9422958567200541;-0.6589621031811509;0.8316556202188469;0.8827662811409337;-0.8573193462156099;-0.8348121737392424;0.22858812435591322;-0.10562934948451665;-0.3497942932496112;0.10102245640681756;0.43018416658668185;-0.4594074092079988;-0.17375248269299637;0.5735936849143021;0.7921752439563934;0.4413617627418529;-0.3518363782532838;-0.12768115504190294;
0.8388438315079365;0.6633937207249618;-0.7631276224968959;0.5762738903167767;0.6977910237536727;-0.09532160257291622;0.9645342291850412;0.6584690701188249;0.7145119308185792;0.31400580698072744;0.6320309349025774;-0.7089806772208159;0.8428035940595763;0.5471636750295343;-0.22738058686215257;-0.21278149095232837;0.3773736399289365;0.5286853124121257;-0.38209380625586475;0.03434943944781197;-0.7781269268508081;0.1754979088234169;-0.22368645429945438;-0.3159575004696422;-0.2220884968538375;0.06994705764849773;-0.6545493445321829;-0.785819209578695;0.2469449423853575;-0.062052237365017415;0.1102571198706116;-0.6119705787049605;-0.8910428273987566;-0.8166296120395691;0.3901710791993091;0.6064163108917052;-0.6261350838568451;-0.8553277144756333;0.4173460771326267;0.5209271375991377;-0.6403670206540756;-0.13738436997135833;-0.6718789799376113;-0.7919204615676255;-0.7204860747610722;-0.4518274911808706;0.5285457492413759;-0.4594821204712571;-0.43270111476052;0.42602572878962697;-0.6159186939368058;-0.14089121926847858;0.21112405626831604;0.058502562578754747;-0.5454665367777641;0.7739728152290973;-0.8057327632249276;-0.03136888576479446;0.42049419721579817;-0.2882698985183788;0.08772628245312629;-0.6300621207691213;-0.36993782923663965;0.4988291585133948;0.7108875426461486;0.24355732175836928;0.9305624061176556;0.08658142242508518;0.21127263559016013;0.09189408436860257;0.6140843779779502;-0.6575483682196234;0.8616855556618089;0.6101356430467836;0.6531444739721022;0.5017312656230737;0.7023179406494144;0.5511207102773723;0.9587116682135082;-0.23686504103990377;-0.08831146035519519;-0.5927123453762151;0.8627271064323973;0.6360294669301326;-0.02679772536403779;-0.23445206035910435;0.49503831508756596;-0.014305766345032778;0.02905724167339086;0.38965362187249064;0.9013420110460909;-0.8739816743636974;-0.8687317948922941;0.2586466397317002;0.39812094784073876;0.5064323326293516;0.8405364842046192;0.10621372495648809;0.19453742614515018;-0.4543425653133459;0.3508272295736846;0.0016815240475514571;0.683723848061368;0.18478424484650463;-0.47431588535112157;-0.03430643041562356;-0.5507475450834035;0.8751232090088774;0.7087363395240897;-0.08100090212886649;0.9721139565935351;-0.23607553717453805;0.010466944938148932;0.6606328341418579;0.7208969051842863;0.5792436150661809;-0.7038572990826331;-0.7873849390605833;-0.9321753188543573;-0.41633669707709864;0.4860745049530666;0.8761774580861611;-0.6173215586039098;0.24382094460649198;0.8905317698363904;0.359498644426469;0.05490417735213256;0.7461910792733135;0.16678545702726238;-0.8939283544818635;-0.9201846716279023;-0.3624594346839598;-0.28199874111865925;-0.30718716001912816;0.957314170942407;-0.7827885925149938;0.00527419164858222;-0.041429772578394086;0.3146573901535874;0.9338318748416673;0.26944614568871633;0.7661449770020069;0.7132045791550491;0.9994918383690725;0.8347805050342171;0.49130298104490566;-0.19467336536394061;-0.8593206599414446;-0.6093138267640834;0.4633169139483102;-0.24568976757539868;-0.1746626802994163;0.30738618242787763;-0.5841415791645637;-0.6563925631902819;-0.3000465088111164;0.18439382934432627;-0.31177999937229073;0.5896196539461315;0.790274709650897;-0.21276790908167295;-0.5864795560843217;0.555111122806217;0.0970052170564597;-0.743861908573936;-0.2919664101985669;0.9463179718437731;0.6722372881420323;-0.03739568400367966;0.612752906012831;-0.5520459327896141;0.657814048480846;0.33050893466235604;0.7694785025515514;-0.5717962543237924;0.3972322965528781;-0.06870937936181509;0.5788084968543026;-0.9755846321129238;0.8158096275155469;-0.1869417568769649;0.243076231575798;0.1654216900866504;0.5291550207145457;0.07694898879921364;-0.6671772204626336;-0.7837664132964132;-0.8287888122112783;0.5717383655039829;0.27841566138416396;0.6364853226910261;0.5401555840246904;-0.8553608754708257;-0.03298744880908776;-0.10184925850918589;0.17425059872103563;-0.4642545242048084;0.5592399194202547;0.31051763525521536;-0.31715025596222146;-0.560274584782357;-0.5655969055483571;
0.21073892222399732;-0.582838429801587;0.09355367943499537;-0.20282058461902916;-0.0027328042192169837;-0.08050195825249418;0.07516612403973677;-0.4125605154141306;-0.4317719029929705;0.5499600743015838;0.15303028683562414;-0.09411875930051054;0.400138590710346;-0.8858696485566797;-0.3389192478075307;0.5299065381390549;0.0341419134792239;-0.2178819593903791;0.16900537685793537;-0.222312413728214;-0.12325141363872129;0.42106895730593036;0.5229664202493273;-0.8665502649197305;0.4785745035868247;0.1524076800388272;0.37052057678815153;0.6549945194145154;0.7591433553775181;-0.7406297407565792;-0.12454370323358686;0.5213152785447533;0.9627225609184924;0.002737068330552983;-0.5709157822690722;-0.7651130825089207;-0.9122476353533839;0.33560431147664027;0.15918802436389914;0.4673274807699173;-0.048967161626104705;-0.1336998219971105;-0.622747883940349;0.25797543296263364;-0.19273449887943575;-0.5221387469550389;0.6524712917750247;0.20755965417341993;0.6568928289854394;-0.87419197173267;0.4113007006247284;0.5466478666874715;0.011897847890411168;0.03105301731440613;0.7403911169269445;-0.5103803030211775;-0.007634479790644594;0.45167345254908686;0.6290933510184834;0.8024406700930217;0.4633298195680078;-0.2424408308793758;-0.8363723854268943;-0.5818828546362979;-0.5787699911509123;0.639780341983327;-0.012349126270863242;0.9960543227407309;0.756700282390841;-0.5594007827010884;-0.323418922646579;0.7036632567446157;-0.9159940460295325;0.6690478008722046;0.6340298809215519;0.10458667486120343;0.889915777536674;0.2936557104410613;0.3966322441483041;-0.977898435469706;0.38244655927961846;0.227708778253985;0.7284923413850612;-0.36614712412347844;-0.4151628771867745;-0.8126323001084952;-0.6117562251797104;-0.22410659079860795;-0.24359373027634668;-0.13354685638822206;-0.8040804068091688;-0.05113020033922843;0.5750021830411088;-0.5826210116644222;-0.7823626923559226;0.43235974201508776;-0.6730092921871162;0.7402373320950772;0.48563256705496993;0.12414673743826943;0.16085469465325694;0.9342006991922872;-0.44892624340462517;-0.039028947440954906;-0.022631442048458517;0.6602676999922517;-0.6054895192103354;-0.7871409480915212;0.7324863704553155;0.2524765303056154;0.9223702469059346;0.10841832140889898;0.34601240071443196;-0.5808252383322428;-0.15848380915049978;0.05868373908046213;-0.9968895157702473;-0.34273482690315843;-0.8398387678205552;-0.2850725422893567;0.14044683184382817;-0.821549309304675;0.9465205988302887;-0.27293263683033964;0.7972417886166121;0.18581397499208158;-0.625318588658015;-0.6321791270162518;0.7116618825093869;0.524049587476557;-0.17912842014571748;-0.10077135156501682;0.051047314006168056;0.4660226640610505;0.7741394804489756;-0.5293370094230461;0.8258323820834792;-0.2002200960627729;-1.0110267516928582;0.7123315244213209;0.11232062355453994;0.7796449459719921;0.6305389444607591;0.587272927840697;-0.004444124990391232;0.6559326445691934;0.19964490566539966;0.7336890299980733;-0.3761758880825064;-0.1330486684358967;-0.16087179170662722;0.7783817022399997;-0.5968297304832724;-0.9133761484081737;-0.8777842033847062;0.3594795122690937;-0.34257068303029076;-0.353797893461838;-0.4329151654350478;-0.7085467212556079;-0.02455149021798403;-0.13815740060135065;-0.08096941972827361;0.8059422808990264;0.5011567794323456;0.18218900427660217;0.5777030028314947;0.8416731119211442;-0.6481136581713378;0.9051775369981733;-0.41411416592816047;-0.6931267286733276;-0.5479327726330644;-0.4928787883173291;-0.8325404603173614;0.37648933749444513;0.5215203835355049;0.45404832013117985;0.1366413585737921;0.7759456958601711;-0.1865177089105856;-0.697052507032147;0.7659145537680597;-0.2857286615194769;-0.9140927701337185;0.3058683227165013;-0.3785268708926817;0.21220698801451182;0.08163283002086685;-0.3809074430702023;0.7654340310436115;-0.29731310305445047;0.10213052262980704;0.49387755371809694;0.9608293075453099;-0.06441524293880359;0.3445744902783068;0.013438666909085439;-0.8245614837852628;-0.43175279666550215;0.8865979097260002;0.4619618884256438;
0.39727751661662447;-0.23363738663701872;-0.43936359927819546;0.39010210387692007;0.30654826047028805;0.6052174595672453;0.6665569268194493;-0.6713632120833042;0.15895282479691045;-0.16443707319409073;0.988873960192336;0.47158926516512684;-0.36016327928139275;-0.09217310325464823;0.2950631038289666;0.7921797822912544;-0.11035584337547517;-0.5567117739303497;0.30135721015994665;0.1762399396055642;0.9912290252293965;-0.7904674176064478;0.3718610374093499;-0.9950483666671566;-0.6329219988227089;-0.5307503452543736;-0.665156590801928;0.6664828512683202;0.845894694119277;-0.5762731684609654;-0.08700347829387116;0.5071281071172485;-0.6855262797588225;0.5506404976486534;0.09425449444754552;-0.8247429649613452;-0.1436516193619878;0.7649095051853596;-0.05117622642853028;0.6996104986164994;-0.5313846809128486;0.6437221872763895;-0.039499805694311;0.6081339819970328;0.6591300048113437;-0.2085791603514089;0.6568511067819118;-0.10451702214804377;-0.5908115014827984;0.44503361733870217;0.8716626082031538;0.2140819228424311;-0.12113972988129079;-0.25244770160310037;-0.09230134310118711;0.5944952419606371;-0.8409463296209592;0.6956403157888693;-0.3549526305779593;0.8302138353410264;-0.5580879723738135;0.9827394229495465;-0.5576966181956866;-0.022232375217900825;-0.06513139062324835;-0.13344045502642754;0.39699308816438794;0.3488646243592661;0.5231932263099286;-0.9915006039551456;0.24452192616163576;0.1600815022242682;0.7606565799868724;0.0627187785512897;0.7106630277650633;0.7621176033689054;-0.02214220018849576;-0.9275608004703151;0.8549199900211817;-0.4166248892995922;0.5601626934308152;0.8989887407115756;-0.5597199823349533;-0.9665445834834444;0.9882186808623288;0.10542168495664382;-0.9112946110679387;0.8124055546520124;-0.5424968329274351;-0.376084880860448;-0.009297700368515849;-0.7866847346121094;0.46183030712289047;-0.6324150865234293;-0.8720250502178675;0.3383162742786374;0.8697027204095527;0.4629053497026553;-0.4154306416417383;0.3945981583258929;0.4208391570950835;0.6360421013567141;0.21557661022089844;0.877765983631721;0.8997353399739627;-0.28232135056674673;0.2758364526569587;-0.5660941787358045;-0.6368614598696226;0.5144211875003349;-0.860519324048477;-0.11760053997891765;0.9966935678749412;0.5056195341623542;0.1987986319415558;-0.3778153171133024;0.4518286253241063;0.909612272906168;-0.2008551433041899;-0.5713934208319768;-0.5565911697352648;-0.8435092390141449;0.5165467206162456;-0.5747670628641527;0.8087639678854044;0.7553895547778974;0.4721029304587799;-0.6011862507094277;-0.3439540965135475;0.5398272330682682;-0.3054859088971987;-0.4155491817607475;0.7445732604653712;0.439732344942387;0.6609861442552634;0.4331196541012411;-0.8492745145086311;0.06899432339593936;0.05431804859798498;-0.44556203180479065;-0.06785101335261096;-0.9259552057398331;0.3626087966320008;-0.16662544007793928;-0.06238099641627782;0.6769370110831562;-0.723163505545541;0.5969381359287762;-0.4024794895123692;0.060691462734827395;-0.709160438391111;-0.47950527023302836;0.7432095763821348;0.19899041125538167;0.17691103135132993;-0.612957156846248;0.8458074466324988;-0.5789780570508145;0.4671501433284342;0.009056173007248987;-0.551655850179266;-0.7579235171666907;0.014328302959507848;-0.2783150775791571;0.38768098944540735;-0.3848124502958657;-0.45224347466705694;0.32133033263037103;0.5152051124310932;0.41493943083912477;0.004855934280386525;-0.23211865328314202;0.8607945021637616;0.5760718002601644;-0.7552568827200008;-0.947488964094906;0.24190339426019433;-0.012442607206483953;0.3322266833888015;-0.971637367907532;-0.23475790214955183;0.8477449048297196;-0.2509274233164767;0.11244823732025301;-0.782126829127133;0.7360691115607221;0.856752975021729;-0.16292908534483547;-0.13886094122260761;0.957083210644844;-0.22155274658458285;-0.8535481589407443;-0.7335454225239078;-0.9101713575544844;0.23834327185743137;-0.7796048144349961;0.12338060678854545;0.09554717573021755;-0.30557119419498147;0.05072767035419544;0.937299651180595;0.8955504037097697;
-0.3503017502150146;-0.8159899767632497;-0.8559698744096702;0.11926636830708796;0.5087454714066614;-0.9243860073903356;-0.08682091233582145;-0.6684404622906543;-0.3149921776309669;0.3298964958287476;0.8812289702471636;-0.791094414378889;0.3006280947762377;0.6346272433356543;-0.2644824162971471;0.2657529706176058;0.9406880131728955;-0.5698728972301882;-0.2816537130264669;-0.537798736874338;-0.12248108498166213;0.6037340405837129;0.9510177522887997;-0.11092098660748628;-0.29760345201813077;-0.4666365510245336;-0.055556515355132716;0.4545547767091433;0.6720871195172589;0.85066010647708;-0.375948111388359;0.9540630025146464;-0.5023671659766946;0.36215191846608774;-0.5916517305345742;0.7075454554151327;-0.11330724409659193;0.13231937712095054;-0.7307503199644689;0.9322186812902666;-0.8259021876854913;-0.9461319856570708;0.9938083811640194;0.901731803426626;0.664058041066962;-0.1358809612932268;0.708100934500114;-0.6741531475115624;0.2556886876433303;-0.844300055939645;-0.7170210353989599;-0.8452438608262065;-0.008996114509112746;-0.15279913207629536;-0.18587611812128715;0.8644755203043392;0.40940322961717085;0.32402465935501157;-0.7406523003531442;0.3664896141807445;-0.027506863559475573;0.9040387049182841;0.2013564361685105;-0.8620849942076986;-0.5487203692075967;0.6218674419277945;-0.6068260215943645;0.12927286397220025;-0.505705095454978;0.3112258227282314;0.47824952067738685;0.7380672663352471;0.33970758521471106;-0.8064970643299129;-0.2656240049771731;-0.11011087486649784;0.2540112521042884;0.8923919802872597;-0.4840321854152031;-0.9882952663408316;-0.04684489217790071;0.05506864125772153;-0.09677910219720698;0.4705882576499264;0.633627198063598;-0.9916468052120843;0.6849608128768044;0.48161840742209994;-0.8258231399380573;0.6707504753061411;-0.05747720076022554;0.7699036265036527;-0.3346280267719956;0.9291468186903273;-0.429977378882757;-0.3688849114839805;-0.287341707852879;-0.2816770290820038;-0.3667700318089927;-0.5882759150443604;0.3774661429695674;-0.12533059069199964;-0.9700138669363957;-0.9571409555428032;-0.3777607318222545;0.7618051183774953;-0.2990626528621229;-0.37758895024812755;-0.09545494148009033;0.9699005243215606;-0.618836032103993;-0.9051731777933026;-0.04112311952743141;0.3488280191420048;-0.4210520863227255;-0.5593653701823335;0.4493624474862392;-0.20442309643471557;-0.3601967734100226;-0.4948321096760889;0.2757610967059501;-0.648000172848375;0.3770297664931598;0.9591977239697442;-0.39947447569297484;0.1679025344040916;0.19055126987658183;0.5560092635006046;0.8634553142455751;0.977926338755672;-0.30780697850008637;0.9042160442219123;-0.2872870044320681;0.1381089683975592;-0.6524517631875614;0.6870090344864983;-0.3595060942061311;-0.7740527965200479;0.4913951380554423;0.7950574887969306;0.2176014741705727;-0.26123706040623357;-0.16287916672606872;0.043875957842729164;-0.4014430274271292;0.8599823626664601;-0.18542694626893935;0.9809963322787659;0.4194664066500498;-0.02122992764519438;-0.2736854027593551;-0.43609792533584624;0.9202948676442609;-0.8184154533931114;-0.09572363772664602;0.9651725855004125;-0.04110660179141507;-0.9459557569987359;0.4596797380011311;-0.8147814968932491;-0.7166707418505178;-0.1576983680531075;-0.40477675932431606;-0.4278544822776147;0.7923057067210392;0.4268108215608958;0.5050548659374794;0.01642500141962175;-0.34164679603861975;-0.9454937259184139;-0.9471842317675274;-0.675731715817906;-0.8542537299528697;-0.18530850312313923;0.6631533218506579;0.8731218259503911;0.4109943439877932;0.8375027806456501;0.023489648588198492;0.048773315681278205;0.5833908954149043;-0.7671634091588401;-0.6990395943480191;0.5031295857036694;-0.758021799527038;-0.8847873571191698;-0.23359928761627832;-0.20045718212569186;-0.028032598356282135;-0.26051479070038996;0.47026634431010345;-0.21248480295603264;0.09565037949895228;-0.6376156416008415;-0.19938571853809692;0.4751656889274538;0.27846369734867826;-0.1300093191649074;-0.35304894539736786;0.6960601992023087;-0.7879634299038804;0.21253864145863638;
0.9276546841525637;0.6626183819713403;0.20489517713247252;0.06765841698055658;-0.0021844134907098483;-0.6100192274633391;0.9930256525129111;0.9856028331357566;-0.7576982314697429;0.8791110549272307;-0.015887828921189895;-0.4098489305167609;0.4817615277957824;0.7150388378549544;-0.10505877595449542;-0.17772865802874394;0.658127311611076;-0.9187550899376479;0.8658309232688224;0.2360537073005585;0.17613248397202902;0.9188837563948986;0.21117704860944037;-0.33306636296533343;-0.77536896099962;-0.9394731884902241;-0.44488315940686;-0.28140939055779685;-0.355233158870272;0.2737823870559162;0.31918128193538753;-0.9760164822787855;0.46516441195742164;0.44622026748676014;0.381964042658683;-0.2850728918325301;0.14857374842505047;-0.062104013886957965;-0.7725996026259435;0.581385236957609;0.3990863951927058;0.2014960842943437;-0.19270121897557052;-0.40136723589874523;0.2817172607878126;0.3371653992432744;-0.2913815394512261;0.4757732990878059;0.5361386854009195;0.3785012011068405;-0.7564737454469952;-0.9229502043377296;0.30775779475728576;-0.9413908391788126;-0.7792455136896113;0.42514910509683396;-0.8368929467309479;0.5303496748496552;0.13481923875858454;-0.20600873905393227;-0.682728829983234;0.23674495531548992;0.8058172894187795;-0.7093101363506422;-0.8370251334336105;0.5264913746904802;0.24944681799310284;0.9582598763128223;0.9608201421374244;-0.8947221627397904;-0.8979171117831984;-0.4038921585147346;0.2241934949260164;0.8731282987678595;-0.36105682302660647;-0.9321942980445659;0.33754687812537953;-0.5849944626056174;0.25786822858027286;0.5197353817547454;-0.28329728323528486;0.5529075599678416;-0.5974884175904249;-0.5627991001967356;-0.6821899093095212;-0.6377552701822466;0.2604556181099807;0.37423395869081144;-0.44519774649432176;0.974576997792191;-0.022157124273381307;-0.4702100915555293;0.054741850527819255;-0.5861305640552801;0.44979202325032236;-0.536874499608113;-1.0467037164777306;0.5449853222474478;0.08933693034236266;-0.1580307253523807;-0.5572852804365634;-0.29415731473167467;-0.23752911413151048;-0.9014892855633156;0.57446003473175;0.27890104218974504;0.2627208430521887;0.6273613888487986;-0.6366968434197182;-0.08981466014020865;0.5411951639778125;0.8527217195219263;-0.5674830401670594;0.15513314094745212;0.09103056147469023;-0.5278200836029738;-0.6567614412960042;-0.7466227995297671;0.2648476792177873;-0.2795440993734366;0.6979557671378405;0.6502156111337503;-0.9623344748359349;0.47165435895335567;-0.9535784194343689;-0.11882761847713331;-0.4779597632326899;-0.6620002283251536;-0.47400212321363233;-0.37771781754102846;0.19311009675458413;-0.07120333582447569;0.8667796805979066;-0.8117860614472313;0.4578437025283869;-0.18639838466916225;0.8163114310942219;0.15409516034992166;-0.7792870983675106;-0.38405687157950885;-0.46850471723474557;0.33004069977597034;-0.8687571595382302;-0.8195261418195936;0.6068833091061577;-0.964895397481447;-0.04676817315806876;0.2607054990350606;0.5630670104167186;0.3304731820036535;-0.5219542168034045;0.8303492560836019;-0.8029702024615039;-0.3194587149310214;0.8346246702409018;-0.9042394569468999;0.010911257856077437;-0.7190824763516459;0.10225324005740163;-0.3066523476091089;-0.7889932043248055;0.06334326732078159;0.2546036770999472;0.41284736086058;0.9561814068088511;0.3844530995972602;-0.08359173508505338;0.5779003250847665;-0.06482351880155919;0.7723123906026539;-0.23459381637530793;0.1895469835085931;-0.9264311257773252;-0.5540927940590463;-0.8430706934903887;-0.3821197061084636;-0.7208665074720194;0.5406883538112613;0.812156608194607;-0.2520120929957898;0.8281209099835638;0.47638353954015955;0.24456781456291424;-0.41657803554177236;-0.47039022387784324;0.5314045793152068;-0.6923823869130301;-0.5299242989033792;-0.2326574178548486;-0.49958324750509414;-0.7054286465527374;-0.534761775759816;0.2412343508015551;-0.7977633704726679;-0.9501129060250565;0.11327917146814157;0.5248663041005848;0.2644739899693482;0.688784449477277;0.2037371146483269;0.12066587169522465;-0.6304221055039703;
-0.5485048438579806;0.7095428779116943;-0.01948563967385719;-0.45445912398475047;0.6382977535663513;-0.924182462851113;0.7735343172525235;0.5625464700680511;-0.6094852562033226;0.20404352419203398;-0.7768868482405573;0.6548623385967846;0.09168060960262071;-0.47768151944689063;0.40688309235118036;-0.04649761318919665;0.5083537583570019;-0.20789376755402597;-0.31615979269571337;-0.41284194106048905;-0.3295879334897506;0.28148400470379076;-1.004376902258971;0.8499422379691719;0.4335960731913407;-0.35255698609914465;0.356401291416308;-0.4155748342989173;-0.8992880220270917;0.21997926427731196;-0.8726850570684527;0.08915189303416593;-0.6930338554061398;-0.19431425002414993;0.5249573707354965;-0.6432279003079691;0.5156482631060589;-0.1582898883941113;0.08490205826571318;0.2703243270864829;0.5615496908033297;0.6931694956267136;-0.4298789009011744;-0.6299329041784134;-0.10394907457169449;0.9421875372344399;-0.8705887904079125;-0.4092387300642014;-0.6341064037864709;0.017630440792237634;0.2638412414464493;0.2749427080300926;-0.35881910245609505;0.3691738654563397;0.5930768576162594;-0.4665621838084291;-0.06911272829509202;-0.3485101745295609;-0.41578145174149483;0.9710040660484991;0.30680625110517556;0.6126663862027601;-0.3764609308016679;0.6236050811082197;0.8817915196770408;0.009701460595597598;-0.8862736702540789;0.4443786534630118;0.39229546872864707;-0.6351807314128811;0.6639035670010334;0.2087486625556276;0.883505728623338;-0.3277283632677675;-0.8686401695453391;0.6940108729534669;0.9069060148302306;0.04281496067900492;0.3601956340981325;0.10235770815417727;-0.509792568565061;0.690098856551012;-0.09092574843151985;0.8553467016043835;-0.17725015307383093;-0.0912681227505814;-0.7444902088449329;-0.6822351154213735;0.6639192062893103;0.7122523654958184;0.8951107774765354;0.5397760590161291;0.6212590472251914;-0.5971752239833881;-0.7965485505308414;0.7938837894172424;-0.3599748236302053;0.3649710343600142;-0.010371627130867915;-0.7969368990090244;-0.9844333464260396;-0.23574583413453573;-0.5272034218602945;0.054547862047204965;-0.931629969388022;-0.6461900851199607;-0.2576898489433869;-0.7403292080109745;-0.855959753396996;0.7893819198982958;-0.4653522536367338;-0.15106613532546395;0.014557135707195938;0.1682994455482796;-0.8791833631961503;-0.7783671152774828;0.04640428367126358;-0.2352298418751272;0.0880568684793737;0.773790676015749;-0.421180166329257;-0.5456123154857673;0.333005851853461;0.8218761356737133;-0.6558098275974922;-0.4669786182829563;-0.1864828001133011;-0.3193502610492119;0.15803109221817607;0.3303310146868592;-0.4203031253308887;-0.414446688101225;0.6364101812738694;0.4391217516488684;0.08437460990886528;0.5727026673458202;-0.9706780878396712;0.42723579994046257;0.8985686416630402;-0.7630878203841872;0.5082539580794249;-0.8534986995073031;0.1550148115076237;0.242337014205119;-0.12694878436235787;-0.9239481112050691;-0.3353000083642336;0.6155989037294809;-0.9983712177677084;0.45288612130887085;0.9968781109019256;0.5570170519213979;0.04615118793279995;-0.9309651641810341;-0.3797445309754494;-0.9461044924843722;-0.058045241377955484;0.22653335062714103;0.7183873537894782;0.28370606152849137;-0.17076492274003163;0.9333421405150433;0.7264116476060528;0.39804682203405267;0.9250664618621627;-0.44342408270641176;-0.6065143880668779;0.4397257142726417;0.4447501622415836;-0.8759812228713276;0.7997272051558203;-0.7246466916966408;-0.20879991217717234;-0.9071800560398174;-0.3713423194945952;-0.6906474623028681;0.6553771186412187;-0.4825056102751368;0.052156026539507586;-0.3157799088335633;-0.2721230768192855;0.6685751906665376;-0.3970033703947092;-0.46510939956940067;0.2986906462118164;0.7994922684614114;0.12314945629801691;-0.7235636777765703;0.6981242884009966;-0.08405466664766129;-0.7327250839093421;-0.32634390933816426;-0.9098882584126458;-0.47217845586489604;-0.001848830907482274;-0.8046754935598252;0.5648939007775353;-0.8533373071348556;-0.2214506087251946;-0.13611831729772478;-0.2478361093207944;-0.06884400590212542;
-0.9877136379392446;-0.6184923562046607;0.3542145755071753;0.9735592896236347;-0.29370970892899495;0.910153321359648;-0.5735128859309235;-0.514782561704413;-0.04580978049920522;0.8340604013192341;0.46939103717528874;-0.9455909724960943;-0.7882479896467777;0.7986933693221208;0.030470456509017918;0.4498533091166426;0.8888208430774462;-0.9291278923710946;-0.8359543291623552;-0.87568670040765;0.22008048733175983;0.727999927332133;0.11899776046211631;-0.5424781761769721;-0.3194361600772031;-0.6552666264399574;0.5600256868382583;0.4512520149119268;-0.07137299216317478;0.41028843004061755;-0.04961863336929728;0.41926340295261066;0.20442380067554938;0.9517775071788457;0.3991889194402902;-0.20260761531060878;-0.6128687238832354;0.7933086084248064;0.5984073084212451;-0.05450344212169669;0.6034203383991824;0.4935404350666921;0.1439619473684559;0.6751573525049853;-0.06824081138620665;-0.4540270913696651;-0.8056774637133102;0.6446928457361681;0.4589947381789766;-0.7154033888404598;-0.21743385449784994;0.19679741468247336;-0.4053009393863995;-0.4673167679414787;-0.6244736345197697;0.47627223272813657;-1.0245356979629896;-0.7934708410698164;-0.4020939155703195;0.16242021189966202;0.6290385363997949;0.4977573805702338;-0.26792050742996176;-0.2219867551994311;0.7348802340556069;-0.903060629951622;-0.4765803053677637;-0.10128391602789077;0.7037979427496359;0.4677074843457669;-0.1325246893345375;0.4199087825223314;-0.844873501128177;-0.44320230070762906;-0.25045135399409146;0.9460052415631826;-0.6563260962505438;0.1722991588209979;-0.6272467797268155;-0.3601753646382404;0.8326550383595325;-0.7195388526407102;0.7770489578692072;-0.20660653448768726;-0.993811701413062;-0.7913700692679018;-0.7148387864067766;0.17777714789271637;-0.20468963864385106;-0.7347218307883379;0.2512573468786427;0.7018952823290403;-0.798373488133798;-0.9873648934151296;0.5020807389766625;0.18438858077700715;-0.5751504862351662;-0.1490813047105096;-0.7337011788671478;0.8881443464346513;-0.025626538240666952;-0.3927379924244165;0.39376250758752585;0.030525232047763824;0.5763538999462405;-0.5541835757938178;0.32443453488834456;-0.7755719462290225;0.9243109759717298;-0.44739573960236717;-0.7025221996529112;0.2972528298672582;0.38352612507279177;0.8291161114547757;0.6985425996049337;0.9032467854638734;0.7959019592931648;0.9455614389838134;0.1747453033816028;0.12586740352981607;0.27147729148943;0.8147403403902617;-0.4255657032878092;0.2923170312009308;-0.8814331729334304;0.2716271580645423;-0.3866105100369088;0.975654289416972;-0.6157007973207322;-0.6327848574351236;-0.5009068079144539;0.3441026785828163;-0.7327725006277486;-0.5366625791464235;0.49558840197287496;0.4193759941552519;0.9650957884040408;0.3443717555029133;0.006714134267364593;0.43532882192491507;-0.6671263695799943;0.21812939331110873;0.2230262583592835;0.4255326080380695;-0.5649114587796602;-0.9273770066384016;-0.2369470112483684;0.6049767465667358;0.5466570527081523;0.13346669768427488;0.1536381189381239;-0.6992703956571791;0.12793521403675764;0.5220642309361366;0.9157822305264948;0.958148220984999;0.3793781586690069;-0.5875041253446661;0.4408779455660391;-0.9236893023897246;0.09110743764629246;0.6078345165186781;0.5823901758096004;0.8890363431129373;-0.30730209765189004;-0.5841049533106626;-0.1365093336763041;-0.6893174376552603;0.25518624782917715;0.5937659463371912;0.04305481970027111;-0.9034644726607133;-0.37488447859386526;0.7571840362024588;-0.7942661627783182;-0.8685611512998592;0.7406431350487711;-0.9144401772047023;0.08570152996794367;-0.18990043989528715;0.42988336228917245;0.8960684520800466;-0.6334735796807001;0.5028474587251545;-0.40762820716961556;0.04652631945421682;-0.11209327654196621;-0.8880610263999359;0.5031562959941966;0.398478826054601;-0.18261582238217702;0.1318313858562036;0.6689201688588644;0.28675382863502635;0.027275590289108167;0.7689209702234743;-0.6725542439728744;-0.36791814790587096;-0.26532038232024796;-0.6830667882897626;-0.49089161346313703;0.029290239301950755;
0.26157050783757463;0.3488200925109688;0.9111770415189393;-0.13798410724491086;0.8209250017129989;-0.21923080353387436;0.1957285432392546;0.5340242352099889;0.12661002342785446;0.4548922641911295;-0.06162167607976654;-0.8125821036178151;0.7628854606518786;-0.017991867707614295;-0.9340312194400942;0.8760693068141665;-0.5060822061864346;0.11123836169703408;0.5133347152061667;-0.1802698194782346;0.7689847866063723;-0.6881952450692895;0.0993673069966595;0.6630449121558191;-0.05881398373013775;-0.770986204633511;0.8711276746970797;-0.43203635966485954;0.4261526560038327;0.7795042101019214;-0.9532054713625793;0.5371247973030262;0.5448632371519766;-0.022756113893633412;0.6911126185041758;0.9633459013616049;0.24976215814485367;0.6000165947644129;-0.1319321745564692;0.07811947249533109;-0.1748912708300177;-0.757061491514239;0.21466378836958477;-0.12017458018203074;-0.8675003859506053;-0.43665459452762967;0.5933986938546139;0.5990252652450843;-1.0205693482186025;-0.884697004246288;0.13962456271088072;0.9052065452268641;0.3112212470537835;-0.7361371853643595;-0.5620639467324811;0.9746294595982908;-0.9177891277820756;0.5453394435643628;0.8397091355875737;-0.6176267181204672;-0.2327268239160365;0.028366182900353067;0.9337849130045337;0.5117403924391521;0.7052523294568429;-0.6248477308005834;0.26008840287578333;0.8754020313963458;0.6752534917468842;0.7955211853951311;-0.4252085625980095;0.8385474187803516;-0.5423160562315339;-0.38708424690306986;0.2457093106747231;-0.8148772782574707;-0.1620106066042953;-0.3368317125911926;-0.33624273418115597;0.9847886811340123;-0.46571823337722357;-0.120014475924081;-0.7673740438174116;-0.9077848064758076;-0.4327887453420424;-0.6222071603239209;0.34984894792830584;0.597731886483357;0.9324116125720373;0.8038410652529107;-0.70859641840146;-0.45846687630254235;-0.1544428174023682;-0.6058649762200943;0.9487051174911741;-0.5511270670632598;-0.8614129139013467;-0.4575311363918959;-0.71716104315385;-0.8690494830491221;-0.889460789216296;-0.7524166999275238;-0.4349164657103261;-0.4475846529020358;0.5376401582938594;0.5943842666870055;0.48066675866740777;-0.0689797007773989;-0.8680670232444356;-0.967934309187174;-0.9605537893925269;-0.793719898169483;-0.7188010147585556;-0.5254566492040749;0.6516005464709511;0.10820743709443134;-0.2588769818364499;0.8493060086580065;-0.5689337509773741;0.8363783536118687;-0.3332482357758117;-0.9551534624550753;0.818232740003926;-0.8409921134679392;-0.09814405275480391;-0.8713043408234241;0.9153421021234882;0.19149048899203938;-0.5006780888227357;-0.8819771480145161;-0.29649189168736395;-0.7093954276526033;-0.8722427542567768;-0.4911739215333649;0.8387492595218807;-0.4407938691017819;0.23786243718596495;0.8276252160420106;-0.5028568356199278;0.5385462434318447;-0.04202405889635664;-0.21865558527807263;0.7013805869842188;0.37856595434363133;0.3433268843521942;-0.4482418489818941;0.3063610721752563;-0.8017265294607333;0.39700943089364976;0.23102676964800395;0.23188156997731785;0.47229746768251796;-0.4297599332796601;0.5730051507435597;0.14480170784258503;-0.4128975201094536;0.8566550865671402;0.044804415993679604;-0.2371169478131897;-0.04951511232619504;-0.8402346226630822;0.1582935918410638;0.4975708509084085;0.6862447080271961;-0.5857493652263358;0.7133244973927576;0.527957863233045;0.050473957617922297;0.9146852910739638;-0.5713222728852909;0.22869656742408442;0.14002044555504944;-0.12733553872555647;0.37812717015858316;-0.5210027521294907;0.3137986388196882;-0.8977924476793759;-0.23786067272154363;0.18296099961290377;0.3004688427573481;0.9418648720944103;0.4995681271996849;0.2595768839371155;-0.8954585542285405;0.7021333706729294;-0.0950612471685554;0.5514244471881966;0.7447696994153012;0.8144319735133456;-0.8960127493979319;-0.24934917611776003;-0.5887681117743195;-0.8903735310270937;-0.2726505406461231;-0.24395871295631563;-0.576986718644269;-0.756773021733913;0.47894805278510433;0.38073296737391804;0.268128346318348;0.3881630822090931;0.7358027046897497;
-0.37021840443187265;-0.47971359874290065;0.9234176169456785;0.9695997625861379;0.7046838023448476;0.379589291755948;0.5104554322563182;0.1481755693279385;-0.2653869119104114;-0.3162310530758661;0.4229188473979102;-0.16758619267916233;0.12649151289635338;0.751223882910169;0.9552661191076974;0.059331875205318005;-0.36343565861181665;0.9090415598962541;0.9032431435383765;0.47519930381234404;-0.9381432871019207;0.12550881772563663;-0.934020864809523;0.2664301963962945;0.6013729643486115;-0.5609146433077059;-0.9938104837676845;0.1518912927915679;-0.8946564860252867;0.0791630713582292;-0.9622316298619905;-0.1912159936664506;-0.31233692589146084;0.6073334444011622;-0.6155574230953389;0.9426617442481469;0.4216940298196846;0.3766815787479252;0.6919226828477905;-0.7456293490457362;0.2305488250329827;0.023775515151263363;0.08561510768001834;0.6174331005596204;0.23020774902247274;-0.485859156071593;-0.7118940457384726;0.8096475034120898;-0.07510995827080118;-0.7455854814366298;0.09675477743694641;-0.9582237561302847;-0.7528470770772048;0.5549473271569179;0.9265004918064755;-0.15471977773600612;0.7353794769266865;0.15607315400171795;-0.35666403872254354;0.3875489583826055;0.038244117449402266;-0.28007435430364963;-0.18103551282980002;-0.6766778130557632;-0.17699221575670443;-0.9506477059109447;-0.8395966801805749;-0.3993712348781012;-0.8480811683072872;-0.21330904891728797;-0.27413996962828563;-0.2807366960183112;0.02069130816499298;-0.953693300345623;0.469551614176515;-0.5618514902607645;0.17801388129208975;0.297987064714635;0.7634257390275753;0.5328498996403489;0.6810961230818687;0.08462373594710351;0.8560560032561941;-0.08706004074929352;-0.16011577808331334;0.011546206351194048;-0.10077941094570692;-0.0926630877869572;0.21272075369627155;0.020634087322972672;-0.5132226750245931;-0.1378086973037266;-0.9797290380456608;-0.4202357441829834;-0.1415605084182288;0.49635267303657793;-0.9619771778644631;0.867517136388163;0.02792927898799299;0.9220180572921167;-0.446126572157049;0.8098375525100562;-0.2135152307956013;0.26712945690810336;0.6712245281494122;-0.6694442468418039;-0.008205154034987807;0.26689448882322253;0.39103417337006535;0.7819328776997682;-0.17799504957707277;-0.08772970357238706;0.08035127716259273;-0.3813289887309193;0.9741194749345806;0.814097813601571;-0.5541954286624734;0.08893381011580008;0.421982902380492;0.7612252120778659;-0.007199846073269758;-0.9298175982427768;-0.9954225178376468;-0.906373660472497;0.3866205937075712;-0.41536938846913907;-0.3848912803358741;-0.39839611150803034;-0.5574808609756593;0.9368742912082098;-0.986049767200032;0.8140331326127814;-0.3544947801221964;0.32236138339001225;-0.6208839905771987;-0.5992524887270193;-0.3354174138264583;0.11614393767767561;-0.23725413975179133;-0.5846621825342794;-0.7833312676598068;-0.11963008172203714;-0.5072776502858273;-0.5504871922918366;-0.7121783359972724;0.32577827836694534;-0.5200172011672033;0.7290698653877596;-0.6173540784567988;0.4279703319695001;-0.4792567685072834;-0.8832325876354329;-0.05466454821917307;0.6448365384154724;0.930660104911458;0.7737252226865741;0.4226073307639964;-0.2437302902956788;0.982852233568102;-0.46809763881949423;0.961406058553674;-0.39976721417470445;-0.2524164298713566;0.6370316703978874;0.8001188119358484;-0.9213226386208464;0.10292520010079531;-0.02240870157496687;0.010020231079044142;0.1465938796818178;0.567446968934172;0.9854428743492539;0.4584185322573915;0.8320392024588855;-0.9762974379955018;-0.06157003577762536;-0.6954004922028395;0.7333840355193713;-0.5744573537743536;-0.7238347317287538;0.5426432735817002;0.09128302925607178;0.15217356159413095;0.7062114915087712;-0.7390804707758152;0.3978813348999038;-0.6004034631184204;0.8887449335396157;-0.34618841427139135;-0.934327535958662;-0.17852821604255623;0.7847039360173164;0.11018573288646372;-0.6650710351865693;-0.6981163044660379;0.3657958432751708;0.9208187733640987;-0.9641469821910007;0.009012429028106365;0.598346371620194;-0.3872923673222617;0.7626147344533108;
-0.7164173939840153;-0.9215262215180295;0.06363894679009352;0.059998359503707;-0.11213420453357524;-0.7874583793581555;0.38085885262266417;0.527051213354649;0.4307501557172596;0.6596572150878937;0.14963855991543085;0.6047484354664585;0.7314130593018228;-0.14564374195572127;0.500518780889913;0.5388377639314467;-0.17569805868149863;0.2429527055168496;-0.0029155627539172446;-0.019463495100128864;-0.0478750700428181;-0.40816282043211516;-0.9187181186773764;0.335391387232862;-0.4356804032150968;-0.43891422437199257;-0.39320577717345184;0.7220884794258573;0.86614618044313;0.10545390982236569;-0.7756597005662614;0.2821328444825261;0.6187521826144384;-0.7347803822199896;-0.5908045501632684;0.4441469073037083;0.13082163212118833;-0.2519134485032144;0.33533298196676486;-0.45124754630962477;-0.5777939144944392;0.39125870164146376;-0.7365089689433306;-0.4856645280806733;0.04151652417311609;0.11154566273946265;-0.44604401232153773;0.4610762636530295;-0.5690641773189182;-0.7863885720163959;0.36860569051850584;-0.1841039230142143;-0.7901361374912249;-0.10308368570362281;0.7049606363459849;0.9387912444683304;0.9817713335691975;0.007711297571267872;-0.4268147761200299;-0.8290104274630303;-0.23395817471252778;0.4093712204541629;0.5544058650500515;0.6703394813529574;-0.45652468614691627;0.8480238656759177;0.16399359842835542;-0.7118463660483392;0.758680823710676;-0.6848428798057491;0.5029281602857554;-0.7836972223035683;-1.0098747292912809;-0.24198567258544398;-0.2503292195656017;0.6511504706367239;-0.4603110494711956;0.14587106619418044;0.8560020289471179;-0.27525866661120246;0.2600381528670871;0.5029091111157928;0.2510880055315288;0.6550476433256666;-0.11882133497103228;-0.43548222871647035;0.3220796367175211;-0.8405246715313448;-0.6763618501041357;-0.6334051009790529;-0.33820854271751527;-0.6730863626921738;0.5396309878671526;0.38889765055035364;-0.7587704375658012;-0.051369794993892715;-0.47968033448011915;0.8079973929417901;0.16080205380618354;-0.5321409342930714;-0.6629011734845234;-0.473688045758932;-0.6448514290263601;0.14960796406502716;0.5825054185140789;0.49423560771702646;0.11637131078043286;-0.6671877290560131;-0.5072418064171482;0.6346459503545963;0.21054054867797714;0.5106344241105572;0.26926573484050403;-0.7166059489888658;0.679973019389854;0.8017384297234794;0.1867214701005831;-0.4581037022344022;0.6579055104095802;0.8985098812403693;-0.23360494923478903;-0.6060327360156654;-0.26391137153312455;0.8989055915220928;0.8107617157171298;-0.8206415938308917;0.33819155427644065;-0.8593241988120882;0.1587361249454421;0.45762078495586;-0.5462807211637011;0.6457568804693037;-0.10769984896465215;-0.3492999898543872;-0.30248725501656876;0.9891458788093166;0.9351041863023118;-0.469744696513525;0.059530900551250494;0.6514437906060007;-0.9705809376666891;-0.6902310676571702;-0.2715201654184944;-0.8055676625892676;-0.4060332469106748;0.6019695887499077;0.05189918137768863;0.5549988130693835;-0.35923762962526895;0.2586701538101741;0.6339303503933822;-0.3377009430523597;0.9907694651466925;0.9988343235039655;-0.4362034221352596;-0.805171889538211;0.41634704494616587;-0.9424368504101256;0.25193381349981675;-0.16866473636553206;-0.5351131734531679;-0.8130878650282009;0.8569257023458681;-0.557122848296903;0.44185673377887097;-0.8146970066565404;-0.26683468681102046;0.06361416647999608;-0.46524496274766775;-0.050153628516659;-0.7922843258973866;-0.8923556300687788;0.3347351382836038;-0.6338710827468237;0.6237030169260659;-0.19361555522769894;-0.5396795655276676;-0.4344958198312233;0.06464626608895065;0.7466271513603377;0.9042125911265562;-0.13797871721269797;0.7168344462059668;-0.08062019010648255;0.27403300259665575;0.4345348151074376;-0.896492777213287;0.42152594649590064;-0.4138838881620768;-0.0955722356874488;0.10182887989727317;0.9378652244857517;0.5471228224663538;-0.3367555395850253;-0.7280335596883334;0.08647335242837774;-0.22347580063642858;-0.40978258453302446;-0.7269551032566531;0.9494993214022883;-0.3244790664244225;-0.15291948797511457;
0.4392666501725942;-0.005315403850966183;0.12710714800007805;-0.03264468338309482;-0.5670870100815394;-0.7033694076681545;-0.3118226270466853;-0.8437074433989529;0.8384474727871574;-0.1376543407198363;-0.7742545032888446;-0.5128355991207875;-0.2675314034139327;-0.870842782278568;-0.028649008911933338;-0.9516000021688329;0.8119506195673138;0.15174008891938426;0.39934238889792906;0.40807773460761715;0.7791633443834017;0.032463403475442076;-0.8075653025727405;-0.7313351116343114;0.19529008549633642;0.33547751524918556;-0.49574565714798946;0.6833778659289494;0.33449828367600676;-0.49761874060060696;0.8400243866360769;0.7273748176344976;0.8636953198576204;-0.8923970553222986;-0.2772954861258775;-0.832319560487262;0.1450138147723433;-0.2656994586205035;0.4002994646218377;-0.26531032733048143;0.3611041174810664;0.9048247173933396;0.8102190928831821;-0.09296822185524888;-0.8063582889669545;0.04498073538355274;-0.2868104472410591;-0.7443690930753141;0.7016625785150227;-0.07840466612802066;-0.12287553672639452;0.659876328546509;-0.9847401010717122;0.9845331747563331;0.1845522696188924;0.22195277746411796;-0.7217478138267035;-0.34796432832365354;-0.15324836355460575;-0.42392491306657554;0.7076917445632499;0.20113978066739913;0.240312896133375;-0.39329843558610883;-0.9522592849057957;-0.5197612677687213;0.051113663751168804;-0.5864340295429494;0.3967480938057482;-0.7804724762642087;0.6899772204499763;0.8541212104151067;0.8596621436751489;0.7795585358229504;0.49469506020843224;0.16411173284258185;0.3361477288031553;0.8702673166219361;0.5686988412609759;0.7026586862061872;0.22603895191480936;0.8843509671029406;-0.6748207692988852;-0.9699145602065528;-0.29308168641971377;-0.7976106819374562;0.37119967165890766;0.989096653530527;0.7670915935809042;0.024292927749864468;-0.02394899521355166;-0.48455245816691644;-0.9562983069920026;-0.04124929099575381;0.23647694124202942;-0.3634535789178328;-0.758757130670452;0.9735966194424517;0.5681761011709291;-0.3589766326247495;0.061470901522614856;-0.17236046528058013;-0.48571682187882637;0.9196253872259941;0.7690801119567909;-0.42034906919645687;0.06706039738238787;0.21763925114471272;0.025699454296172663;-0.7593612987720831;0.6210902157661575;0.7269048926252124;-0.921986896282049;-0.5186478604403152;-0.548780639912259;0.19443893974571455;0.34777681025870627;0.4727135178162633;0.28031956751695747;0.4397084478561935;-0.9460355412087113;0.12929814026861233;-0.4623218550832592;-0.6755282794600259;0.0076723867478963636;-0.8639349908440355;0.3010634035971966;-0.5133774438791868;-0.43263913047920677;0.6103408286153875;-0.6026602080754496;0.5886320603182877;-0.016209911122395376;0.8753819963467717;-0.11951295946343783;-0.3971856547739175;-0.4699597220323523;-0.19523030153031784;-0.30837357702674484;-0.7937666682096184;-0.7299004722363026;0.29572127542681026;-0.07634207425320977;0.5790264386698432;-0.8050187499833672;0.6854044633398662;0.8613774539492052;0.351844012725962;-0.6747942955737332;0.467981151629846;0.7680496359892832;-0.15223167965239368;0.3833556173428587;0.92239214539058;0.8311517042486054;-0.4905490262428325;0.6756621470846608;0.9841926415687521;0.682750579010779;-0.5906164535619848;0.7322948635048953;-0.04687668391791045;-0.521675021334324;-0.2738142300320616;-0.34604482122562613;-0.10986472134939963;0.18295927218439317;-0.990625698251675;0.7835619668894899;0.011797990482115286;-0.5074880417404017;0.47477731067007173;-0.9320530618323831;-0.9214660889919434;-0.1880016460276559;-0.3290729023099645;-0.24564361135971027;-0.5808286662716294;-0.6574348124876489;-0.8116117781732506;-0.7016345360013534;0.9530659096643714;-0.9507693807884822;-0.04231520340169933;-0.7634381963639023;0.08501701504426282;-0.09295286435906197;0.32529631293045197;-0.27649065572829556;0.13150599839591737;0.22398747121759804;0.24353224693239578;-0.2682698834585475;-0.4584480958114827;-0.618774846301241;-0.9818257430237617;0.6642382591181601;0.4377626930365626;0.8810597352037837;-0.6397773487071914;0.126159982653405;0.5891686203855806;
0.7591854879998947;-0.697954165037934;-0.4923903987519309;0.3843023929934508;-0.32819215601106805;-0.5780500806636333;-0.542331120655029;-0.5539295313264944;0.7762406540870715;0.7955240497006271;0.050518187962470096;-0.5222381231779448;0.6890428479291151;0.7988798388916383;-0.38114963575619876;0.590092227972959;0.8630782787116509;0.0314368602898269;-0.9835490726413583;0.24579235804539878;0.6899299821138312;0.45531130421785904;-0.3773673507734976;0.7372077828416914;-0.9077083653470018;-0.6589809531188471;0.7861983086048205;-0.8632413149377168;0.395210962092793;0.854201592498502;-0.39347041082635653;-0.8265069411078861;-0.5698060605100527;0.06914736349789674;-0.0769070296243812;-0.5036424901900894;0.3374066102260766;0.13810993847834618;-0.5346874629489754;0.9073615873063657;0.22609635842852266;0.6483183971412645;-0.028705133582492347;-0.3596381439491584;-0.45584704381368546;0.837283644838825;-0.1437506183203015;0.236706831451516;-0.46030727187629694;0.0023018715734428596;-0.40180448576176614;0.2876979385760454;-0.9842307651081869;0.8947071963128936;0.5824922951469583;-0.5635508624265533;-0.5155596358611598;-0.4699553925380968;0.31522670692026844;0.7666522864545815;-0.5373973909164228;0.9265868467778253;-0.6119961383716249;0.8761406510434633;-0.7820760912455325;0.15387882756729318;0.7827149286685521;-0.9517695348451871;0.7911015500057595;0.5259530286269687;-0.4581857834498836;0.2717152735820739;-0.6014478808456974;-0.4357497529302244;0.734380207354464;0.6469025165627489;0.6490821305809442;0.5676983703032683;-0.019027122510912885;-0.7804149736053299;-0.015704173222209346;-0.913809201494621;0.4631870933587582;-0.13501663414001713;-0.31739559653423294;-0.004801226993904073;0.07931266644287514;0.6574198624345677;-0.7793437219722817;0.2589696103606016;-0.7952850155907478;-0.2861338206151723;0.6951390179364295;0.8517178959146645;-0.7499078174863761;-0.4945495102868964;0.9327809012653094;0.8738349161256922;1.0017405348355009;0.10394173136106737;-0.6615160345493992;0.6864300932291887;0.06051673146387752;-0.41979606270683906;-0.047272983125282435;-0.9291865495477751;-0.17361553997666115;0.6279435119405801;-0.688078138380584;0.5515915164836935;-0.8387354974112564;-0.7401573723564774;-0.4316873940533623;0.01427247419994855;0.5395937457597567;0.352484506965428;-0.5711009608711117;0.3991968035332414;0.9589544206424795;0.5555291325766866;0.03744551287206587;-0.05054906602792013;-0.0025435999856633588;-0.6460972021075347;-0.5186428886816961;0.906126628143688;0.05673995219220711;-0.6235990883711505;-0.36450419782019977;0.8749992458194121;-0.6983463620783233;0.506211101575293;0.0483924102497324;-0.8424473534285397;-0.9832121566080538;-0.7134029181446571;0.5334634613881137;-0.027077992227394043;-0.9696502546285819;-0.4422839683583258;0.43714213826343795;0.40144817036665276;-0.6373114474912622;0.7980838929102954;-0.5673597371647167;-0.9262458238244333;0.5183095317301645;-0.7813519943904131;0.3076541303439561;-0.9879478226414091;-0.9354965886543751;0.04185238804176458;-0.3766666265072539;0.45694440490816685;0.7466853215509688;0.13638268576610857;0.0257895663275134;0.0774613814165176;-0.02006416002242679;-0.4738025278269526;0.9204542232696324;-0.9559861890518145;-0.525097718534661;-0.5499719573908244;0.3658645457880801;0.8965295358207782;0.07647200624936398;-0.8373006139864552;0.590177238022725;-0.4018078366841844;0.29541421286135955;0.026279661825121755;0.1203318335564804;-0.16218820485258859;0.20927250166386568;-0.06333219692878704;0.6322554650472151;-0.14999559873883572;-0.6458477757531559;0.12147625140796747;-0.1877793987315568;-0.529837280385789;-0.18535088914449255;-0.30543064519708607;-0.7519343822438969;0.23869093231779626;-0.34261355251390563;-0.8357688228390563;-0.7258064968232487;-0.4913702972106703;0.3314949074995845;-0.9518776871207087;-0.005611487511363089;0.8464813448113289;0.857672139808864;-0.029814468884748892;-0.4083981738974516;-0.008743215636914771;-0.011246138045126324;0.917521945661477;0.01882887262733747;0.48598194274422807;
0.46598189533671897;-0.8659814588430685;0.05158425786573595;-0.08633269417188338;0.1348719133482003;-0.4823056502938743;-0.7998754157244901;-0.4488997165538561;-0.7774522379545613;0.7319594200278372;-0.15192802376482306;0.33853378351036884;-0.46250478229906267;-0.6784378618291227;0.3380782271082057;0.6773853698707328;0.060034475221625;0.34335409881507256;0.473841806521234;-0.9340119184031984;-0.843653183560265;0.598132349796677;-0.19608807088515878;0.7328932986276342;0.39038956834221833;-0.6183772806537995;-0.238057685233919;0.15578685442199444;-0.6327146281634224;0.6961897237072452;0.09989952460963188;-0.008289444745571752;-0.20102878199459429;-0.978139611331424;0.3130406532435394;0.13749168355320185;-0.7655614742943336;0.43385475324068534;0.215099077778872;-7.652643338944515E-4;-0.4775984409220534;-0.06730557929993684;-0.6202350762807218;-0.1984442150379988;-0.3482231218518933;-0.261804073659778;0.21162617680888088;-0.3787475839670819;0.39763447524205653;-0.0049025598901757395;0.5490812648440551;-0.13596581555792886;0.1385987179476175;-0.8125299387004719;-0.07377132753914573;0.07744651038397422;-0.8110075579563583;0.2198887291453775;0.19953576632695794;-0.610641255984754;-0.772734229238714;0.36161446771039907;-0.7615305322178348;-0.2089015448239752;-0.6749889298215176;0.38705866560622476;-0.0038625755093449343;-0.394760579577053;-0.602583104472005;0.5504758358812003;0.3709338684029737;0.07800874676049559;-0.14932867622525972;0.11374459526971634;0.2817127716471504;0.976551796979501;-0.8276811296600461;-0.5730950491808917;0.5476048352879437;0.8551565592714175;0.8201252515407322;0.041111833365606955;0.8846562464204871;-0.7569708611224985;-0.11609925503345399;-0.9548011935005406;0.3531083233517011;-0.1267621811772106;-0.08458527768642861;0.9109192143804503;-0.12320149910632047;0.36754517050152263;-0.7926823546228137;-0.5093467260126643;0.7132446491400222;0.7757676347532907;0.15117643016442545;-0.150086520948071;0.9681620586206199;-0.2991391027362782;-0.9670786965038938;0.2594619930151004;0.82162840374517;0.7246910010304409;-0.607142236105031;0.7025457064216919;0.7716462809496831;0.0660441126500888;-0.7503058797888497;0.3673741878396539;0.8724935138661702;0.5486187910787096;0.3256229226606402;-0.06606190734969161;-0.313064671210354;0.8296702225570406;0.3778710696768755;0.09757245780583272;-0.7400975986571758;0.22606840747627913;0.018966543739422047;-0.12159621412178045;-0.2835731094636427;0.9161228985522074;-0.2850401654053841;-0.29686494217254084;0.4044624526627902;0.3863854858350632;-0.9000809343923001;-0.009876566485724277;0.8342530591075983;0.6180066227550265;-0.525198945843118;0.13128944310929758;0.8660781885720507;-0.5958015055128115;-0.36622444071249455;0.28978198864393456;-0.08306829308382374;-0.5062147485824442;0.801649813980601;0.7090457230975113;-0.056022075759682634;0.515953179437958;0.1681834606582092;0.20651454514023126;-0.047266433352875475;-0.06755740115578562;-0.29378980891011636;-0.687018005236224;-0.9494623555293021;-0.1465563736376029;0.572174766108727;-0.28223489095353;0.2764512219139466;0.20953485827868534;-0.2379431199916693;0.014932031595186973;0.6936069149639545;-0.13156309114201878;0.23059309825933497;0.1592065386971317;-0.983191928788824;-0.6741776820501709;0.4456268724930229;0.25347119410908325;0.4430284101433036;0.1171297921669264;0.9700581936686135;0.403632253233655;0.9782849146874024;0.8844016585173088;-0.28841491813099573;0.7013673356977801;0.2344667749930305;0.37273813424075986;0.7880468079914089;0.9494987049060929;-0.7162275071918631;-0.33799501236942425;-0.9011844897242014;-0.6155216601003699;-0.4577145939808464;0.7307986581956004;-0.23618598037460115;0.0554253658850782;-0.7140473223375657;0.5531954409371409;-0.3948470910402;-0.260065434193334;0.06738132316754802;0.3768786991674363;0.6055575718742123;-0.39308929733566783;0.16471656617722685;-0.8968925580113868;-0.7147499413410383;-0.6070479552819448;-0.4371243388214274;0.7462085161662325;0.5675432037430903;-0.91322151759209;
0.6968856730510103;-0.5139961430547688;0.06893204991432222;-0.6685213094996362;-0.9576148065370909;-0.9116436216879067;0.39794987703169427;0.631102494752427;0.356081823571054;-0.28888931699582576;-0.6702783296223658;-0.19754446042788248;0.7110709535963186;-0.7255937617476216;0.16016444946555164;0.46571893423155697;0.5847565647196373;-0.410816237165981;-0.9054498470178574;0.975829119486633;0.6217972566551345;0.2425465956164498;0.6124706714029235;0.9827318648053933;0.4829767942961216;0.9007782651806036;0.10574752975308813;-0.02281426492142333;-0.21545166168763139;0.3278095135944441;0.7682319314976085;0.23203178334668081;-0.5292591429705797;0.8196445567135757;-0.13380017787898674;0.3043430040857112;0.5909733453955517;0.1579935282562075;0.6025393203957085;0.6776353436832856;-0.020378183226781216;-0.10643273262174753;-0.43032364974535336;-0.30897690126042293;0.30508336963401916;0.17175721407047262;-0.9308333412867458;-0.6793214535628516;-0.1735760881178124;0.9631659574388314;0.14016126206271787;-0.48849075988879975;1.0048419874235928;0.2165945110796621;-0.8499410582219162;0.06310283849672346;0.8512297275549237;-0.31392772433529403;-0.5283962041550033;0.42725681187602405;0.3019623510345496;-0.41566211599266756;0.08691722829376593;0.031735321899022395;0.024822561037015335;-0.8073607115859904;-0.1742189420083092;0.8760481979857008;0.46530646517005486;-0.8288739569003455;0.2833021695496109;0.3316951101556203;0.8723521617533988;0.5297689924301224;-0.19497918094816968;-0.1272026322412625;0.2189012973472178;-0.1451120200340783;0.11750191953780585;0.49653980656066005;0.14142851727149536;0.760871766181894;0.18261185962607226;-0.4119833581335734;-0.423363018124497;-0.6435098737899183;-0.831745863125717;-0.4550422252047801;-0.23631807759325177;-0.6191703745174766;0.5758172509492466;0.9579101803029675;0.11006775151706638;0.6603352611352851;0.9963834859759346;-0.10316207453904958;0.9923560338992911;-0.20606467707301196;0.5951373468127172;-0.9172982442920404;0.8072060769643221;-0.9206892447392439;0.6972667727886666;-0.5335017061322389;0.36825402091096965;0.5037817455674332;-0.16518049745133692;0.8277784907826913;-0.9959415628947396;0.5931261146351923;-0.49708096111016464;-0.29012931219866306;0.15661999090286313;-0.7400406942264353;-0.6079090389467281;0.4612106752763066;-0.21923410149244993;-0.1395875026678901;0.8461821322471074;0.9831604995803261;0.8619593995269546;0.24934622149358762;0.31281765645817405;0.36812022482744;-0.49591543389322335;-0.13540479755476884;0.4760043988945728;-0.4507448775312504;0.22589570343850995;-0.47153065079549045;0.26031586164976805;0.11858765634006652;-0.22912268277658532;0.6104415020408263;0.007905828877620532;0.21771105229743415;0.5695692046554213;0.6896056305700315;0.9096892422767282;0.8552467102204617;0.9623222172135922;-0.18747679342739895;0.2935355134707808;-0.5411984493728921;-0.38901168858560137;-0.3902539425566348;-0.08429392762267303;-0.03775359014664148;0.5038275553698662;0.34036410681661344;0.09186724481838231;0.7628592003082661;0.4925790398536658;-0.2958757697906053;-0.9555849059893649;-0.6372433009375895;-0.23183304086264556;0.0075490591915417194;-0.8488337990704335;0.8907627845519666;0.02036407658405249;0.21729920960708302;-0.09813760084719353;0.4162207674070584;0.5400205456422642;-0.475879381042267;0.2413595724904156;-0.5191784186671188;0.11217246032461042;0.21399702319911904;0.8892817811674527;-0.26930567305560393;0.900234846326976;-0.7404139324262576;-0.5750840472644684;0.31178341460320697;0.5638875157523002;-0.7274349512976722;0.8751718003062698;0.8434777992904526;0.5986476709994097;-0.059106445791990606;0.4243177698108534;-0.32933216458570325;0.6207345720885142;-0.7821157214793573;-0.5971275249645436;0.798750366114162;0.03217142299358011;0.6499882697369569;0.2949493545721785;0.7935827418947456;-0.15866201929529944;-0.3860473060933651;0.6586448384642077;-0.7990436166680627;-0.31766777046017025;0.11856681338391498;-0.053801678022499806;-0.7286948179621223;0.6419725381683434;-0.23036786244112661;
